{"learner":{"attributes":{"scikit_learn":"{\"_estimator_type\": \"classifier\"}"},"feature_names":["Pregnancies","Glucose","BMI","Age"],"feature_types":["float","float","float","float"],"gradient_booster":{"model":{"gbtree_model_param":{"num_parallel_tree":"1","num_trees":"40"},"iteration_indptr":[0,1,2,3,4,5,6,7,8,9,10,11,12,13,14,15,16,17,18,19,20,21,22,23,24,25,26,27,28,29,30,31,32,33,34,35,36,37,38,39,40],"tree_info":[0,0,0,0,0,0,0,0,0,0,0,0,0,0,0,0,0,0,0,0,0,0,0,0,0,0,0,0,0,0,0,0,0,0,0,0,0,0,0,0],"trees":[{"base_weights":[-3.0512478E-8,-6.8756485E-1,1.1681726E0,-1.1636583E0,-7.230054E-2,-7.2318725E-2,1.6169027E0,-1.4425406E0,-7.74512E-1,-8.696472E-1,3.2343772E-1,-7.62994E-1,6.475955E-1,1.2118579E0,2.0103004E0,-4.4190988E-1,-1.4747593E-1,-4.666452E-2,-2.9052562E-1,-3.3342156E-1,-5.075329E-2,-2.9434776E-1,1.9755688E-1,-3.067721E-1,5.3297136E-2,-1.1286821E-1,2.6330054E-1,3.9569405E-1,-1.1286821E-1,6.3778853E-1,1.0399205E-1],"categories":[],"categories_nodes":[],"categories_segments":[],"categories_sizes":[],"default_left":[0,0,0,0,0,0,0,0,0,0,0,0,0,0,0,0,0,0,0,0,0,0,0,0,0,0,0,0,0,0,0],"id":0,"left_children":[1,3,5,7,9,11,13,15,17,19,21,23,25,27,29,-1,-1,-1,-1,-1,-1,-1,-1,-1,-1,-1,-1,-1,-1,-1,-1],"loss_changes":[1.1534029E2,2.6395061E1,2.9733612E1,4.4062347E0,1.3060896E1,7.997712E0,3.7964783E0,1.0196304E-1,2.65868E0,2.1328201E0,1.2797083E1,2.174358E0,2.198133E0,4.2031097E0,2.789154E0,0E0,0E0,0E0,0E0,0E0,0E0,0E0,0E0,0E0,0E0,0E0,0E0,0E0,0E0,0E0,0E0],"parents":[2147483647,0,0,1,1,2,2,3,3,4,4,5,5,6,6,7,7,8,8,9,9,10,10,11,11,12,12,13,13,14,14],"right_children":[2,4,6,8,10,12,14,16,18,20,22,24,26,28,30,-1,-1,-1,-1,-1,-1,-1,-1,-1,-1,-1,-1,-1,-1,-1,-1],"split_conditions":[2.2568268E-1,-3.588823E-1,-2.530543E-1,-1.3889708E-1,-6.52672E-1,7.903393E-1,1.0726676E0,6.3872695E-1,2.1625873E-1,8.353161E-1,-7.096832E-1,-4.940529E-1,-4.441822E-1,1.009928E0,1.7510391E0,-4.4190988E-1,-1.4747593E-1,-4.666452E-2,-2.9052562E-1,-3.3342156E-1,-5.075329E-2,-2.9434776E-1,1.9755688E-1,-3.067721E-1,5.3297136E-2,-1.1286821E-1,2.6330054E-1,3.9569405E-1,-1.1286821E-1,6.3778853E-1,1.0399205E-1],"split_indices":[1,3,2,2,1,1,1,0,2,3,2,2,3,1,2,0,0,0,0,0,0,0,0,0,0,0,0,0,0,0,0],"split_type":[0,0,0,0,0,0,0,0,0,0,0,0,0,0,0,0,0,0,0,0,0,0,0,0,0,0,0,0,0,0,0],"sum_hessian":[1.4160196E2,8.939635E1,5.2205616E1,4.9895634E1,3.950071E1,1.4090897E1,3.811472E1,2.7488798E1,2.2406836E1,1.2704906E1,2.6795803E1,7.1609473E0,6.9299493E0,2.0789848E1,1.7324873E1,2.6102808E1,1.3859899E0,5.7749577E0,1.6631878E1,9.008934E0,3.695973E0,5.0819626E0,2.171384E1,5.5439596E0,1.6169882E0,1.1549915E0,5.7749577E0,1.9634855E1,1.1549915E0,1.5938883E1,1.3859899E0],"tree_param":{"num_deleted":"0","num_feature":"4","num_nodes":"31","size_leaf_vector":"1"}},{"base_weights":[-2.1043396E-2,-5.498629E-1,7.784597E-1,-9.604576E-1,-7.161658E-2,-6.724307E-2,1.059923E0,-1.2341627E0,-6.0869056E-1,-9.92692E-1,1.5058461E-1,-3.9012566E-1,8.5783815E-1,4.0454555E-1,1.1668444E0,-3.7882426E-1,-1.2558515E-1,-2.4315013E-1,-5.6269336E-3,6.82379E-2,-3.6449403E-1,-2.4517229E-1,1.2013758E-1,-8.882444E-3,-3.3622038E-1,3.882741E-1,7.0481814E-2,2.4607655E-1,-1.8568065E-2,3.6103857E-1,1.10132016E-1],"categories":[],"categories_nodes":[],"categories_segments":[],"categories_sizes":[],"default_left":[0,0,0,0,0,0,0,0,0,0,0,0,0,0,0,0,0,0,0,0,0,0,0,0,0,0,0,0,0,0,0],"id":1,"left_children":[1,3,5,7,9,11,13,15,17,19,21,23,25,27,29,-1,-1,-1,-1,-1,-1,-1,-1,-1,-1,-1,-1,-1,-1,-1,-1],"loss_changes":[5.915956E1,1.6464483E1,1.3333786E1,3.6027527E0,8.330849E0,4.771242E0,2.4614868E0,4.160309E-2,2.5756779E0,2.4192977E0,8.325614E0,3.0479722E0,8.255749E-1,1.4861435E0,5.966568E-1,0E0,0E0,0E0,0E0,0E0,0E0,0E0,0E0,0E0,0E0,0E0,0E0,0E0,0E0,0E0,0E0],"parents":[2147483647,0,0,1,1,2,2,3,3,4,4,5,5,6,6,7,7,8,8,9,9,10,10,11,11,12,12,13,13,14,14],"right_children":[2,4,6,8,10,12,14,16,18,20,22,24,26,28,30,-1,-1,-1,-1,-1,-1,-1,-1,-1,-1,-1,-1,-1,-1,-1,-1],"split_conditions":[2.2568268E-1,-3.588823E-1,-2.530543E-1,-1.3889708E-1,-7.096832E-1,1.323626E0,-7.000819E-1,6.3872695E-1,-2.5200683E-1,-1.2931534E0,-9.036305E-1,1.7736149E0,-7.731039E-1,-8.7068164E-1,2.2001143E0,-3.7882426E-1,-1.2558515E-1,-2.4315013E-1,-5.6269336E-3,6.82379E-2,-3.6449403E-1,-2.4517229E-1,1.2013758E-1,-8.882444E-3,-3.3622038E-1,3.882741E-1,7.0481814E-2,2.4607655E-1,-1.8568065E-2,3.6103857E-1,1.10132016E-1],"split_indices":[1,3,2,2,2,1,3,0,0,2,1,3,2,3,3,0,0,0,0,0,0,0,0,0,0,0,0,0,0,0,0],"split_type":[0,0,0,0,0,0,0,0,0,0,0,0,0,0,0,0,0,0,0,0,0,0,0,0,0,0,0,0,0,0,0],"sum_hessian":[1.3791321E2,8.319642E1,5.4716797E1,4.422182E1,3.8974598E1,1.3853321E1,4.0863476E1,2.3459696E1,2.0762125E1,6.9009643E0,3.207363E1,1.0697748E1,3.1555727E0,6.402533E0,3.4460945E1,2.2135502E1,1.324194E0,1.5191425E1,5.5706997E0,1.0598916E0,5.841073E0,6.1156287E0,2.5958004E1,7.8598475E0,2.8379006E0,1.2217927E0,1.9337798E0,2.9842765E0,3.4182565E0,3.2469448E1,1.9914951E0],"tree_param":{"num_deleted":"0","num_feature":"4","num_nodes":"31","size_leaf_vector":"1"}},{"base_weights":[-2.7852755E-2,-4.4853312E-1,5.680919E-1,-6.48764E-1,3.6069253E-1,-1.3207592E-1,7.4942696E-1,-7.8270894E-1,1.9080259E-1,-6.9587564E-1,6.1988693E-1,-2.8723443E-1,3.6902934E-1,5.0122267E-1,1.1055331E0,-3.166213E-1,-1.5127578E-1,-8.766154E-2,2.665125E-1,-6.858603E-2,-2.4351569E-1,2.569985E-1,-2.6640412E-1,3.6081412E-1,-2.1092989E-1,-1.5845032E-3,2.4843995E-1,3.6272952E-1,-3.776876E-2],"categories":[],"categories_nodes":[],"categories_segments":[],"categories_sizes":[],"default_left":[0,0,0,0,0,0,0,0,0,0,0,0,0,0,0,0,0,0,0,0,0,0,0,0,0,0,0,0,0],"id":2,"left_children":[1,3,5,7,9,11,13,15,17,19,21,-1,23,25,27,-1,-1,-1,-1,-1,-1,-1,-1,-1,-1,-1,-1,-1,-1],"loss_changes":[3.3201077E1,1.28068285E1,7.0593586E0,7.184654E0,4.8223786E0,5.369244E0,3.3078403E0,3.579544E0,3.4306993E0,1.0894418E-2,5.5465035E0,0E0,8.235603E0,4.5706344E0,2.3351555E0,0E0,0E0,0E0,0E0,0E0,0E0,0E0,0E0,0E0,0E0,0E0,0E0,0E0,0E0],"parents":[2147483647,0,0,1,1,2,2,3,3,4,4,5,5,6,6,7,7,8,8,9,9,10,10,12,12,13,13,14,14],"right_children":[2,4,6,8,10,12,14,16,18,20,22,-1,24,26,28,-1,-1,-1,-1,-1,-1,-1,-1,-1,-1,-1,-1,-1,-1],"split_conditions":[2.2568268E-1,9.356382E-1,-3.925798E-1,5.7941645E-1,-9.977399E-1,-5.2948207E-1,1.1981468E0,-1.5158121E-1,-1.8212485E-1,1.3312555E-2,2.0295146E0,-2.8723443E-1,1.7736149E0,-1.8828253E-1,1.7510391E0,-3.166213E-1,-1.5127578E-1,-8.766154E-2,2.665125E-1,-6.858603E-2,-2.4351569E-1,2.569985E-1,-2.6640412E-1,3.6081412E-1,-2.1092989E-1,-1.5845032E-3,2.4843995E-1,3.6272952E-1,-3.776876E-2],"split_indices":[1,0,2,3,1,3,1,2,1,2,3,0,3,3,2,0,0,0,0,0,0,0,0,0,0,0,0,0,0],"split_type":[0,0,0,0,0,0,0,0,0,0,0,0,0,0,0,0,0,0,0,0,0,0,0,0,0,0,0,0,0],"sum_hessian":[1.3041594E2,7.659471E1,5.382123E1,6.1560715E1,1.5033995E1,1.1127512E1,4.2693718E1,5.314901E1,8.411702E0,2.629689E0,1.2404306E1,3.85963E0,7.267882E0,2.6577108E1,1.6116611E1,2.5442598E1,2.7706413E1,5.3136067E0,3.098095E0,1.1131822E0,1.5165068E0,1.1094156E1,1.3101504E0,4.0200796E0,3.2478023E0,1.08109E1,1.5766208E1,1.4883055E1,1.2335558E0],"tree_param":{"num_deleted":"0","num_feature":"4","num_nodes":"29","size_leaf_vector":"1"}},{"base_weights":[-2.8328072E-2,-6.3125724E-1,2.451575E-1,-1.0531092E0,-3.1495872E-1,-4.6350315E-1,3.7463233E-1,-3.288842E-1,-1.1065946E-1,-3.0049986E-1,-1.2513056E-1,-7.107737E-1,2.0864387E-1,2.5703618E-1,9.473077E-1,-2.597239E-1,3.0911278E-3,-3.2116136E-1,-9.224743E-2,-2.04699E-2,1.4289427E-1,3.1201625E-1,4.1688297E-2],"categories":[],"categories_nodes":[],"categories_segments":[],"categories_sizes":[],"default_left":[0,0,0,0,0,0,0,0,0,0,0,0,0,0,0,0,0,0,0,0,0,0,0],"id":3,"left_children":[1,3,5,7,9,11,13,-1,-1,-1,15,17,-1,19,21,-1,-1,-1,-1,-1,-1,-1,-1],"loss_changes":[2.0460947E1,4.8331823E0,8.013076E0,7.297897E-2,2.944337E0,4.4049487E0,4.6587944E0,0E0,0E0,0E0,1.9740224E0,1.3742585E0,0E0,4.437867E0,7.573023E-1,0E0,0E0,0E0,0E0,0E0,0E0,0E0,0E0],"parents":[2147483647,0,0,1,1,2,2,3,3,4,4,5,5,6,6,10,10,11,11,13,13,14,14],"right_children":[2,4,6,8,10,12,14,-1,-1,-1,16,18,-1,20,22,-1,-1,-1,-1,-1,-1,-1,-1],"split_conditions":[-4.3308336E-1,-6.14782E-1,-6.843149E-1,-5.271928E-1,-7.096832E-1,1.2922562E0,1.2436738E0,-3.288842E-1,-1.1065946E-1,-3.0049986E-1,-1.3428079E0,-2.5200683E-1,2.0864387E-1,-1.8828253E-1,1.0912157E0,-2.597239E-1,3.0911278E-3,-3.2116136E-1,-9.224743E-2,-2.04699E-2,1.4289427E-1,3.1201625E-1,4.1688297E-2],"split_indices":[1,3,2,1,2,1,2,0,0,0,1,0,0,3,3,0,0,0,0,0,0,0,0],"split_type":[0,0,0,0,0,0,0,0,0,0,0,0,0,0,0,0,0,0,0,0,0,0,0],"sum_hessian":[1.22148094E2,3.7708138E1,8.443996E1,1.5159807E1,2.2548332E1,1.2645713E1,7.179424E1,1.3693646E1,1.4661609E0,3.9570217E0,1.859131E1,1.0740861E1,1.9048517E0,6.076523E1,1.1029015E1,2.040511E0,1.6550798E1,4.802256E0,5.9386053E0,2.4746294E1,3.6018936E1,9.636697E0,1.3923181E0],"tree_param":{"num_deleted":"0","num_feature":"4","num_nodes":"23","size_leaf_vector":"1"}},{"base_weights":[-3.2717466E-2,-6.974825E-1,1.3073775E-1,-7.8283954E-1,7.985361E-2,-1.657421E-2,6.3552475E-1,-2.774899E-1,-4.438775E-1,-7.807386E-1,1.1748028E-1,7.541137E-1,-1.2547567E-1,5.963794E-2,-1.7354472E-1,7.5159624E-2,-2.7360502E-1,-1.3007133E-2,1.6527213E-1,2.47375E-1,-2.019495E-2],"categories":[],"categories_nodes":[],"categories_segments":[],"categories_sizes":[],"default_left":[0,0,0,0,0,0,0,0,0,0,0,0,0,0,0,0,0,0,0,0,0],"id":4,"left_children":[1,3,5,7,-1,9,11,-1,13,15,17,19,-1,-1,-1,-1,-1,-1,-1,-1,-1],"loss_changes":[1.2836199E1,2.1254606E0,7.0738616E0,6.3309574E-1,0E0,7.7238297E0,3.000103E0,0E0,8.349707E-1,1.7515574E0,4.50307E0,1.1939487E0,0E0,0E0,0E0,0E0,0E0,0E0,0E0,0E0,0E0],"parents":[2147483647,0,0,1,1,2,2,3,3,5,5,6,6,8,8,9,9,10,10,11,11],"right_children":[2,4,6,8,-1,10,12,-1,14,16,18,20,-1,-1,-1,-1,-1,-1,-1,-1,-1],"split_conditions":[-6.52672E-1,1.826372E0,1.0726676E0,2.6699528E-1,7.985361E-2,-7.096832E-1,2.2854142E0,-2.774899E-1,4.3188903E-1,-1.7497823E0,9.356382E-1,1.7510391E0,-1.2547567E-1,5.963794E-2,-1.7354472E-1,7.5159624E-2,-2.7360502E-1,-1.3007133E-2,1.6527213E-1,2.47375E-1,-2.019495E-2],"split_indices":[1,0,1,2,0,2,3,0,2,2,0,2,0,0,0,0,0,0,0,0,0],"split_type":[0,0,0,0,0,0,0,0,0,0,0,0,0,0,0,0,0,0,0,0,0],"sum_hessian":[1.1629333E2,2.2306534E1,9.398679E1,2.0663857E1,1.6426768E0,7.350345E1,2.0483341E1,1.3341112E1,7.322745E0,1.0250044E1,6.3253407E1,1.8666985E1,1.8163564E0,1.1855372E0,6.1372075E0,1.0548826E0,9.195162E0,4.6790287E1,1.646312E1,1.7188559E1,1.4784263E0],"tree_param":{"num_deleted":"0","num_feature":"4","num_nodes":"21","size_leaf_vector":"1"}},{"base_weights":[-2.9949307E-2,-4.55603E-1,1.3961157E-1,-8.9418316E-1,-1.9147901E-1,2.1597567E-1,-6.034327E-1,-9.4162333E-1,-8.981992E-2,-2.5244477E-1,-5.0452147E-2,6.192557E-2,7.451207E-1,-8.528574E-1,1.3642317E-1,-3.0505225E-1,-7.1626276E-2,7.560146E-2,-1.18327424E-1,-2.614938E-2,2.0622693E-1,3.3652735E-1,1.5609539E-1,-3.3092245E-1,-8.326066E-2],"categories":[],"categories_nodes":[],"categories_segments":[],"categories_sizes":[],"default_left":[0,0,0,0,0,0,0,0,0,0,0,0,0,0,0,0,0,0,0,0,0,0,0,0,0],"id":5,"left_children":[1,3,5,7,9,11,13,15,-1,-1,17,19,21,23,-1,-1,-1,-1,-1,-1,-1,-1,-1,-1,-1],"loss_changes":[8.074365E0,3.5186448E0,4.677551E0,4.8217773E-2,1.8966076E0,5.937592E0,2.42859E0,3.0544758E-1,0E0,0E0,2.0184267E0,5.4636326E0,8.1010437E-1,6.446729E-1,0E0,0E0,0E0,0E0,0E0,0E0,0E0,0E0,0E0,0E0,0E0],"parents":[2147483647,0,0,1,1,2,2,3,3,4,4,5,5,6,6,7,7,10,10,11,11,12,12,13,13],"right_children":[2,4,6,8,10,12,14,16,-1,-1,18,20,22,24,-1,-1,-1,-1,-1,-1,-1,-1,-1,-1,-1],"split_conditions":[-4.3308336E-1,-6.14782E-1,2.0295146E0,-5.271928E-1,-7.096832E-1,7.500162E-1,1.8569129E0,7.4899244E-1,-8.981992E-2,-2.5244477E-1,3.9383665E-1,1.2295166E0,1.0059159E0,-2.6573843E-1,1.3642317E-1,-3.0505225E-1,-7.1626276E-2,7.560146E-2,-1.18327424E-1,-2.614938E-2,2.0622693E-1,3.3652735E-1,1.5609539E-1,-3.3092245E-1,-8.326066E-2],"split_indices":[1,3,3,1,2,3,1,2,0,0,2,1,3,2,0,0,0,0,0,0,0,0,0,0,0],"split_type":[0,0,0,0,0,0,0,0,0,0,0,0,0,0,0,0,0,0,0,0,0,0,0,0,0],"sum_hessian":[1.0999195E2,3.0853226E1,7.9138725E1,1.0700119E1,2.0153107E1,7.2406685E1,6.732038E0,9.369655E0,1.3304639E0,2.7074482E0,1.744566E1,5.6945236E1,1.5461448E1,5.604923E0,1.1271154E0,8.060374E0,1.3092811E0,9.425305E0,8.020353E0,4.6679592E1,1.0265645E1,4.2877455E0,1.1173702E1,3.2668123E0,2.3381102E0],"tree_param":{"num_deleted":"0","num_feature":"4","num_nodes":"25","size_leaf_vector":"1"}},{"base_weights":[-2.7709577E-2,-5.890213E-1,6.480094E-2,-8.152109E-1,1.5429546E-1,-5.92267E-1,1.2991129E-1,3.408363E-2,-2.8107008E-1,-1.8592498E-1,2.4371006E-1,3.0738957E-2,-2.5318503E-1,1.2747883E-2,4.4170338E-1,-6.3355744E-2,8.4293306E-2,-1.067642E-1,5.1755767E-2,3.3512694E-1,6.006267E-2],"categories":[],"categories_nodes":[],"categories_segments":[],"categories_sizes":[],"default_left":[0,0,0,0,0,0,0,0,0,0,0,0,0,0,0,0,0,0,0,0,0],"id":6,"left_children":[1,3,5,7,9,11,13,-1,-1,-1,-1,15,-1,17,19,-1,-1,-1,-1,-1,-1],"loss_changes":[5.549421E0,2.6672816E0,4.0136447E0,1.4343739E0,2.7281811E0,1.3549898E0,3.0827358E0,0E0,0E0,0E0,0E0,2.6539856E-1,0E0,3.7412412E0,3.5377665E0,0E0,0E0,0E0,0E0,0E0,0E0],"parents":[2147483647,0,0,1,1,2,2,3,3,4,4,5,5,6,6,11,11,13,13,14,14],"right_children":[2,4,6,8,10,12,14,-1,-1,-1,-1,16,-1,18,20,-1,-1,-1,-1,-1,-1],"split_conditions":[-7.096832E-1,5.393808E-1,-9.663701E-1,-1.7497823E0,-2.5200683E-1,-1.135288E-1,9.356382E-1,3.408363E-2,-2.8107008E-1,-1.8592498E-1,2.4371006E-1,-1.02982655E-1,-2.5318503E-1,-2.4486448E-1,3.235168E-1,-6.3355744E-2,8.4293306E-2,-1.067642E-1,5.1755767E-2,3.3512694E-1,6.006267E-2],"split_indices":[2,1,1,2,0,2,0,0,0,0,0,3,0,1,3,0,0,0,0,0,0],"split_type":[0,0,0,0,0,0,0,0,0,0,0,0,0,0,0,0,0,0,0,0,0],"sum_hessian":[1.05134125E2,1.4116224E1,9.101791E1,1.0748699E1,3.3675249E0,7.4760637E0,8.354184E1,1.2527981E0,9.495901E0,1.5741686E0,1.7933563E0,2.403761E0,5.072303E0,6.14801E1,2.2061743E1,1.3015329E0,1.1022282E0,1.821849E1,4.326161E1,4.855805E0,1.7205938E1],"tree_param":{"num_deleted":"0","num_feature":"4","num_nodes":"21","size_leaf_vector":"1"}},{"base_weights":[-2.458999E-2,-5.126706E-1,4.686559E-2,-7.306691E-1,1.2587664E-1,-2.2302452E-2,4.630779E-1,2.8097978E-2,-2.5901765E-1,-1.6075619E-1,2.0250769E-1,8.2949534E-2,-3.646977E-1,-1.81163E-1,6.0729223E-1,-1.0950702E-1,5.5101793E-2,-1.6680653E-1,1.3628808E-1,5.8724456E-2,2.610315E-1],"categories":[],"categories_nodes":[],"categories_segments":[],"categories_sizes":[],"default_left":[0,0,0,0,0,0,0,0,0,0,0,0,0,0,0,0,0,0,0,0,0],"id":7,"left_children":[1,3,5,7,9,11,13,-1,-1,-1,-1,15,17,-1,19,-1,-1,-1,-1,-1,-1],"loss_changes":[3.5688612E0,1.9104865E0,2.5891244E0,1.162457E0,1.8799154E0,2.8327699E0,2.337949E0,0E0,0E0,0E0,0E0,2.7876852E0,3.1466918E0,0E0,1.1042366E0,0E0,0E0,0E0,0E0,0E0,0E0],"parents":[2147483647,0,0,1,1,2,2,3,3,4,4,5,5,6,6,11,11,12,12,14,14],"right_children":[2,4,6,8,10,12,14,-1,-1,-1,-1,16,18,-1,20,-1,-1,-1,-1,-1,-1],"split_conditions":[-7.096832E-1,5.393808E-1,1.2436738E0,-1.7497823E0,-2.5200683E-1,5.967828E-1,-7.781513E-1,2.8097978E-2,-2.5901765E-1,-1.6075619E-1,2.0250769E-1,-7.000819E-1,1.1040374E0,-1.81163E-1,-4.441822E-1,-1.0950702E-1,5.5101793E-2,-1.6680653E-1,1.3628808E-1,5.8724456E-2,2.610315E-1],"split_indices":[2,1,2,2,0,2,1,0,0,0,0,3,1,0,3,0,0,0,0,0,0],"split_type":[0,0,0,0,0,0,0,0,0,0,0,0,0,0,0,0,0,0,0,0,0],"sum_hessian":[1.00640854E2,1.2063806E1,8.857705E1,8.885909E0,3.1778965E0,7.676612E1,1.18109255E1,1.2731054E0,7.612804E0,1.4521953E0,1.7257013E0,5.929625E1,1.7469873E1,1.0268117E0,1.0784113E1,1.04032135E1,4.8893036E1,1.4421878E1,3.0479958E0,4.8828206E0,5.9012923E0],"tree_param":{"num_deleted":"0","num_feature":"4","num_nodes":"21","size_leaf_vector":"1"}},{"base_weights":[-2.1181453E-2,-5.6002176E-1,2.9309724E-2,-2.454919E-1,-2.8020638E-1,8.336298E-2,-5.447784E-1,9.83943E-2,-6.472599E-1,2.9795531E-2,9.934228E-1,7.882245E-2,-8.178906E-1,-2.2720477E-1,-5.4466214E-2,-2.5091974E-2,1.0674636E-1,3.371439E-1,1.00671865E-1,-9.8138034E-2,1.212205E-1,-9.739657E-3,-3.37596E-1],"categories":[],"categories_nodes":[],"categories_segments":[],"categories_sizes":[],"default_left":[0,0,0,0,0,0,0,0,0,0,0,0,0,0,0,0,0,0,0,0,0,0,0],"id":8,"left_children":[1,3,5,-1,7,9,11,-1,13,15,17,19,21,-1,-1,-1,-1,-1,-1,-1,-1,-1,-1],"loss_changes":[2.6918075E0,3.831885E-1,2.864959E0,0E0,1.4598577E0,4.0609612E0,1.4187229E0,0E0,5.8424234E-2,2.9986E0,2.0332813E-2,5.723686E-1,1.3199203E0,0E0,0E0,0E0,0E0,0E0,0E0,0E0,0E0,0E0,0E0],"parents":[2147483647,0,0,1,1,2,2,4,4,5,5,6,6,8,8,9,9,10,10,11,11,12,12],"right_children":[2,4,6,-1,8,10,12,-1,14,16,18,20,22,-1,-1,-1,-1,-1,-1,-1,-1,-1,-1],"split_conditions":[-9.663701E-1,-2.5200683E-1,2.0295146E0,-2.454919E-1,-1.7682767E-2,1.6030151E0,3.418157E-1,9.83943E-2,-1.1545889E0,9.356382E-1,1.1354072E0,6.962298E-1,2.2854142E0,-2.2720477E-1,-5.4466214E-2,-2.5091974E-2,1.0674636E-1,3.371439E-1,1.00671865E-1,-9.8138034E-2,1.212205E-1,-9.739657E-3,-3.37596E-1],"split_indices":[1,0,3,0,3,3,0,0,1,0,1,1,3,0,0,0,0,0,0,0,0,0,0],"split_type":[0,0,0,0,0,0,0,0,0,0,0,0,0,0,0,0,0,0,0,0,0,0,0],"sum_hessian":[9.73359E1,7.474695E0,8.9861206E1,2.886163E0,4.5885324E0,8.2909645E1,6.9515653E0,1.7670603E0,2.8214722E0,7.927608E1,3.6335652E0,2.3339093E0,4.6176558E0,1.7755146E0,1.0459576E0,5.9364574E1,1.9911505E1,2.4413598E0,1.1922053E0,1.0355834E0,1.298326E0,1.610002E0,3.0076537E0],"tree_param":{"num_deleted":"0","num_feature":"4","num_nodes":"23","size_leaf_vector":"1"}},{"base_weights":[-1.875468E-2,-1.6007797E-1,1.5625018E-1,-6.0598594E-1,-7.49842E-2,6.787842E-2,5.451933E-1,-1.5136555E-1,-2.4254659E-1,1.4482555E-1,-4.0840843E-1,1.4239706E-1,-2.5790852E-1,3.205322E-1,1.602535E-1,-2.0490365E-1,1.4281322E-1,-8.4207706E-2,8.696774E-2,-1.6319722E-1,2.1022479E-1,4.8485774E-4,1.4562377E-1,-1.21237524E-1,1.2631112E-1],"categories":[],"categories_nodes":[],"categories_segments":[],"categories_sizes":[],"default_left":[0,0,0,0,0,0,0,0,0,0,0,0,0,0,0,0,0,0,0,0,0,0,0,0,0],"id":9,"left_children":[1,3,5,7,9,11,13,15,-1,17,19,21,-1,-1,23,-1,-1,-1,-1,-1,-1,-1,-1,-1,-1],"loss_changes":[2.4085438E0,1.99638E0,1.4602873E0,6.585038E-1,3.4546142E0,2.6549592E0,1.4246216E0,1.607432E0,0E0,1.8505132E0,3.1887183E0,1.6783696E0,0E0,0E0,1.0151533E0,0E0,0E0,0E0,0E0,0E0,0E0,0E0,0E0,0E0,0E0],"parents":[2147483647,0,0,1,1,2,2,3,3,4,4,5,5,6,6,7,7,9,9,10,10,11,11,14,14],"right_children":[2,4,6,8,10,12,14,16,-1,18,20,22,-1,-1,24,-1,-1,-1,-1,-1,-1,-1,-1,-1,-1],"split_conditions":[2.2568268E-1,-6.3357836E-1,1.2436738E0,-1.1409438E0,4.0652078E-1,1.0914642E0,6.962298E-1,-4.6445316E-1,-2.4254659E-1,-6.14782E-1,1.7003026E0,4.0652078E-1,-2.5790852E-1,3.205322E-1,8.530789E-1,-2.0490365E-1,1.4281322E-1,-8.4207706E-2,8.696774E-2,-1.6319722E-1,2.1022479E-1,4.8485774E-4,1.4562377E-1,-1.21237524E-1,1.2631112E-1],"split_indices":[1,2,2,2,2,2,1,1,0,3,2,2,0,0,1,0,0,0,0,0,0,0,0,0,0],"split_type":[0,0,0,0,0,0,0,0,0,0,0,0,0,0,0,0,0,0,0,0,0,0,0,0,0],"sum_hessian":[9.537337E1,5.281139E1,4.2561977E1,7.4821386E0,4.532925E1,3.563897E1,6.9230094E0,2.8442485E0,4.6378903E0,2.7660032E1,1.7669218E1,3.377228E1,1.8666859E0,2.181754E0,4.7412553E0,1.4916501E0,1.3525983E0,6.7946606E0,2.0865372E1,1.6198658E1,1.470561E0,2.465717E1,9.115114E0,1.3247092E0,3.4165463E0],"tree_param":{"num_deleted":"0","num_feature":"4","num_nodes":"25","size_leaf_vector":"1"}},{"base_weights":[-1.5468466E-2,-2.6431227E-1,6.0836133E-2,-1.3324414E-1,-3.1794772E-1,6.60953E-3,4.5101807E-1,-2.966343E-1,2.2130753E-1,-7.714198E-2,2.7280813E-1,2.6322877E-1,1.5267316E-1,-2.2101459E-1,-2.196282E-2,7.5119296E-3,-9.807047E-2,1.1033545E-1,-1.15595005E-1,1.7870322E-1,-7.051994E-2],"categories":[],"categories_nodes":[],"categories_segments":[],"categories_sizes":[],"default_left":[0,0,0,0,0,0,0,0,0,0,0,0,0,0,0,0,0,0,0,0,0],"id":10,"left_children":[1,3,5,7,-1,9,11,13,-1,15,17,-1,19,-1,-1,-1,-1,-1,-1,-1,-1],"loss_changes":[1.7915119E0,2.1662092E0,1.528307E0,3.0852933E0,0E0,1.4603144E0,9.876002E-1,1.683931E0,0E0,1.2813337E0,1.1212215E0,0E0,1.2389419E0,0E0,0E0,0E0,0E0,0E0,0E0,0E0,0E0],"parents":[2147483647,0,0,1,1,2,2,3,3,5,5,6,6,7,7,9,9,10,10,12,12],"right_children":[2,4,6,8,-1,10,12,14,-1,16,18,-1,20,-1,-1,-1,-1,-1,-1,-1,-1],"split_conditions":[-3.925798E-1,-4.4331634E-1,1.4177355E0,-5.1942116E-1,-3.1794772E-1,8.353161E-1,-1.8828253E-1,-5.4891807E-1,2.2130753E-1,6.761712E-2,2.456014E0,2.6322877E-1,1.825543E0,-2.2101459E-1,-2.196282E-2,7.5119296E-3,-9.807047E-2,1.1033545E-1,-1.15595005E-1,1.7870322E-1,-7.051994E-2],"split_indices":[2,2,1,2,0,3,3,0,0,3,3,0,1,0,0,0,0,0,0,0,0],"split_type":[0,0,0,0,0,0,0,0,0,0,0,0,0,0,0,0,0,0,0,0,0],"sum_hessian":[9.250321E1,2.1130085E1,7.137313E1,1.914351E1,1.9865742E0,6.3557053E1,7.8160763E0,1.6674696E1,2.4688146E0,4.8886555E1,1.4670498E1,2.4184718E0,5.397604E0,4.841331E0,1.18333645E1,3.533147E1,1.3555082E1,1.3205869E1,1.46463E0,2.268963E0,3.128641E0],"tree_param":{"num_deleted":"0","num_feature":"4","num_nodes":"21","size_leaf_vector":"1"}},{"base_weights":[-1.193747E-2,-4.626656E-1,2.666576E-2,-9.770152E-2,-2.0062394E-1,7.0310004E-2,-4.4239092E-1,-1.8861519E-1,1.4068024E-1,2.8021064E-2,7.763149E-1,-6.1821973E-1,9.7504675E-2,-3.3222807E-3,1.8732977E-1,2.6075932E-1,7.3495604E-2,-1.664895E-2,-2.61349E-1],"categories":[],"categories_nodes":[],"categories_segments":[],"categories_sizes":[],"default_left":[0,0,0,0,0,0,0,0,0,0,0,0,0,0,0,0,0,0,0],"id":11,"left_children":[1,3,5,7,-1,9,11,-1,-1,13,15,17,-1,-1,-1,-1,-1,-1,-1],"loss_changes":[1.6108459E0,4.8387194E-1,1.7828301E0,1.4401193E0,0E0,2.341282E0,1.2022961E0,0E0,0E0,1.7722789E0,5.955696E-3,8.601103E-1,0E0,0E0,0E0,0E0,0E0,0E0,0E0],"parents":[2147483647,0,0,1,1,2,2,3,3,5,5,6,6,9,9,10,10,11,11],"right_children":[2,4,6,8,-1,10,12,-1,-1,14,16,18,-1,-1,-1,-1,-1,-1,-1],"split_conditions":[-9.663701E-1,-1.135288E-1,2.0295146E0,-3.7989566E-1,-2.0062394E-1,1.6030151E0,1.8569129E0,-1.8861519E-1,1.4068024E-1,1.7003026E0,1.1354072E0,3.418157E-1,9.7504675E-2,-3.3222807E-3,1.8732977E-1,2.6075932E-1,7.3495604E-2,-1.664895E-2,-2.61349E-1],"split_indices":[1,2,3,2,0,3,1,0,0,2,1,0,0,0,0,0,0,0,0],"split_type":[0,0,0,0,0,0,0,0,0,0,0,0,0,0,0,0,0,0,0],"sum_hessian":[9.087062E1,6.302145E0,8.4568474E1,2.8063185E0,3.4958265E0,7.8147224E1,6.4212484E0,1.3921347E0,1.4141839E0,7.471176E1,3.4354649E0,5.3824267E0,1.038822E0,7.103667E1,3.6750886E0,2.3829968E0,1.0524681E0,2.0472703E0,3.3351564E0],"tree_param":{"num_deleted":"0","num_feature":"4","num_nodes":"19","size_leaf_vector":"1"}},{"base_weights":[-8.4636E-3,-3.5577124E-1,3.300137E-2,-5.8373404E-1,1.5620017E-1,-3.49203E-1,6.3386075E-2,-2.2332476E-1,4.2641647E-2,-1.1280162E-1,1.6963133E-1,6.2151458E-2,-5.900113E-1,9.257067E-2,-2.8663853E-1,8.7455794E-2,-6.307578E-2,-5.0747678E-2,-2.147818E-1,2.4568339E-1,1.8566838E-2,3.6887825E-2,-1.5607238E-1],"categories":[],"categories_nodes":[],"categories_segments":[],"categories_sizes":[],"default_left":[0,0,0,0,0,0,0,0,0,0,0,0,0,0,0,0,0,0,0,0,0,0,0],"id":12,"left_children":[1,3,5,7,9,11,13,-1,-1,-1,-1,15,17,19,21,-1,-1,-1,-1,-1,-1,-1,-1],"loss_changes":[1.3163421E0,1.2287444E0,9.725964E-1,9.170177E-1,1.038451E0,6.48936E-1,8.0966735E-1,0E0,0E0,0E0,0E0,2.6041716E-1,9.055948E-2,1.5431765E0,6.518651E-1,0E0,0E0,0E0,0E0,0E0,0E0,0E0,0E0],"parents":[2147483647,0,0,1,1,2,2,3,3,4,4,5,5,6,6,11,11,12,12,13,13,14,14],"right_children":[2,4,6,8,10,12,14,-1,-1,-1,-1,16,18,20,22,-1,-1,-1,-1,-1,-1,-1,-1],"split_conditions":[-7.096832E-1,5.393808E-1,-9.663701E-1,1.2325494E0,-2.5200683E-1,-1.135288E-1,2.0295146E0,-2.2332476E-1,4.2641647E-2,-1.1280162E-1,1.6963133E-1,-1.7682767E-2,-4.441822E-1,-5.95526E-1,3.418157E-1,8.7455794E-2,-6.307578E-2,-5.0747678E-2,-2.147818E-1,2.4568339E-1,1.8566838E-2,3.6887825E-2,-1.5607238E-1],"split_indices":[2,1,1,0,0,2,3,0,0,0,0,3,3,2,0,0,0,0,0,0,0,0,0],"split_type":[0,0,0,0,0,0,0,0,0,0,0,0,0,0,0,0,0,0,0,0,0,0,0],"sum_hessian":[8.959036E1,8.746901E0,8.084347E1,5.955125E0,2.7917762E0,5.1809096E0,7.566255E1,4.854885E0,1.1002399E0,1.2488613E0,1.5429147E0,2.1869738E0,2.9939356E0,7.051836E1,5.144198E0,1.149178E0,1.0377958E0,1.229209E0,1.7647266E0,1.816678E0,6.8701675E1,2.0403306E0,3.1038673E0],"tree_param":{"num_deleted":"0","num_feature":"4","num_nodes":"23","size_leaf_vector":"1"}},{"base_weights":[-1.0114668E-2,-5.1312283E-2,3.1103733E-1,-1.1114149E-1,1.928518E-1,4.4675395E-1,-7.085535E-2,-6.5113664E-1,-6.681173E-2,1.0126274E-2,2.480119E-1,7.1335363E-1,-2.0079118E-1,-7.542146E-2,-2.2999759E-1,-6.415742E-3,-1.3417128E-1,1.196E-1,-2.576878E-1,2.9124105E-1,5.971471E-3,-2.5246763E-1,1.8507428E-1],"categories":[],"categories_nodes":[],"categories_segments":[],"categories_sizes":[],"default_left":[0,0,0,0,0,0,0,0,0,0,0,0,0,0,0,0,0,0,0,0,0,0,0],"id":13,"left_children":[1,3,5,7,9,11,-1,13,15,17,-1,19,21,-1,-1,-1,-1,-1,-1,-1,-1,-1,-1],"loss_changes":[1.1967007E0,1.1894194E0,8.695841E-1,1.5089359E0,1.856528E0,1.626076E0,0E0,2.9175758E-2,1.0454037E0,4.904725E0,0E0,1.1061325E0,2.2405646E0,0E0,0E0,0E0,0E0,0E0,0E0,0E0,0E0,0E0,0E0],"parents":[2147483647,0,0,1,1,2,2,3,3,4,4,5,5,7,7,8,8,9,9,11,11,12,12],"right_children":[2,4,6,8,10,12,-1,14,16,18,-1,20,22,-1,-1,-1,-1,-1,-1,-1,-1,-1,-1],"split_conditions":[1.4177355E0,1.2325494E0,2.1148145E0,-8.111563E-1,9.012021E-1,2.1392412E0,-7.085535E-2,-7.8538173E-1,9.158185E-1,3.811525E-1,2.480119E-1,6.3872695E-1,3.418157E-1,-7.542146E-2,-2.2999759E-1,-6.415742E-3,-1.3417128E-1,1.196E-1,-2.576878E-1,2.9124105E-1,5.971471E-3,-2.5246763E-1,1.8507428E-1],"split_indices":[1,0,3,2,2,1,0,3,1,2,0,0,0,0,0,0,0,0,0,0,0,0,0],"split_type":[0,0,0,0,0,0,0,0,0,0,0,0,0,0,0,0,0,0,0,0,0,0,0],"sum_hessian":[8.8242516E1,7.8954414E1,9.288105E0,6.38529E1,1.5101509E1,7.5894423E0,1.6986631E0,3.8057199E0,6.0047184E1,1.2510887E1,2.5906222E0,5.304081E0,2.2853613E0,1.5653857E0,2.240334E0,5.4585453E1,5.46173E0,9.019733E0,3.491154E0,3.5763576E0,1.7277232E0,1.2649525E0,1.0204089E0],"tree_param":{"num_deleted":"0","num_feature":"4","num_nodes":"23","size_leaf_vector":"1"}},{"base_weights":[-7.6686186E-3,-9.087671E-2,1.1582567E-1,6.9167796E-3,-3.109649E-1,-1.1614501E-1,1.9704892E-1,-2.970378E-1,1.3842438E-1,1.24625176E-1,-5.86704E-1,3.0255726E-1,-4.7033635E-1,3.2675508E-1,-1.223911E-1,-1.5488023E-1,7.546221E-2,1.2121874E-1,-1.7427173E-2,-2.1502301E-1,1.4914457E-1,9.470143E-2,-2.643898E-1,-1.3446873E-1,2.981969E-1,1.2342928E-1,-2.2368921E-1,5.446973E-2,2.1955451E-1,-3.255887E-1,9.29015E-2],"categories":[],"categories_nodes":[],"categories_segments":[],"categories_sizes":[],"default_left":[0,0,0,0,0,0,0,0,0,0,0,0,0,0,0,0,0,0,0,0,0,0,0,0,0,0,0,0,0,0,0],"id":14,"left_children":[1,3,5,7,9,11,13,15,17,19,21,23,25,27,29,-1,-1,-1,-1,-1,-1,-1,-1,-1,-1,-1,-1,-1,-1,-1,-1],"loss_changes":[9.14063E-1,1.1448965E0,6.980796E-1,1.5495982E0,2.0375717E0,1.6138492E0,1.1550832E0,1.5387167E0,1.4341491E0,2.602005E0,2.9872532E0,3.1219969E0,1.706671E0,1.0089238E0,3.8721821E0,0E0,0E0,0E0,0E0,0E0,0E0,0E0,0E0,0E0,0E0,0E0,0E0,0E0,0E0,0E0,0E0],"parents":[2147483647,0,0,1,1,2,2,3,3,4,4,5,5,6,6,7,7,8,8,9,9,10,10,11,11,12,12,13,13,14,14],"right_children":[2,4,6,8,10,12,14,16,18,20,22,24,26,28,30,-1,-1,-1,-1,-1,-1,-1,-1,-1,-1,-1,-1,-1,-1,-1,-1],"split_conditions":[2.884223E-1,-2.5275806E-2,-2.530543E-1,-2.911067E-1,6.4049095E-2,4.490444E-2,1.0407276E0,9.356382E-1,2.2894287E-1,1.0020344E-1,-5.4891807E-1,-5.4891807E-1,-7.604197E-1,6.982559E-1,1.2436738E0,-1.5488023E-1,7.546221E-2,1.2121874E-1,-1.7427173E-2,-2.1502301E-1,1.4914457E-1,9.470143E-2,-2.643898E-1,-1.3446873E-1,2.981969E-1,1.2342928E-1,-2.2368921E-1,5.446973E-2,2.1955451E-1,-3.255887E-1,9.29015E-2],"split_indices":[1,1,2,2,2,0,2,0,2,1,0,0,2,2,2,0,0,0,0,0,0,0,0,0,0,0,0,0,0,0,0],"split_type":[0,0,0,0,0,0,0,0,0,0,0,0,0,0,0,0,0,0,0,0,0,0,0,0,0,0,0,0,0,0,0],"sum_hessian":[8.692929E1,5.2093685E1,3.483561E1,3.673812E1,1.5355562E1,8.922713E0,2.5912897E1,1.071462E1,2.6023502E1,6.1648574E0,9.190705E0,4.1557875E0,4.7669253E0,1.8413383E1,7.499513E0,7.697394E0,3.0172262E0,1.0616526E1,1.5406976E1,1.6083256E0,4.5565314E0,2.2443845E0,6.9463205E0,2.1610103E0,1.9947774E0,1.0165153E0,3.75041E0,1.4621209E1,3.7921743E0,1.8545432E0,5.64497E0],"tree_param":{"num_deleted":"0","num_feature":"4","num_nodes":"31","size_leaf_vector":"1"}},{"base_weights":[-7.329213E-3,-3.590677E-1,1.9820245E-2,-2.0033692E-1,-9.971373E-2,4.7599375E-2,-3.00959E-1,1.6392185E-1,-5.4802066E-1,1.5300721E-2,6.118108E-1,-2.0991053E-1,1.213572E-2,-1.9953755E-1,-4.446373E-2,-1.7906139E-2,6.941156E-2,2.220073E-1,5.124894E-2,1.3198085E-1,-7.0038795E-2],"categories":[],"categories_nodes":[],"categories_segments":[],"categories_sizes":[],"default_left":[0,0,0,0,0,0,0,0,0,0,0,0,0,0,0,0,0,0,0,0,0],"id":15,"left_children":[1,3,5,-1,7,9,11,-1,13,15,17,-1,19,-1,-1,-1,-1,-1,-1,-1,-1],"loss_changes":[8.328297E-1,4.3368876E-1,7.380601E-1,0E0,1.6235025E0,1.3684814E0,8.3364195E-1,0E0,5.1144004E-2,1.1891655E0,1.0360086E-1,0E0,5.9497887E-1,0E0,0E0,0E0,0E0,0E0,0E0,0E0,0E0],"parents":[2147483647,0,0,1,1,2,2,4,4,5,5,6,6,8,8,9,9,10,10,12,12],"right_children":[2,4,6,-1,8,10,12,-1,14,16,18,-1,20,-1,-1,-1,-1,-1,-1,-1,-1],"split_conditions":[-9.663701E-1,-6.14782E-1,2.0295146E0,-2.0033692E-1,-1.7682767E-2,1.6030151E0,-5.1942116E-1,1.6392185E-1,5.7941645E-1,9.356382E-1,1.6294305E-1,-2.0991053E-1,-1.2055717E-2,-1.9953755E-1,-4.446373E-2,-1.7906139E-2,6.941156E-2,2.220073E-1,5.124894E-2,1.3198085E-1,-7.0038795E-2],"split_indices":[1,3,3,0,3,3,2,0,3,0,1,0,2,0,0,0,0,0,0,0,0],"split_type":[0,0,0,0,0,0,0,0,0,0,0,0,0,0,0,0,0,0,0,0,0],"sum_hessian":[8.546653E1,5.2481256E0,8.02184E1,1.6770407E0,3.571085E0,7.460896E1,5.6094413E0,1.373178E0,2.197907E0,7.154069E1,3.0682752E0,1.9241464E0,3.6852949E0,1.186708E0,1.011199E0,5.364638E1,1.7894302E1,1.8517529E0,1.2165222E0,1.0554883E0,2.6298065E0],"tree_param":{"num_deleted":"0","num_feature":"4","num_nodes":"21","size_leaf_vector":"1"}},{"base_weights":[-7.062698E-3,-4.4405006E-2,2.2487022E-1,-1.4313203E-2,-2.4069872E-1,-5.3337984E-2,3.008851E-1,-1.0734211E-1,1.4540559E-1,-2.2036593E-1,1.5363091E-1,-8.433812E-3,-1.4669918E-1,-3.2863494E-3,1.23111896E-1,1.952847E-1,-9.398957E-2],"categories":[],"categories_nodes":[],"categories_segments":[],"categories_sizes":[],"default_left":[0,0,0,0,0,0,0,0,0,0,0,0,0,0,0,0,0],"id":16,"left_children":[1,3,5,7,-1,9,-1,11,13,-1,15,-1,-1,-1,-1,-1,-1],"loss_changes":[7.49085E-1,1.6839688E0,2.6509523E0,1.0931083E0,0E0,1.4929138E0,0E0,1.3893503E0,1.1279311E0,0E0,2.1393054E0,0E0,0E0,0E0,0E0,0E0,0E0],"parents":[2147483647,0,0,1,1,2,2,3,3,5,5,7,7,8,8,10,10],"right_children":[2,4,6,8,-1,10,-1,12,14,-1,16,-1,-1,-1,-1,-1,-1],"split_conditions":[1.1295165E0,1.0153593E0,6.3872695E-1,2.884223E-1,-2.4069872E-1,-1.8212485E-1,3.008851E-1,5.967828E-1,2.5431114E-1,-2.2036593E-1,6.962298E-1,-8.433812E-3,-1.4669918E-1,-3.2863494E-3,1.23111896E-1,1.952847E-1,-9.398957E-2],"split_indices":[2,2,0,1,0,1,0,2,2,0,1,0,0,0,0,0,0],"split_type":[0,0,0,0,0,0,0,0,0,0,0,0,0,0,0,0,0],"sum_hessian":[8.43374E1,7.333816E1,1.099925E1,7.1517586E1,1.8205726E0,8.788358E0,2.210892E0,4.5401318E1,2.6116264E1,1.4539022E0,7.334456E0,3.848559E1,6.9157267E0,1.7027067E1,9.089197E0,3.3608115E0,3.9736443E0],"tree_param":{"num_deleted":"0","num_feature":"4","num_nodes":"17","size_leaf_vector":"1"}},{"base_weights":[-5.6875106E-3,-1.7232922E-1,9.057563E-3,-1.5742001E-1,5.06951E-2,-4.3038508E-1,1.0936123E-1,1.9016707E-2,2.6301634E-1,-2.0799997E-1,6.5742426E-2,2.3845112E-1,-6.407693E-2,3.0758224E-2,-6.300203E-2],"categories":[],"categories_nodes":[],"categories_segments":[],"categories_sizes":[],"default_left":[0,0,0,0,0,0,0,0,0,0,0,0,0,0,0],"id":17,"left_children":[1,-1,3,5,7,9,11,13,-1,-1,-1,-1,-1,-1,-1],"loss_changes":[7.083042E-1,0E0,5.8127797E-1,1.2697954E0,1.734325E0,1.6039684E0,2.2260988E0,1.2736379E0,0E0,0E0,0E0,0E0,0E0,0E0,0E0],"parents":[2147483647,0,0,2,2,3,3,4,4,5,5,6,6,7,7],"right_children":[2,-1,4,6,8,10,12,14,-1,-1,-1,-1,-1,-1,-1],"split_conditions":[-1.3428079E0,-1.7232922E-1,-7.000819E-1,1.1478564E-1,2.0681427E0,-2.5200683E-1,3.431001E-1,5.967828E-1,2.6301634E-1,-2.0799997E-1,6.5742426E-2,2.3845112E-1,-6.407693E-2,3.0758224E-2,-6.300203E-2],"split_indices":[1,0,3,2,2,0,2,2,0,0,0,0,0,0,0],"split_type":[0,0,0,0,0,0,0,0,0,0,0,0,0,0,0],"sum_hessian":[8.2840675E1,1.1342235E0,8.170645E1,1.5790649E1,6.59158E1,7.501756E0,8.288893E0,6.446651E1,1.4492916E0,5.2919636E0,2.2097926E0,2.186594E0,6.102299E0,4.7645477E1,1.6821033E1],"tree_param":{"num_deleted":"0","num_feature":"4","num_nodes":"15","size_leaf_vector":"1"}},{"base_weights":[-4.0622656E-3,-3.4578934E-2,2.4588738E-1,-3.879984E-1,-1.7089318E-3,5.9963924E-1,-3.453856E-2,2.84481E-2,-5.6671965E-1,3.33291E-2,-3.220054E-1,2.4205545E-1,2.025701E-3,-1.8168768E-1,2.3484331E-1,-2.3375331E-1,-1.3735745E-2,1.3881929E-3,1.8303908E-1,2.5066378E-2,-1.8408857E-1,1.3575447E-1,-8.545151E-2],"categories":[],"categories_nodes":[],"categories_segments":[],"categories_sizes":[],"default_left":[0,0,0,0,0,0,0,0,0,0,0,0,0,0,0,0,0,0,0,0,0,0,0],"id":18,"left_children":[1,3,5,7,9,11,13,-1,15,17,19,-1,-1,-1,21,-1,-1,-1,-1,-1,-1,-1,-1],"loss_changes":[6.418893E-1,8.692106E-1,9.2923975E-1,6.0317665E-1,7.9084325E-1,4.9876928E-1,1.0736125E0,0E0,4.9451315E-1,1.0495033E0,8.730349E-1,0E0,0E0,0E0,6.757543E-1,0E0,0E0,0E0,0E0,0E0,0E0,0E0,0E0],"parents":[2147483647,0,0,1,1,2,2,3,3,4,4,5,5,6,6,8,8,9,9,10,10,14,14],"right_children":[2,4,6,8,10,12,14,-1,16,18,20,-1,-1,-1,22,-1,-1,-1,-1,-1,-1,-1,-1],"split_conditions":[1.4177355E0,-7.096832E-1,6.761712E-2,-7.8538173E-1,1.009928E0,2.170611E0,4.0881667E-1,2.84481E-2,1.2325494E0,1.7003026E0,3.418157E-1,2.4205545E-1,2.025701E-3,-1.8168768E-1,7.99729E-1,-2.3375331E-1,-1.3735745E-2,1.3881929E-3,1.8303908E-1,2.5066378E-2,-1.8408857E-1,1.3575447E-1,-8.545151E-2],"split_indices":[1,2,3,3,1,1,3,0,0,2,0,0,0,0,2,0,0,0,0,0,0,0,0],"split_type":[0,0,0,0,0,0,0,0,0,0,0,0,0,0,0,0,0,0,0,0,0,0,0],"sum_hessian":[8.203847E1,7.388002E1,8.158448E0,5.3672395E0,6.851278E1,3.1042202E0,5.0542283E0,1.5768112E0,3.7904284E0,6.2564625E1,5.948158E0,2.0328567E0,1.0713633E0,1.2198832E0,3.8343453E0,2.3402479E0,1.4501805E0,6.0559204E1,2.0054207E0,2.7864835E0,3.1616743E0,2.793513E0,1.0408323E0],"tree_param":{"num_deleted":"0","num_feature":"4","num_nodes":"23","size_leaf_vector":"1"}},{"base_weights":[-3.280104E-3,2.0792713E-2,-2.9481658E-1,-6.997147E-3,5.459964E-1,-1.9297114E-1,-2.2935381E-2,-9.1547124E-2,1.0365334E-1,2.1692015E-1,4.8248194E-2,1.0944726E-1,-2.4190694E-1,8.164453E-3,-1.3462773E-1,8.588248E-2,-2.5280286E-2,-1.4979415E-1,4.926991E-2],"categories":[],"categories_nodes":[],"categories_segments":[],"categories_sizes":[],"default_left":[0,0,0,0,0,0,0,0,0,0,0,0,0,0,0,0,0,0,0],"id":19,"left_children":[1,3,5,7,9,-1,11,13,15,-1,-1,-1,17,-1,-1,-1,-1,-1,-1],"loss_changes":[5.8448654E-1,1.1285028E0,5.869251E-1,7.034105E-1,1.4868128E-1,0E0,4.7922418E-1,1.8184294E0,1.1427814E0,0E0,0E0,0E0,4.5251447E-1,0E0,0E0,0E0,0E0,0E0,0E0],"parents":[2147483647,0,0,1,1,2,2,3,3,4,4,6,6,7,7,8,8,12,12],"right_children":[2,4,6,8,10,-1,12,14,16,-1,-1,-1,18,-1,-1,-1,-1,-1,-1],"split_conditions":[2.0295146E0,1.6030151E0,-5.1942116E-1,2.2568268E-1,6.3872695E-1,-1.9297114E-1,-1.2055717E-2,-2.5275806E-2,4.490444E-2,2.1692015E-1,4.8248194E-2,1.0944726E-1,6.3872695E-1,8.164453E-3,-1.3462773E-1,8.588248E-2,-2.5280286E-2,-1.4979415E-1,4.926991E-2],"split_indices":[3,3,2,1,0,0,2,1,0,0,0,0,0,0,0,0,0,0,0],"split_type":[0,0,0,0,0,0,0,0,0,0,0,0,0,0,0,0,0,0,0],"sum_hessian":[8.140922E1,7.605765E1,5.351571E0,7.317258E1,2.8850694E0,1.7469493E0,3.6046216E0,4.1576157E1,3.1596422E1,1.3754656E0,1.5096039E0,1.0605307E0,2.544091E0,3.1895647E1,9.680507E0,1.575872E1,1.5837701E1,1.4167548E0,1.127336E0],"tree_param":{"num_deleted":"0","num_feature":"4","num_nodes":"19","size_leaf_vector":"1"}},{"base_weights":[-2.2832437E-3,-2.363974E-2,2.8780177E-1,-1.7160584E-1,2.2759032E-2,-1.1008455E-1,5.4609615E-1,-3.6497506E-1,5.384132E-1,6.449485E-1,-3.0120345E-2,2.140001E-1,1.44357765E-2,-6.963306E-2,-2.5863442E-1,3.2900345E-1,-4.3342788E-2,-3.7743475E-2,2.717141E-1,-2.3344721E-1,4.4943662E-3],"categories":[],"categories_nodes":[],"categories_segments":[],"categories_sizes":[],"default_left":[0,0,0,0,0,0,0,0,0,0,0,0,0,0,0,0,0,0,0,0,0],"id":20,"left_children":[1,3,5,7,9,-1,11,13,15,17,19,-1,-1,-1,-1,-1,-1,-1,-1,-1,-1],"loss_changes":[5.143461E-1,5.341333E-1,1.1633084E0,2.743862E0,1.9828784E0,0E0,3.3918178E-1,8.0246043E-1,1.826498E0,1.0624635E0,1.8995599E0,0E0,0E0,0E0,0E0,0E0,0E0,0E0,0E0,0E0,0E0],"parents":[2147483647,0,0,1,1,2,2,3,3,4,4,6,6,7,7,8,8,9,9,10,10],"right_children":[2,4,6,8,10,-1,12,14,16,18,20,-1,-1,-1,-1,-1,-1,-1,-1,-1,-1],"split_conditions":[2.1232831E0,-4.3308336E-1,7.500162E-1,7.4899244E-1,-3.389739E-1,-1.1008455E-1,1.2618155E0,4.6994144E-1,9.6462274E-1,-7.000819E-1,-2.762343E-1,2.140001E-1,1.44357765E-2,-6.963306E-2,-2.5863442E-1,3.2900345E-1,-4.3342788E-2,-3.7743475E-2,2.717141E-1,-2.3344721E-1,4.4943662E-3],"split_indices":[0,1,3,2,1,0,3,2,2,3,1,0,0,0,0,0,0,0,0,0,0],"split_type":[0,0,0,0,0,0,0,0,0,0,0,0,0,0,0,0,0,0,0,0,0],"sum_hessian":[8.092513E1,7.623137E1,4.693761E0,1.7553762E1,5.867761E1,1.2088324E0,3.4849286E0,1.4178345E1,3.3754182E0,3.7192745E0,5.4958336E1,2.2850633E0,1.1998653E0,1.2345732E1,1.8326126E0,1.5237815E0,1.8516368E0,1.0710456E0,2.648229E0,2.2009408E0,5.2757393E1],"tree_param":{"num_deleted":"0","num_feature":"4","num_nodes":"21","size_leaf_vector":"1"}},{"base_weights":[-1.8703248E-3,1.3486505E-2,-1.10622555E-1,-1.4606148E-1,5.3397443E-2,-3.1066977E-3,-5.568618E-1,1.8714498E-1,-6.716632E-2,-1.28094E-1,9.3969524E-2,-2.1929149E-2,-2.424203E-1,-4.558577E-2,1.13979556E-1,-2.26873E-1,2.1945199E-3],"categories":[],"categories_nodes":[],"categories_segments":[],"categories_sizes":[],"default_left":[0,0,0,0,0,0,0,0,0,0,0,0,0,0,0,0,0],"id":21,"left_children":[1,3,-1,5,7,9,11,13,15,-1,-1,-1,-1,-1,-1,-1,-1],"loss_changes":[4.621893E-1,5.099409E-1,0E0,9.4063133E-1,1.0415244E0,1.8647898E0,4.436735E-1,2.0526357E0,1.7656813E0,0E0,0E0,0E0,0E0,0E0,0E0,0E0,0E0],"parents":[2147483647,0,0,1,1,3,3,4,4,5,5,6,6,7,7,8,8],"right_children":[2,4,-1,6,8,10,12,14,16,-1,-1,-1,-1,-1,-1,-1,-1],"split_conditions":[2.541314E0,-7.000819E-1,-1.10622555E-1,6.334902E-1,1.4015391E-1,-2.4486448E-1,-8.7068164E-1,-2.762343E-1,2.1625873E-1,-1.28094E-1,9.3969524E-2,-2.1929149E-2,-2.424203E-1,-4.558577E-2,1.13979556E-1,-2.26873E-1,2.1945199E-3],"split_indices":[3,3,0,1,2,1,3,1,2,0,0,0,0,0,0,0,0],"split_type":[0,0,0,0,0,0,0,0,0,0,0,0,0,0,0,0,0],"sum_hessian":[8.015329E1,7.78575E1,2.295788E0,1.5046783E1,6.2810715E1,1.1909833E1,3.136951E0,2.951546E1,3.3295254E1,4.940338E0,6.9694943E0,1.5134261E0,1.623525E0,1.0774949E1,1.874051E1,2.3549147E0,3.094034E1],"tree_param":{"num_deleted":"0","num_feature":"4","num_nodes":"17","size_leaf_vector":"1"}},{"base_weights":[-8.747983E-3,-1.5349285E-1,2.9029626E-2,-2.5900017E-2,-2.5326124E-1,1.8153474E-1,4.703068E-3,-1.6556276E-1,1.6805401E-1,-1.4226946E-1,3.0357352E-2,-1.4030498E-2,-2.2754839E-1,4.958216E-2,-1.756374E-2],"categories":[],"categories_nodes":[],"categories_segments":[],"categories_sizes":[],"default_left":[0,0,0,0,0,0,0,0,0,0,0,0,0,0,0],"id":22,"left_children":[1,3,5,7,-1,-1,9,11,-1,-1,13,-1,-1,-1,-1],"loss_changes":[4.4423345E-1,1.4591732E0,9.027601E-1,1.3382707E0,0E0,0E0,7.885861E-1,8.8444126E-1,0E0,0E0,7.383007E-1,0E0,0E0,0E0,0E0],"parents":[2147483647,0,0,1,1,2,2,3,3,6,6,7,7,10,10],"right_children":[2,4,6,8,-1,-1,10,12,-1,-1,14,-1,-1,-1,-1],"split_conditions":[-3.925798E-1,-4.4331634E-1,-3.5452738E-1,-5.1942116E-1,-2.5326124E-1,1.8153474E-1,-2.911067E-1,-5.4478943E-1,1.6805401E-1,-1.4226946E-1,-5.6645617E-2,-1.4030498E-2,-2.2754839E-1,4.958216E-2,-1.756374E-2],"split_indices":[2,2,2,2,0,0,2,2,0,0,1,0,0,0,0],"split_type":[0,0,0,0,0,0,0,0,0,0,0,0,0,0,0],"sum_hessian":[7.942582E1,1.5805189E1,6.362063E1,1.4216516E1,1.5886732E0,1.6103619E0,6.2010265E1,1.2060103E1,2.156412E0,2.2637277E0,5.974654E1,1.094595E1,1.1141543E0,2.3390638E1,3.63559E1],"tree_param":{"num_deleted":"0","num_feature":"4","num_nodes":"15","size_leaf_vector":"1"}},{"base_weights":[-9.934557E-3,-3.469283E-2,2.0043923E-1,-1.3951346E-2,-2.2875978E-1,1.8670887E-1,9.472157E-3,-4.248217E-2,1.8215476E-1,1.2745559E-1,-2.3763686E-1,-6.3662655E-3,-2.0064257E-1,-1.930564E-1,4.7405053E-2],"categories":[],"categories_nodes":[],"categories_segments":[],"categories_sizes":[],"default_left":[0,0,0,0,0,0,0,0,0,0,0,0,0,0,0],"id":23,"left_children":[1,3,5,7,-1,-1,9,11,-1,-1,13,-1,-1,-1,-1],"loss_changes":[4.2638877E-1,1.0899279E0,6.892021E-1,1.2999828E0,0E0,0E0,8.1478107E-1,9.136728E-1,0E0,0E0,9.04901E-1,0E0,0E0,0E0,0E0],"parents":[2147483647,0,0,1,1,2,2,3,3,6,6,7,7,10,10],"right_children":[2,4,6,8,-1,-1,10,12,-1,-1,14,-1,-1,-1,-1],"split_conditions":[1.4177355E0,1.3549958E0,-1.8828253E-1,1.7003026E0,-2.2875978E-1,1.8670887E-1,1.825543E0,1.5354089E0,1.8215476E-1,1.2745559E-1,4.0881667E-1,-6.3662655E-3,-2.0064257E-1,-1.930564E-1,4.7405053E-2],"split_indices":[1,1,3,2,0,0,1,2,0,0,3,0,0,0,0],"split_type":[0,0,0,0,0,0,0,0,0,0,0,0,0,0,0],"sum_hessian":[7.952906E1,7.190219E1,7.6268682E0,7.090087E1,1.0013169E0,1.6725413E0,5.954327E0,6.867787E1,2.2230065E0,1.9526744E0,4.0016527E0,6.7423004E1,1.2548614E0,1.6660479E0,2.3356047E0],"tree_param":{"num_deleted":"0","num_feature":"4","num_nodes":"15","size_leaf_vector":"1"}},{"base_weights":[-7.240366E-3,-2.4356315E-1,1.5190092E-2,-1.698393E-1,-2.8409422E-3,-5.6613088E-3,2.8473073E-1,1.3414617E-1,-3.012719E-1,2.0434797E-2,-5.11109E-1,-8.8739716E-2,5.2961093E-1,-1.7823666E-1,1.9582057E-2,-4.923893E-3,9.39756E-2,-2.1598352E-1,-3.214968E-2,3.4318324E-2,2.2602691E-1],"categories":[],"categories_nodes":[],"categories_segments":[],"categories_sizes":[],"default_left":[0,0,0,0,0,0,0,0,0,0,0,0,0,0,0,0,0,0,0,0,0],"id":24,"left_children":[1,3,5,-1,7,9,11,-1,13,15,17,-1,19,-1,-1,-1,-1,-1,-1,-1,-1],"loss_changes":[4.2852294E-1,5.4240334E-1,4.1828287E-1,0E0,8.084646E-1,9.310415E-1,9.161973E-1,0E0,4.267155E-1,7.315982E-1,2.151447E-1,0E0,2.9632413E-1,0E0,0E0,0E0,0E0,0E0,0E0,0E0,0E0],"parents":[2147483647,0,0,1,1,2,2,4,4,5,5,6,6,8,8,9,9,10,10,12,12],"right_children":[2,4,6,-1,8,10,12,-1,14,16,18,-1,20,-1,-1,-1,-1,-1,-1,-1,-1],"split_conditions":[-7.096832E-1,-2.5200683E-1,2.1232831E0,-1.698393E-1,-1.8828253E-1,1.826372E0,7.500162E-1,1.3414617E-1,6.883363E-2,1.2325494E0,5.7941645E-1,-8.8739716E-2,2.2568268E-1,-1.7823666E-1,1.9582057E-2,-4.923893E-3,9.39756E-2,-2.1598352E-1,-3.214968E-2,3.4318324E-2,2.2602691E-1],"split_indices":[2,0,0,0,3,0,3,0,1,0,3,0,1,0,0,0,0,0,0,0,0],"split_type":[0,0,0,0,0,0,0,0,0,0,0,0,0,0,0,0,0,0,0,0,0],"sum_hessian":[7.914279E1,6.0060167E0,7.313677E1,1.9889809E0,4.017036E0,6.879394E1,4.3428354E0,1.4030582E0,2.613978E0,6.6328964E1,2.4649727E0,1.2267307E0,3.1161048E0,1.1079308E0,1.5060471E0,5.975359E1,6.5753736E0,1.1092209E0,1.355752E0,1.6206291E0,1.4954759E0],"tree_param":{"num_deleted":"0","num_feature":"4","num_nodes":"21","size_leaf_vector":"1"}},{"base_weights":[-7.3951674E-3,1.1991022E-2,-2.4456638E-1,-1.2939814E-2,4.8967302E-1,-1.4893113E-1,4.59152E-2,6.182814E-2,-1.1741289E-1,2.3428489E-2,1.8672903E-1,1.0411353E-1,-6.6219136E-2,-6.1098583E-2,6.0910087E-2,-4.893006E-3,-2.020228E-1],"categories":[],"categories_nodes":[],"categories_segments":[],"categories_sizes":[],"default_left":[0,0,0,0,0,0,0,0,0,0,0,0,0,0,0,0,0],"id":25,"left_children":[1,3,5,7,9,-1,11,13,15,-1,-1,-1,-1,-1,-1,-1,-1],"loss_changes":[3.685976E-1,8.9324105E-1,4.6588987E-1,5.677439E-1,1.5464127E-1,0E0,3.7593293E-1,1.6337787E0,1.6909153E0,0E0,0E0,0E0,0E0,0E0,0E0,0E0,0E0],"parents":[2147483647,0,0,1,1,2,2,3,3,4,4,6,6,7,7,8,8],"right_children":[2,4,6,8,10,-1,12,14,16,-1,-1,-1,-1,-1,-1,-1,-1],"split_conditions":[2.0295146E0,1.6030151E0,7.903393E-1,3.3041596E-1,2.035746E-1,-1.4893113E-1,3.418157E-1,-2.762343E-1,1.0059159E0,2.3428489E-2,1.8672903E-1,1.0411353E-1,-6.6219136E-2,-6.1098583E-2,6.0910087E-2,-4.893006E-3,-2.020228E-1],"split_indices":[3,3,1,2,2,0,0,1,3,0,0,0,0,0,0,0,0],"split_type":[0,0,0,0,0,0,0,0,0,0,0,0,0,0,0,0,0],"sum_hessian":[7.852963E1,7.347341E1,5.0562177E0,7.07536E1,2.7198098E0,2.3283439E0,2.7278738E0,4.147762E1,2.9275982E1,1.0506873E0,1.6691225E0,1.139493E0,1.5883807E0,1.4247539E1,2.7230082E1,2.5642467E1,3.6335137E0],"tree_param":{"num_deleted":"0","num_feature":"4","num_nodes":"17","size_leaf_vector":"1"}},{"base_weights":[-6.556835E-3,-2.5454182E-2,2.5636196E-1,-1.2657724E-1,3.3302534E-2,-7.058581E-2,4.582773E-1,-4.710383E-1,-1.7999997E-2,3.9378002E-1,-5.009993E-2,1.7775889E-1,1.8528549E-2,-2.773542E-1,1.7474402E-1,7.058202E-2,-9.307965E-2,-4.1776583E-2,2.1407804E-1,-3.3097172E-1,3.8473762E-3],"categories":[],"categories_nodes":[],"categories_segments":[],"categories_sizes":[],"default_left":[0,0,0,0,0,0,0,0,0,0,0,0,0,0,0,0,0,0,0,0,0],"id":26,"left_children":[1,3,5,7,9,-1,11,13,15,17,19,-1,-1,-1,-1,-1,-1,-1,-1,-1,-1],"loss_changes":[3.9844987E-1,4.4688392E-1,6.418881E-1,1.0233448E0,1.4602529E0,0E0,1.8447351E-1,3.6783605E0,1.7027013E0,1.6533339E0,2.6515248E0,0E0,0E0,0E0,0E0,0E0,0E0,0E0,0E0,0E0,0E0],"parents":[2147483647,0,0,1,1,2,2,3,3,4,4,6,6,7,7,8,8,9,9,10,10],"right_children":[2,4,6,8,10,-1,12,14,16,18,20,-1,-1,-1,-1,-1,-1,-1,-1,-1,-1],"split_conditions":[2.1232831E0,-5.0108124E-2,7.500162E-1,-5.4891807E-1,1.4015391E-1,-7.058581E-2,1.2618155E0,-1.7682767E-2,6.761712E-2,-2.762343E-1,1.6552219E-1,1.7775889E-1,1.8528549E-2,-2.773542E-1,1.7474402E-1,7.058202E-2,-9.307965E-2,-4.1776583E-2,2.1407804E-1,-3.3097172E-1,3.8473762E-3],"split_indices":[0,2,3,0,2,0,3,3,3,1,2,0,0,0,0,0,0,0,0,0,0],"split_type":[0,0,0,0,0,0,0,0,0,0,0,0,0,0,0,0,0,0,0,0,0],"sum_hessian":[7.788235E1,7.3502525E1,4.3798237E0,2.6588394E1,4.691413E1,1.226972E0,3.1528518E0,5.5722294E0,2.1016165E1,8.115655E0,3.8798473E1,1.9860669E0,1.1667848E0,3.981071E0,1.5911582E0,1.1363611E1,9.652554E0,3.255036E0,4.860619E0,1.2553592E0,3.7543114E1],"tree_param":{"num_deleted":"0","num_feature":"4","num_nodes":"21","size_leaf_vector":"1"}},{"base_weights":[-7.4357684E-3,-3.4063034E-2,1.608827E-1,-1.0323664E-2,-1.8221886E-1,-9.1677696E-2,2.750016E-1,1.1486477E-1,-6.478328E-2,1.6211419E-1,-4.077101E-1,-9.993298E-3,2.0081148E-1,-1.969362E-1,-7.5577223E-3,-9.764384E-2,1.13820456E-1,-2.2579347E-1,4.348559E-2],"categories":[],"categories_nodes":[],"categories_segments":[],"categories_sizes":[],"default_left":[0,0,0,0,0,0,0,0,0,0,0,0,0,0,0,0,0,0,0],"id":27,"left_children":[1,3,5,7,-1,9,-1,11,13,15,17,-1,-1,-1,-1,-1,-1,-1,-1],"loss_changes":[3.5496664E-1,9.213223E-1,2.1504545E0,4.605464E-1,0E0,7.8981465E-1,0E0,1.7073015E0,1.0833082E0,7.2949815E-1,9.294469E-1,0E0,0E0,0E0,0E0,0E0,0E0,0E0,0E0],"parents":[2147483647,0,0,1,1,2,2,3,3,5,5,7,7,8,8,9,9,10,10],"right_children":[2,4,6,8,-1,10,-1,12,14,16,18,-1,-1,-1,-1,-1,-1,-1,-1],"split_conditions":[1.1295165E0,1.0153593E0,6.3872695E-1,-3.389739E-1,-1.8221886E-1,1.5861454E0,2.750016E-1,-4.3308336E-1,-2.762343E-1,6.094005E-3,2.0681427E0,-9.993298E-3,2.0081148E-1,-1.969362E-1,-7.5577223E-3,-9.764384E-2,1.13820456E-1,-2.2579347E-1,4.348559E-2],"split_indices":[2,2,0,1,0,2,0,1,1,1,2,0,0,0,0,0,0,0,0],"split_type":[0,0,0,0,0,0,0,0,0,0,0,0,0,0,0,0,0,0,0],"sum_hessian":[7.6978E1,6.71524E1,9.825597E0,6.545998E1,1.6924222E0,8.023201E0,1.8023957E0,1.95077E1,4.5952274E1,4.719893E0,3.3033078E0,1.6135803E1,3.371896E0,1.9048014E0,4.4047474E1,1.3014691E0,3.4184241E0,1.8110918E0,1.4922161E0],"tree_param":{"num_deleted":"0","num_feature":"4","num_nodes":"19","size_leaf_vector":"1"}},{"base_weights":[-6.3575134E-3,-2.778572E-2,1.7741837E-1,-9.02829E-3,-1.9449875E-1,1.6901653E-1,1.4154545E-2,-3.337175E-2,1.595534E-1,1.0768191E-1,-1.7634772E-1,-9.464658E-2,-2.4068234E-3,-1.5047978E-1,4.7718268E-2],"categories":[],"categories_nodes":[],"categories_segments":[],"categories_sizes":[],"default_left":[0,0,0,0,0,0,0,0,0,0,0,0,0,0,0],"id":28,"left_children":[1,3,5,7,-1,-1,9,11,-1,-1,13,-1,-1,-1,-1],"loss_changes":[3.095979E-1,8.107038E-1,5.096499E-1,9.27674E-1,0E0,0E0,5.098278E-1,4.7713006E-1,0E0,0E0,6.306387E-1,0E0,0E0,0E0,0E0],"parents":[2147483647,0,0,1,1,2,2,3,3,6,6,7,7,10,10],"right_children":[2,4,6,8,-1,-1,10,12,-1,-1,14,-1,-1,-1,-1],"split_conditions":[1.4177355E0,1.3549958E0,-1.8828253E-1,1.7003026E0,-1.9449875E-1,1.6901653E-1,1.825543E0,-7.096832E-1,1.595534E-1,1.0768191E-1,4.0881667E-1,-9.464658E-2,-2.4068234E-3,-1.5047978E-1,4.7718268E-2],"split_indices":[1,1,3,2,0,0,1,2,0,0,3,0,0,0,0],"split_type":[0,0,0,0,0,0,0,0,0,0,0,0,0,0,0],"sum_hessian":[7.636648E1,6.915217E1,7.2143135E0,6.810799E1,1.0441802E0,1.4159938E0,5.7983193E0,6.607251E1,2.0354736E0,1.748884E0,4.0494356E0,4.503697E0,6.1568813E1,1.8042935E0,2.245142E0],"tree_param":{"num_deleted":"0","num_feature":"4","num_nodes":"15","size_leaf_vector":"1"}},{"base_weights":[-3.4809937E-3,7.369316E-2,-5.8876604E-2,-1.3349997E-1,1.4562121E-1,-5.2708197E-1,5.9746904E-3,-4.8282087E-1,7.568595E-2,4.0251982E-1,-5.391276E-2,-9.268039E-2,-2.8941357E-1,1.3791871E-1,-7.8446195E-2,-7.123909E-3,-1.9864698E-1,-9.9418744E-2,7.8358725E-2,1.6014885E-2,3.5031965E-1,1.2818322E-1,-7.286594E-2,1.0423298E-1,-1.8707415E-1,7.396857E-3,2.5415763E-1,-4.4333708E-2,1.4715676E-1],"categories":[],"categories_nodes":[],"categories_segments":[],"categories_sizes":[],"default_left":[0,0,0,0,0,0,0,0,0,0,0,0,0,0,0,0,0,0,0,0,0,0,0,0,0,0,0,0,0],"id":29,"left_children":[1,3,5,7,9,11,13,15,17,19,21,23,-1,25,27,-1,-1,-1,-1,-1,-1,-1,-1,-1,-1,-1,-1,-1,-1],"loss_changes":[3.328496E-1,5.045866E-1,1.3782938E0,6.8766725E-1,1.2849007E0,9.6018004E-1,4.6492732E-1,2.7019763E-1,5.7271665E-1,2.8473558E0,1.4452083E0,1.1225704E0,0E0,1.2860957E0,1.0783654E0,0E0,0E0,0E0,0E0,0E0,0E0,0E0,0E0,0E0,0E0,0E0,0E0,0E0,0E0],"parents":[2147483647,0,0,1,1,2,2,3,3,4,4,5,5,6,6,7,7,8,8,9,9,10,10,11,11,13,13,14,14],"right_children":[2,4,6,8,10,12,14,16,18,20,22,24,-1,26,28,-1,-1,-1,-1,-1,-1,-1,-1,-1,-1,-1,-1,-1,-1],"split_conditions":[-2.5275806E-2,-2.911067E-1,1.0020344E-1,-3.588823E-1,2.2894287E-1,6.761712E-2,5.1364962E-2,-7.8538173E-1,4.490444E-2,-2.762343E-1,-7.1541166E-1,5.20678E-1,-2.8941357E-1,-5.0108124E-2,1.9823921E0,-7.123909E-3,-1.9864698E-1,-9.9418744E-2,7.8358725E-2,1.6014885E-2,3.5031965E-1,1.2818322E-1,-7.286594E-2,1.0423298E-1,-1.8707415E-1,7.396857E-3,2.5415763E-1,-4.4333708E-2,1.4715676E-1],"split_indices":[1,2,1,3,2,3,2,3,0,1,1,2,0,2,1,0,0,0,0,0,0,0,0,0,0,0,0,0,0],"split_type":[0,0,0,0,0,0,0,0,0,0,0,0,0,0,0,0,0,0,0,0,0,0,0,0,0,0,0,0,0],"sum_hessian":[7.584266E1,3.1553595E1,4.4289066E1,7.910602E0,2.3642994E1,4.521044E0,3.976802E1,2.472936E0,5.4376664E0,9.891044E0,1.3751949E1,2.8770225E0,1.6440213E0,1.5269361E1,2.4498661E1,1.0127778E0,1.460158E0,1.4560694E0,3.981597E0,7.5266747E0,2.364369E0,3.5222032E0,1.0229747E1,1.7619222E0,1.1151001E0,1.4059058E1,1.210302E0,2.2497458E1,2.0012045E0],"tree_param":{"num_deleted":"0","num_feature":"4","num_nodes":"29","size_leaf_vector":"1"}},{"base_weights":[-6.400441E-4,-7.376824E-2,5.9624635E-2,-2.8677657E-1,8.044124E-2,5.201226E-1,-3.6328293E-2,-7.73864E-1,-1.741026E-2,1.853448E-1,-6.0290253E-1,7.319957E-1,-1.2962606E-2,4.3886164E-1,-1.3115293E-1,-1.1503131E-1,-3.0219698E-1,2.2910503E-1,-9.004086E-2,1.1076734E-2,1.4419894E-1,1.556027E-2,-2.885161E-1,4.355347E-3,2.8941536E-1,3.882674E-2,2.3393397E-1,-2.371205E-1,-1.4124696E-2],"categories":[],"categories_nodes":[],"categories_segments":[],"categories_sizes":[],"default_left":[0,0,0,0,0,0,0,0,0,0,0,0,0,0,0,0,0,0,0,0,0,0,0,0,0,0,0,0,0],"id":30,"left_children":[1,3,5,7,9,11,13,15,17,19,21,23,-1,25,27,-1,-1,-1,-1,-1,-1,-1,-1,-1,-1,-1,-1,-1,-1],"loss_changes":[3.4217545E-1,1.1751697E0,1.8999405E0,1.9477723E0,1.6261559E0,9.1558266E-1,1.6871352E0,9.682512E-2,2.5806952E0,8.185289E-1,7.6567423E-1,8.939376E-1,0E0,5.580206E-1,1.676399E0,0E0,0E0,0E0,0E0,0E0,0E0,0E0,0E0,0E0,0E0,0E0,0E0,0E0,0E0],"parents":[2147483647,0,0,1,1,2,2,3,3,4,4,5,5,6,6,7,7,8,8,9,9,10,10,11,11,13,13,14,14],"right_children":[2,4,6,8,10,12,14,16,18,20,22,24,-1,26,28,-1,-1,-1,-1,-1,-1,-1,-1,-1,-1,-1,-1,-1,-1],"split_conditions":[-1.8828253E-1,-5.4891807E-1,-5.4891807E-1,1.6552219E-1,-2.7358243E-1,9.20616E-1,6.761712E-2,2.5705248E-1,4.0652078E-1,3.5116193E-1,-2.2768603E-1,-3.7034371E-1,-1.2962606E-2,9.356382E-1,1.5291701E-1,-1.1503131E-1,-3.0219698E-1,2.2910503E-1,-9.004086E-2,1.1076734E-2,1.4419894E-1,1.556027E-2,-2.885161E-1,4.355347E-3,2.8941536E-1,3.882674E-2,2.3393397E-1,-2.371205E-1,-1.4124696E-2],"split_indices":[3,0,0,2,3,3,3,1,2,1,2,1,0,0,3,0,0,0,0,0,0,0,0,0,0,0,0,0,0],"split_type":[0,0,0,0,0,0,0,0,0,0,0,0,0,0,0,0,0,0,0,0,0,0,0,0,0,0,0,0,0],"sum_hessian":[7.564475E1,3.4073807E1,4.1570946E1,1.3947953E1,2.0125854E1,6.4061074E0,3.5164837E1,4.2998157E0,9.648138E0,1.8079193E1,2.0466607E0,4.4376636E0,1.9684438E0,5.2462797E0,2.9918558E1,2.5977983E0,1.7020172E0,2.1120327E0,7.5361056E0,1.2780793E1,5.2984E0,1.0273687E0,1.0192919E0,1.3470665E0,3.0905974E0,3.4733102E0,1.7729696E0,2.4335983E0,2.748496E1],"tree_param":{"num_deleted":"0","num_feature":"4","num_nodes":"29","size_leaf_vector":"1"}},{"base_weights":[-1.5822179E-3,-1.8458983E-2,2.3295304E-1,-1.878055E-3,-3.0025518E-1,-5.768963E-2,4.0668562E-1,-2.964557E-2,2.1031645E-1,1.5279263E-2,-1.4319283E-1,1.9826293E-2,1.8267915E-1,-6.625938E-2,6.250968E-5,-3.0084698E-2,1.5663755E-1],"categories":[],"categories_nodes":[],"categories_segments":[],"categories_sizes":[],"default_left":[0,0,0,0,0,0,0,0,0,0,0,0,0,0,0,0,0],"id":31,"left_children":[1,3,5,7,9,-1,11,13,15,-1,-1,-1,-1,-1,-1,-1,-1],"loss_changes":[3.0412072E-1,3.339299E-1,4.5928937E-1,4.105325E-1,2.7127922E-1,0E0,2.3412913E-1,3.5143057E-1,8.332999E-1,0E0,0E0,0E0,0E0,0E0,0E0,0E0,0E0],"parents":[2147483647,0,0,1,1,2,2,3,3,4,4,6,6,7,7,8,8],"right_children":[2,4,6,8,10,-1,12,14,16,-1,-1,-1,-1,-1,-1,-1,-1],"split_conditions":[2.1232831E0,1.826372E0,7.500162E-1,1.2325494E0,-1.5075505E-1,-5.768963E-2,2.2568268E-1,-8.7068164E-1,1.9431287E-1,1.5279263E-2,-1.4319283E-1,1.9826293E-2,1.8267915E-1,-6.625938E-2,6.250968E-5,-3.0084698E-2,1.5663755E-1],"split_indices":[0,0,3,0,1,0,1,3,1,0,0,0,0,0,0,0,0],"split_type":[0,0,0,0,0,0,0,0,0,0,0,0,0,0,0,0,0],"sum_hessian":[7.474678E1,7.058864E1,4.158145E0,6.761672E1,2.9719129E0,1.1750542E0,2.9830909E0,6.0553112E1,7.063616E0,1.2348795E0,1.7370335E0,1.6057084E0,1.3773825E0,7.313143E0,5.3239967E1,3.8785253E0,3.1850903E0],"tree_param":{"num_deleted":"0","num_feature":"4","num_nodes":"17","size_leaf_vector":"1"}},{"base_weights":[3.3475013E-4,1.8663457E-2,-2.2618921E-1,-1.5585143E-2,4.1125646E-1,2.3148298E-2,-4.0062234E-1,-5.2683912E-2,2.0454791E-1,6.626291E-1,-9.932523E-2,4.782556E-2,-1.9945352E-1,4.838379E-2,-3.3868305E-2,1.3496252E-4,2.3916197E-1,2.1486368E-2,2.522219E-1],"categories":[],"categories_nodes":[],"categories_segments":[],"categories_sizes":[],"default_left":[0,0,0,0,0,0,0,0,0,0,0,0,0,0,0,0,0,0,0],"id":32,"left_children":[1,3,5,7,9,-1,11,13,15,17,-1,-1,-1,-1,-1,-1,-1,-1,-1],"loss_changes":[3.164194E-1,9.541903E-1,3.3278656E-1,5.481169E-1,1.281606E0,0E0,6.658754E-1,7.538496E-1,1.1722602E0,4.2248607E-1,0E0,0E0,0E0,0E0,0E0,0E0,0E0,0E0,0E0],"parents":[2147483647,0,0,1,1,2,2,3,3,4,4,6,6,7,7,8,8,9,9],"right_children":[2,4,6,8,10,-1,12,14,16,18,-1,-1,-1,-1,-1,-1,-1,-1,-1],"split_conditions":[2.0295146E0,1.4324154E0,3.418157E-1,1.1295165E0,6.602035E-1,2.3148298E-2,2.2854142E0,-4.9582297E-1,6.3872695E-1,-5.3210527E-1,-9.932523E-2,4.782556E-2,-1.9945352E-1,4.838379E-2,-3.3868305E-2,1.3496252E-4,2.3916197E-1,2.1486368E-2,2.522219E-1],"split_indices":[3,3,0,2,2,0,3,1,0,2,0,0,0,0,0,0,0,0,0],"split_type":[0,0,0,0,0,0,0,0,0,0,0,0,0,0,0,0,0,0,0],"sum_hessian":[7.419415E1,6.948919E1,4.7049613E0,6.479682E1,4.692372E0,1.9213171E0,2.7836442E0,5.610259E1,8.694231E0,3.5855913E0,1.1067806E0,1.0194631E0,1.7641811E0,1.1951887E1,4.41507E1,7.211511E0,1.48272E0,1.1550412E0,2.43055E0],"tree_param":{"num_deleted":"0","num_feature":"4","num_nodes":"19","size_leaf_vector":"1"}},{"base_weights":[4.6559926E-3,-1.4895816E-1,2.926701E-2,9.437917E-3,-2.2050752E-1,3.726919E-1,-4.8178635E-3,-1.3857536E-1,2.0191975E-1,-5.8961943E-2,6.848541E-1,-4.3758625E-1,2.5346108E-2,1.4457351E-1,-6.4519644E-2,-2.235357E-1,1.866486E-1,2.8189576E-1,1.0764643E-2,2.3087647E-2,-2.295933E-1,1.643349E-1,-5.1038656E-3],"categories":[],"categories_nodes":[],"categories_segments":[],"categories_sizes":[],"default_left":[0,0,0,0,0,0,0,0,0,0,0,0,0,0,0,0,0,0,0,0,0,0,0],"id":33,"left_children":[1,3,5,7,-1,9,11,-1,13,15,17,19,21,-1,-1,-1,-1,-1,-1,-1,-1,-1,-1],"loss_changes":[2.8757232E-1,9.8247504E-1,7.673803E-1,9.334244E-1,0E0,8.377997E-1,8.006681E-1,0E0,9.5255053E-1,2.0546365E0,5.472803E-1,7.3272055E-1,1.281556E0,0E0,0E0,0E0,0E0,0E0,0E0,0E0,0E0,0E0,0E0],"parents":[2147483647,0,0,1,1,2,2,3,3,5,5,6,6,8,8,9,9,10,10,11,11,12,12],"right_children":[2,4,6,8,-1,10,12,-1,14,16,18,20,22,-1,-1,-1,-1,-1,-1,-1,-1,-1,-1],"split_conditions":[-6.52672E-1,-7.1541166E-1,-4.9582297E-1,-5.4891807E-1,-2.2050752E-1,6.3872695E-1,-4.3308336E-1,-1.3857536E-1,-1.7682767E-2,1.3312555E-2,5.967828E-1,-4.6445316E-1,-3.389739E-1,1.4457351E-1,-6.4519644E-2,-2.235357E-1,1.866486E-1,2.8189576E-1,1.0764643E-2,2.3087647E-2,-2.295933E-1,1.643349E-1,-5.1038656E-3],"split_indices":[1,1,1,0,0,0,1,0,3,2,2,1,1,0,0,0,0,0,0,0,0,0,0],"split_type":[0,0,0,0,0,0,0,0,0,0,0,0,0,0,0,0,0,0,0,0,0,0,0],"sum_hessian":[7.391212E1,9.508786E0,6.440333E1,8.260201E0,1.2485852E0,4.917945E0,5.9485382E1,1.9891953E0,6.271006E0,2.4043536E0,2.5135913E0,2.995887E0,5.6489494E1,3.6586428E0,2.612363E0,1.1509469E0,1.2534068E0,1.4833078E0,1.0302833E0,1.4634174E0,1.5324697E0,3.3417637E0,5.314773E1],"tree_param":{"num_deleted":"0","num_feature":"4","num_nodes":"23","size_leaf_vector":"1"}},{"base_weights":[9.924333E-4,-2.3775665E-1,1.8554172E-2,-1.7154065E-1,5.7024416E-4,2.86148E-1,1.9880563E-3,1.3118793E-1,-1.2185661E-1,-1.870669E-2,1.4845419E-1,-4.3832463E-1,2.3010634E-2,3.295196E-3,-1.9906153E-1,9.04127E-2,-1.3436598E-3],"categories":[],"categories_nodes":[],"categories_segments":[],"categories_sizes":[],"default_left":[0,0,0,0,0,0,0,0,0,0,0,0,0,0,0,0,0],"id":34,"left_children":[1,3,5,-1,7,9,11,-1,-1,-1,-1,13,15,-1,-1,-1,-1],"loss_changes":[3.1841028E-1,4.1459486E-1,3.1277952E-1,0E0,8.9456505E-1,3.3006835E-1,6.355639E-1,0E0,0E0,0E0,0E0,3.2391852E-1,5.021244E-1,0E0,0E0,0E0,0E0],"parents":[2147483647,0,0,1,1,2,2,4,4,5,5,6,6,11,11,12,12],"right_children":[2,4,6,-1,8,10,12,-1,-1,-1,-1,14,16,-1,-1,-1,-1],"split_conditions":[-9.663701E-1,-6.14782E-1,-7.781513E-1,-1.7154065E-1,-1.7682767E-2,6.4049095E-2,-6.52672E-1,1.3118793E-1,-1.2185661E-1,-1.870669E-2,1.4845419E-1,-7.1541166E-1,-4.9582297E-1,3.295196E-3,-1.9906153E-1,9.04127E-2,-1.3436598E-3],"split_indices":[1,3,1,0,3,2,1,0,0,0,0,1,1,0,0,0,0],"split_type":[0,0,0,0,0,0,0,0,0,0,0,0,0,0,0,0,0],"sum_hessian":[7.388915E1,4.2035956E0,6.9685555E1,1.167692E0,3.0359035E0,3.1138697E0,6.6571686E1,1.4278277E0,1.6080757E0,1.4289336E0,1.684936E0,2.1290512E0,6.4442635E1,1.0284632E0,1.100588E0,4.896477E0,5.9546158E1],"tree_param":{"num_deleted":"0","num_feature":"4","num_nodes":"17","size_leaf_vector":"1"}},{"base_weights":[-1.9185774E-3,1.210767E-2,-2.2353263E-1,-1.1470723E-2,4.8167017E-1,-1.8857077E-1,5.4198567E-2,1.8606624E-1,-4.220454E-2,1.5001628E-4,2.1096641E-1,-7.766527E-2,1.14272974E-1,-2.586602E-2,4.3295946E-2],"categories":[],"categories_nodes":[],"categories_segments":[],"categories_sizes":[],"default_left":[0,0,0,0,0,0,0,0,0,0,0,0,0,0,0],"id":35,"left_children":[1,3,5,7,9,-1,-1,11,13,-1,-1,-1,-1,-1,-1],"loss_changes":[2.3517236E-1,7.9473776E-1,8.507513E-1,4.2585525E-1,3.654589E-1,0E0,0E0,9.1831094E-1,5.082981E-1,0E0,0E0,0E0,0E0,0E0,0E0],"parents":[2147483647,0,0,1,1,2,2,3,3,4,4,7,7,8,8],"right_children":[2,4,6,8,10,-1,-1,12,14,-1,-1,-1,-1,-1,-1],"split_conditions":[1.5861454E0,1.3831992E0,-5.2948207E-1,-8.458293E-1,6.094005E-3,-1.8857077E-1,5.4198567E-2,-5.0108124E-2,1.0912157E0,1.5001628E-4,2.1096641E-1,-7.766527E-2,1.14272974E-1,-2.586602E-2,4.3295946E-2],"split_indices":[2,2,3,0,1,0,0,2,3,0,0,0,0,0,0],"split_type":[0,0,0,0,0,0,0,0,0,0,0,0,0,0,0],"sum_hessian":[7.378602E1,7.028308E1,3.5029435E0,6.785158E1,2.4314964E0,1.4723803E0,2.030563E0,8.454896E0,5.9396687E1,1.0825802E0,1.3489163E0,2.4747684E0,5.9801273E0,4.8491535E1,1.0905149E1],"tree_param":{"num_deleted":"0","num_feature":"4","num_nodes":"15","size_leaf_vector":"1"}},{"base_weights":[5.294894E-4,1.8387975E-2,-2.212755E-1,-6.3411524E-3,3.1653947E-1,-3.5470566E-1,4.5402262E-2,2.6217451E-2,-2.7188265E-1,5.5509704E-1,-9.463184E-2,-4.966297E-3,-1.6057603E-1,-4.757101E-3,2.0236932E-1,7.990741E-2,-1.669226E-1,8.498185E-3,2.2109962E-1],"categories":[],"categories_nodes":[],"categories_segments":[],"categories_sizes":[],"default_left":[0,0,0,0,0,0,0,0,0,0,0,0,0,0,0,0,0,0,0],"id":36,"left_children":[1,3,5,7,9,11,-1,13,15,17,-1,-1,-1,-1,-1,-1,-1,-1,-1],"loss_changes":[2.9857257E-1,5.1614404E-1,3.3294025E-1,5.7231027E-1,9.8324543E-1,2.619003E-1,0E0,1.6240736E0,1.2551061E0,3.867215E-1,0E0,0E0,0E0,0E0,0E0,0E0,0E0,0E0,0E0],"parents":[2147483647,0,0,1,1,2,2,3,3,4,4,5,5,7,7,8,8,9,9],"right_children":[2,4,6,8,10,12,-1,14,16,18,-1,-1,-1,-1,-1,-1,-1,-1,-1],"split_conditions":[2.0295146E0,1.4324154E0,2.7972136E0,1.0059159E0,6.602035E-1,-5.0108124E-2,4.5402262E-2,8.353161E-1,-1.8963362E-1,-5.3210527E-1,-9.463184E-2,-4.966297E-3,-1.6057603E-1,-4.757101E-3,2.0236932E-1,7.990741E-2,-1.669226E-1,8.498185E-3,2.2109962E-1],"split_indices":[3,3,3,3,2,2,0,3,2,2,0,0,0,0,0,0,0,0,0],"split_type":[0,0,0,0,0,0,0,0,0,0,0,0,0,0,0,0,0,0,0],"sum_hessian":[7.334896E1,6.873213E1,4.616825E0,6.437177E1,4.360359E0,3.4348922E0,1.1819328E0,5.8143898E1,6.227878E0,3.253783E0,1.1065761E0,1.5756035E0,1.8592887E0,5.5516685E1,2.6272113E0,2.1757824E0,4.052096E0,1.1318325E0,2.1219504E0],"tree_param":{"num_deleted":"0","num_feature":"4","num_nodes":"19","size_leaf_vector":"1"}},{"base_weights":[2.7562468E-3,-1.4336671E-1,2.5515497E-2,-2.602808E-1,8.664083E-2,1.7452231E-1,-2.109761E-2,-2.0608269E-1,-4.055957E-2,-6.2644035E-2,6.8463475E-1,7.8520745E-2,-1.6065319E-1,4.9981494E-2,-1.5051043E-1,9.4340645E-2,-1.1726496E-1,2.6902822E-1,-2.0077636E-2,3.926384E-2,-1.7811322E-1,-1.0398608E-1,3.4501497E-2],"categories":[],"categories_nodes":[],"categories_segments":[],"categories_sizes":[],"default_left":[0,0,0,0,0,0,0,0,0,0,0,0,0,0,0,0,0,0,0,0,0,0,0],"id":37,"left_children":[1,3,5,7,-1,9,11,-1,13,15,17,19,21,-1,-1,-1,-1,-1,-1,-1,-1,-1,-1],"loss_changes":[2.4997562E-1,5.871325E-1,4.546886E-1,7.6907927E-1,0E0,1.9278363E0,7.126373E-1,0E0,7.211742E-1,1.5528408E0,8.61711E-1,1.1354566E0,1.1318152E0,0E0,0E0,0E0,0E0,0E0,0E0,0E0,0E0,0E0,0E0],"parents":[2147483647,0,0,1,1,2,2,3,3,5,5,6,6,8,8,9,9,10,10,11,11,12,12],"right_children":[2,4,6,8,-1,10,12,-1,14,16,18,20,22,-1,-1,-1,-1,-1,-1,-1,-1,-1,-1],"split_conditions":[-6.52672E-1,7.363083E-1,-6.14782E-1,-6.14782E-1,8.664083E-2,-2.5200683E-1,3.3041596E-1,-2.0608269E-1,-7.781513E-1,-8.458293E-1,6.021204E-1,2.541314E0,9.012021E-1,4.9981494E-2,-1.5051043E-1,9.4340645E-2,-1.1726496E-1,2.6902822E-1,-2.0077636E-2,3.926384E-2,-1.7811322E-1,-1.0398608E-1,3.4501497E-2],"split_indices":[1,2,3,3,0,0,2,0,1,0,1,3,2,0,0,0,0,0,0,0,0,0,0],"split_type":[0,0,0,0,0,0,0,0,0,0,0,0,0,0,0,0,0,0,0,0,0,0,0],"sum_hessian":[7.306601E1,9.13252E0,6.3933487E1,7.501017E0,1.6315032E0,1.4580464E1,4.9353024E1,1.8269539E0,5.674063E0,1.0551811E1,4.028653E0,2.9052181E1,2.030084E1,4.3559136E0,1.3181496E0,4.929862E0,5.621949E0,2.9911966E0,1.0374565E0,2.7699991E1,1.3521891E0,1.1968866E1,8.331974E0],"tree_param":{"num_deleted":"0","num_feature":"4","num_nodes":"23","size_leaf_vector":"1"}},{"base_weights":[-2.034136E-3,-2.2795357E-2,1.7610303E-1,-7.88886E-3,-1.4671203E-1,1.5494403E-1,3.6650427E-2,-2.8060682E-2,1.3333677E-1,2.7661395E-1,-2.0669454E-1,-7.927494E-2,-2.279999E-3,1.9909804E-1,-9.2057995E-2,-1.6514875E-1,8.123658E-2],"categories":[],"categories_nodes":[],"categories_segments":[],"categories_sizes":[],"default_left":[0,0,0,0,0,0,0,0,0,0,0,0,0,0,0,0,0],"id":38,"left_children":[1,3,5,7,-1,-1,9,11,-1,13,15,-1,-1,-1,-1,-1,-1],"loss_changes":[2.764798E-1,4.6087748E-1,3.5152745E-1,6.1298525E-1,0E0,0E0,4.4331807E-1,3.0700457E-1,0E0,1.0521365E0,7.819953E-1,0E0,0E0,0E0,0E0,0E0,0E0],"parents":[2147483647,0,0,1,1,2,2,3,3,6,6,7,7,9,9,10,10],"right_children":[2,4,6,8,-1,-1,10,12,-1,14,16,-1,-1,-1,-1,-1,-1],"split_conditions":[1.4177355E0,1.3549958E0,-1.8828253E-1,1.7003026E0,-1.4671203E-1,1.5494403E-1,2.7967942E-1,-7.096832E-1,1.3333677E-1,2.1078713E0,1.9823921E0,-7.927494E-2,-2.279999E-3,1.9909804E-1,-9.2057995E-2,-1.6514875E-1,8.123658E-2],"split_indices":[1,1,3,2,0,0,2,2,0,1,1,0,0,0,0,0,0],"split_type":[0,0,0,0,0,0,0,0,0,0,0,0,0,0,0,0,0],"sum_hessian":[7.267228E1,6.586768E1,6.8045974E0,6.4812454E1,1.0552247E0,1.1918632E0,5.6127343E0,6.2943523E1,1.8689318E0,2.7571657E0,2.8555684E0,4.0681067E0,5.887542E1,1.5749784E0,1.1821873E0,1.5712864E0,1.284282E0],"tree_param":{"num_deleted":"0","num_feature":"4","num_nodes":"17","size_leaf_vector":"1"}},{"base_weights":[2.5617934E-4,1.5388061E-2,-2.4577774E-1,-4.4114226E-3,4.2274708E-1,-1.7659721E-1,3.722745E-2,-3.3903554E-2,2.007216E-1,2.6121554E-3,1.894582E-1,-2.2352654E-2,5.4766033E-2,1.3748904E-1,-1.12526845E-2],"categories":[],"categories_nodes":[],"categories_segments":[],"categories_sizes":[],"default_left":[0,0,0,0,0,0,0,0,0,0,0,0,0,0,0],"id":39,"left_children":[1,3,5,7,9,-1,-1,11,13,-1,-1,-1,-1,-1,-1],"loss_changes":[2.760188E-1,5.6506354E-1,6.178302E-1,4.156583E-1,2.7518034E-1,0E0,0E0,5.4044807E-1,5.473221E-1,0E0,0E0,0E0,0E0,0E0,0E0],"parents":[2147483647,0,0,1,1,2,2,3,3,4,4,7,7,8,8],"right_children":[2,4,6,8,10,-1,-1,12,14,-1,-1,-1,-1,-1,-1],"split_conditions":[1.5861454E0,1.3831992E0,-5.2948207E-1,1.2295166E0,6.094005E-3,-1.7659721E-1,3.722745E-2,1.0912157E0,1.825543E0,2.6121554E-3,1.894582E-1,-2.2352654E-2,5.4766033E-2,1.3748904E-1,-1.12526845E-2],"split_indices":[2,2,3,1,1,0,0,3,1,0,0,0,0,0,0],"split_type":[0,0,0,0,0,0,0,0,0,0,0,0,0,0,0],"sum_hessian":[7.212382E1,6.8828125E1,3.2956965E0,6.658115E1,2.246973E0,1.4032836E0,1.892413E0,5.894177E1,7.6393785E0,1.1024227E0,1.1445504E0,5.0183582E1,8.758187E0,3.2268028E0,4.4125757E0],"tree_param":{"num_deleted":"0","num_feature":"4","num_nodes":"15","size_leaf_vector":"1"}}]},"name":"gbtree"},"learner_model_param":{"base_score":"3.6215335E-1","boost_from_average":"1","num_class":"0","num_feature":"4","num_target":"1"},"objective":{"name":"binary:logistic","reg_loss_param":{"scale_pos_weight":"1"}}},"version":[3,0,0]}