{"learner":{"attributes":{"scikit_learn":"{\"_estimator_type\": \"classifier\"}"},"feature_names":["Pregnancies","Glucose","BMI","Age"],"feature_types":["float","float","float","float"],"gradient_booster":{"model":{"gbtree_model_param":{"num_parallel_tree":"1","num_trees":"40"},"iteration_indptr":[0,1,2,3,4,5,6,7,8,9,10,11,12,13,14,15,16,17,18,19,20,21,22,23,24,25,26,27,28,29,30,31,32,33,34,35,36,37,38,39,40],"tree_info":[0,0,0,0,0,0,0,0,0,0,0,0,0,0,0,0,0,0,0,0,0,0,0,0,0,0,0,0,0,0,0,0,0,0,0,0,0,0,0,0],"trees":[{"base_weights":[4.607309E-8,-7.058697E-1,1.1459506E0,-1.1159852E0,-1.482855E-1,-5.47615E-2,1.6000869E0,-1.4217037E0,-6.6269594E-1,-9.7618216E-1,2.7997997E-1,-6.5795124E-1,5.7160616E-1,5.6705E-1,5.4008377E-1,-4.3548092E-1,-1.407077E-1,-2.2724134E-1,1.73964E-1,-3.465093E-1,6.2104363E-2,-2.8617162E-1,1.8572657E-1,-2.661283E-1,6.2104363E-2,-1.407077E-1,2.534354E-1,-1.9272198E-1,3.1215772E-1],"categories":[],"categories_nodes":[],"categories_segments":[],"categories_sizes":[],"default_left":[0,0,0,0,0,0,0,0,0,0,0,0,0,0,0,0,0,0,0,0,0,0,0,0,0,0,0,0,0],"id":0,"left_children":[1,3,5,7,9,11,13,15,17,19,21,23,25,27,-1,-1,-1,-1,-1,-1,-1,-1,-1,-1,-1,-1,-1,-1,-1],"loss_changes":[1.14873184E2,1.9930622E1,2.9605095E1,6.0537796E0,1.3887552E1,6.35402E0,7.108635E0,1.5307999E-1,3.0544786E0,3.0564966E0,1.1504549E1,1.8733296E0,2.75491E0,5.1585917E0,0E0,0E0,0E0,0E0,0E0,0E0,0E0,0E0,0E0,0E0,0E0,0E0,0E0,0E0,0E0],"parents":[2147483647,0,0,1,1,2,2,3,3,4,4,5,5,6,6,7,7,8,8,9,9,10,10,11,11,12,12,13,13],"right_children":[2,4,6,8,10,12,14,16,18,20,22,24,26,28,-1,-1,-1,-1,-1,-1,-1,-1,-1,-1,-1,-1,-1,-1,-1],"split_conditions":[2.2238089E-1,-3.608474E-1,-2.5289652E-1,-1.2597726E-1,-6.539392E-1,7.857295E-1,-7.011984E-1,6.3994724E-1,1.6508921E0,8.1322515E-1,-7.478816E-1,-4.9404308E-1,-4.4593516E-1,1.6593699E-1,5.4008377E-1,-4.3548092E-1,-1.407077E-1,-2.2724134E-1,1.73964E-1,-3.465093E-1,6.2104363E-2,-2.8617162E-1,1.8572657E-1,-2.661283E-1,6.2104363E-2,-1.407077E-1,2.534354E-1,-1.9272198E-1,3.1215772E-1],"split_indices":[1,3,2,2,1,1,3,0,2,2,2,2,3,2,0,0,0,0,0,0,0,0,0,0,0,0,0,0,0],"split_type":[0,0,0,0,0,0,0,0,0,0,0,0,0,0,0,0,0,0,0,0,0,0,0,0,0,0,0,0,0],"sum_hessian":[1.4001303E2,8.688105E1,5.313198E1,4.9483433E1,3.7397617E1,1.4822227E1,3.8309753E1,2.8276249E1,2.1207186E1,1.231385E1,2.5083769E1,7.5251303E0,7.2970963E0,6.8410277E0,3.1468727E1,2.6908043E1,1.3682055E0,2.0067015E1,1.1401713E0,1.071761E1,1.5962398E0,5.0167537E0,2.0067015E1,5.9288907E0,1.5962398E0,1.3682055E0,5.9288907E0,1.8242741E0,5.0167537E0],"tree_param":{"num_deleted":"0","num_feature":"4","num_nodes":"29","size_leaf_vector":"1"}},{"base_weights":[-2.233974E-2,-5.637908E-1,7.485155E-1,-9.1894406E-1,-1.2625223E-1,-5.258168E-2,1.0250658E0,-1.2233677E0,-5.0760376E-1,-7.9685825E-1,1.8260819E-1,-3.4548813E-1,7.8799284E-1,6.7791665E-1,1.4234971E0,-3.7556687E-1,-1.199836E-1,-1.7750068E-1,1.4205024E-1,-2.889207E-1,5.0003134E-2,-2.3730008E-1,1.255505E-1,-2.941408E-1,-3.9542258E-2,3.3334234E-1,-7.807364E-3,4.587341E-2,3.2017055E-1,4.5851946E-1,7.446854E-2],"categories":[],"categories_nodes":[],"categories_segments":[],"categories_sizes":[],"default_left":[0,0,0,0,0,0,0,0,0,0,0,0,0,0,0,0,0,0,0,0,0,0,0,0,0,0,0,0,0,0,0],"id":1,"left_children":[1,3,5,7,9,11,13,15,17,19,21,23,25,27,29,-1,-1,-1,-1,-1,-1,-1,-1,-1,-1,-1,-1,-1,-1,-1,-1],"loss_changes":[5.781566E1,1.2524292E1,1.2718502E1,4.9814034E0,7.93423E0,4.11833E0,4.919468E0,8.650589E-2,1.9905238E0,2.089425E0,6.430971E0,1.5369102E0,1.1709478E0,4.8739796E0,1.9506874E0,0E0,0E0,0E0,0E0,0E0,0E0,0E0,0E0,0E0,0E0,0E0,0E0,0E0,0E0,0E0,0E0],"parents":[2147483647,0,0,1,1,2,2,3,3,4,4,5,5,6,6,7,7,8,8,9,9,10,10,11,11,12,12,13,13,14,14],"right_children":[2,4,6,8,10,12,14,16,18,20,22,24,26,28,30,-1,-1,-1,-1,-1,-1,-1,-1,-1,-1,-1,-1,-1,-1,-1,-1],"split_conditions":[2.2238089E-1,-3.608474E-1,-2.5289652E-1,-1.2597726E-1,-6.539392E-1,1.2864839E0,1.1612953E0,6.3994724E-1,1.6508921E0,8.1322515E-1,-7.478816E-1,-1.0397959E0,1.5110831E0,-1.906719E-1,1.7524276E0,-3.7556687E-1,-1.199836E-1,-1.7750068E-1,1.4205024E-1,-2.889207E-1,5.0003134E-2,-2.3730008E-1,1.255505E-1,-2.941408E-1,-3.9542258E-2,3.3334234E-1,-7.807364E-3,4.587341E-2,3.2017055E-1,4.5851946E-1,7.446854E-2],"split_indices":[1,3,2,2,1,1,1,0,2,2,2,2,3,3,2,0,0,0,0,0,0,0,0,0,0,0,0,0,0,0,0],"split_type":[0,0,0,0,0,0,0,0,0,0,0,0,0,0,0,0,0,0,0,0,0,0,0,0,0,0,0,0,0,0,0],"sum_hessian":[1.3650923E2,8.0343994E1,5.6165245E1,4.3739803E1,3.6604187E1,1.4621189E1,4.1544056E1,2.4002214E1,1.973759E1,1.1044367E1,2.555982E1,1.1279664E1,3.3415244E0,2.3644396E1,1.7899662E1,2.2695726E1,1.3064878E0,1.8545473E1,1.1921178E0,9.419909E0,1.6244588E0,4.526067E0,2.1033752E1,1.9365277E0,9.343137E0,2.1306791E0,1.2108452E0,1.0660807E1,1.2983588E1,1.6157063E1,1.7426004E0],"tree_param":{"num_deleted":"0","num_feature":"4","num_nodes":"31","size_leaf_vector":"1"}},{"base_weights":[-2.5630346E-2,-6.874705E-1,3.8173014E-1,-8.793094E-1,2.268079E-1,1.935923E-1,1.1031718E0,-3.290245E-1,-4.212042E-1,-2.5341082E-1,6.105611E-1,-6.243698E-1,3.3286992E-1,1.2631267E0,9.99797E-3,1.2808745E-1,-1.6198412E-1,3.5559842E-1,-9.236443E-2,7.917259E-2,-2.296672E-1,-3.0494716E-3,1.8353869E-1,4.1424257E-1,1.6288385E-1],"categories":[],"categories_nodes":[],"categories_segments":[],"categories_sizes":[],"default_left":[0,0,0,0,0,0,0,0,0,0,0,0,0,0,0,0,0,0,0,0,0,0,0,0,0],"id":2,"left_children":[1,3,5,7,9,11,13,-1,15,-1,17,19,21,23,-1,-1,-1,-1,-1,-1,-1,-1,-1,-1,-1],"loss_changes":[3.526524E1,8.93778E0,1.0781633E1,3.660452E0,4.395647E0,7.6658325E0,2.788826E0,0E0,1.7356281E0,0E0,4.3388596E0,1.4402242E0,5.421006E0,4.6767807E-1,0E0,0E0,0E0,0E0,0E0,0E0,0E0,0E0,0E0,0E0,0E0],"parents":[2147483647,0,0,1,1,2,2,3,3,4,4,5,5,6,6,8,8,10,10,11,11,12,12,13,13],"right_children":[2,4,6,8,10,12,14,-1,16,-1,18,20,22,24,-1,-1,-1,-1,-1,-1,-1,-1,-1,-1,-1],"split_conditions":[-2.7837345E-1,9.369137E-1,1.4116724E0,1.151693E-1,-9.6691066E-1,-7.098058E-1,2.1066973E0,-3.290245E-1,2.2939663E-1,-2.5341082E-1,1.0005566E0,-1.3951697E0,-1.906719E-1,2.162804E0,9.99797E-3,1.2808745E-1,-1.6198412E-1,3.5559842E-1,-9.236443E-2,7.917259E-2,-2.296672E-1,-3.0494716E-3,1.8353869E-1,4.1424257E-1,1.6288385E-1],"split_indices":[1,0,1,2,1,2,3,0,2,0,3,2,3,1,0,0,0,0,0,0,0,0,0,0,0],"split_type":[0,0,0,0,0,0,0,0,0,0,0,0,0,0,0,0,0,0,0,0,0,0,0,0,0],"sum_hessian":[1.2882877E2,4.8821186E1,8.000758E1,4.038552E1,8.435665E0,6.4464775E1,1.5542809E1,2.6441168E1,1.3944352E1,1.9077392E0,6.527926E0,8.872813E0,5.5591965E1,1.3364057E1,2.178752E0,1.3937004E0,1.25506525E1,3.8364606E0,2.6914651E0,1.0976653E0,7.775148E0,2.5363005E1,3.0228962E1,1.0698544E1,2.665513E0],"tree_param":{"num_deleted":"0","num_feature":"4","num_nodes":"25","size_leaf_vector":"1"}},{"base_weights":[-2.3620263E-2,-5.685673E-1,2.826162E-1,-7.390283E-1,1.5283743E-1,1.4840637E-1,9.974296E-1,-1.046868E0,-4.0060818E-1,-1.4463069E-1,3.471831E-1,-5.8635395E-2,6.7630565E-1,1.0981511E0,5.340842E-3,-3.2447496E-1,-8.1337154E-2,1.1338546E-1,-1.558558E-1,7.223443E-2,-2.842326E-1,-1.9121926E-1,1.6383246E-2,2.3253638E-1,-9.968547E-2,1.680663E-1,4.4061396E-1],"categories":[],"categories_nodes":[],"categories_segments":[],"categories_sizes":[],"default_left":[0,0,0,0,0,0,0,0,0,0,0,0,0,0,0,0,0,0,0,0,0,0,0,0,0,0,0],"id":3,"left_children":[1,3,5,7,9,11,13,15,17,19,-1,21,23,25,-1,-1,-1,-1,-1,-1,-1,-1,-1,-1,-1,-1,-1],"loss_changes":[2.059502E1,5.5711308E0,7.436742E0,3.3387508E0,2.949705E0,7.4432983E0,1.1963444E0,1.9878197E-1,1.9371502E0,2.7260997E0,0E0,3.284153E0,2.167387E0,1.4013033E0,0E0,0E0,0E0,0E0,0E0,0E0,0E0,0E0,0E0,0E0,0E0,0E0,0E0],"parents":[2147483647,0,0,1,1,2,2,3,3,4,4,5,5,6,6,7,7,8,8,9,9,11,11,12,12,13,13],"right_children":[2,4,6,8,10,12,14,16,18,20,-1,22,24,26,-1,-1,-1,-1,-1,-1,-1,-1,-1,-1,-1,-1,-1],"split_conditions":[-2.7837345E-1,9.369137E-1,1.2447506E0,-1.6405304E-1,8.6399287E-1,1.0674038E0,1.1707321E0,5.751179E-1,-1.248585E0,3.816997E-1,3.471831E-1,-7.098058E-1,2.5321362E0,-5.310229E-1,5.340842E-3,-3.2447496E-1,-8.1337154E-2,1.1338546E-1,-1.558558E-1,7.223443E-2,-2.842326E-1,-1.9121926E-1,1.6383246E-2,2.3253638E-1,-9.968547E-2,1.680663E-1,4.4061396E-1],"split_indices":[1,0,2,2,2,1,3,3,1,2,0,2,3,3,0,0,0,0,0,0,0,0,0,0,0,0,0],"split_type":[0,0,0,0,0,0,0,0,0,0,0,0,0,0,0,0,0,0,0,0,0,0,0,0,0,0,0],"sum_hessian":[1.2144732E2,4.3385788E1,7.806153E1,3.507377E1,8.312021E0,6.673863E1,1.1322901E1,1.7270483E1,1.7803284E1,7.0732603E0,1.2387611E0,4.8576057E1,1.816257E1,1.0157551E1,1.1653498E0,1.6153357E1,1.117127E0,2.070227E0,1.5733056E1,5.251978E0,1.8212824E0,7.191971E0,4.1384087E1,1.6752724E1,1.4098487E0,5.1676683E0,4.989883E0],"tree_param":{"num_deleted":"0","num_feature":"4","num_nodes":"27","size_leaf_vector":"1"}},{"base_weights":[-1.993078E-2,-6.632352E-1,1.5513842E-1,-8.202604E-1,3.0479224E-2,2.077902E-2,6.99471E-1,-3.207492E-1,-5.0727916E-1,-6.042936E-1,5.774039E-1,-9.418196E-2,6.3133574E-1,-1.4248346E-1,9.9966043E-1,-2.7182382E-1,-6.791313E-2,-5.757991E-2,-2.1740916E-1,2.501096E-1,-1.5006587E-3,-5.070935E-2,2.7939585E-1,2.2683288E-1,-5.2747175E-2,2.1247901E-1,-2.0113154E-1,4.7257575E-1,1.8346024E-1],"categories":[],"categories_nodes":[],"categories_segments":[],"categories_sizes":[],"default_left":[0,0,0,0,0,0,0,0,0,0,0,0,0,0,0,0,0,0,0,0,0,0,0,0,0,0,0,0,0],"id":4,"left_children":[1,3,5,7,9,11,13,-1,15,17,19,21,23,25,27,-1,-1,-1,-1,-1,-1,-1,-1,-1,-1,-1,-1,-1,-1],"loss_changes":[1.31365385E1,2.742447E0,6.6980352E0,1.0451155E0,2.2822175E0,5.298634E0,4.7270565E0,0E0,1.0192826E0,1.313138E-2,5.270114E-1,5.0457773E0,1.3371806E0,3.0093374E0,2.0518217E0,0E0,0E0,0E0,0E0,0E0,0E0,0E0,0E0,0E0,0E0,0E0,0E0,0E0,0E0],"parents":[2147483647,0,0,1,1,2,2,3,3,4,4,5,5,6,6,8,8,9,9,10,10,11,11,12,12,13,13,14,14],"right_children":[2,4,6,8,10,12,14,-1,16,18,20,22,24,26,28,-1,-1,-1,-1,-1,-1,-1,-1,-1,-1,-1,-1,-1,-1],"split_conditions":[-6.2264204E-1,7.497655E-1,1.2338802E0,-6.161107E-1,-5.479186E-1,1.4116724E0,-5.1942694E-1,-3.207492E-1,-6.3365424E-1,-5.310229E-1,-8.417221E-1,1.7016599E0,1.9365219E0,9.154689E-1,1.4055315E-1,-2.7182382E-1,-6.791313E-2,-5.757991E-2,-2.1740916E-1,2.501096E-1,-1.5006587E-3,-5.070935E-2,2.7939585E-1,2.2683288E-1,-5.2747175E-2,2.1247901E-1,-2.0113154E-1,4.7257575E-1,1.8346024E-1],"split_indices":[1,2,0,3,0,1,2,0,2,3,1,2,3,3,2,0,0,0,0,0,0,0,0,0,0,0,0,0,0],"split_type":[0,0,0,0,0,0,0,0,0,0,0,0,0,0,0,0,0,0,0,0,0,0,0,0,0,0,0,0,0],"sum_hessian":[1.1472833E2,2.3946558E1,9.078177E1,1.9377874E1,4.568683E0,7.364252E1,1.7139252E1,9.448072E0,9.929802E0,2.0659742E0,2.5027087E0,6.268532E1,1.0957199E1,4.642785E0,1.2496466E1,3.1839297E0,6.745872E0,1.0531627E0,1.0128117E0,1.4382963E0,1.0644125E0,5.9199635E1,3.485685E0,9.5449505E0,1.412249E0,1.6471095E0,2.9956756E0,3.800988E0,8.695478E0],"tree_param":{"num_deleted":"0","num_feature":"4","num_nodes":"29","size_leaf_vector":"1"}},{"base_weights":[-1.3692041E-2,-5.7323277E-1,1.2558138E-1,-9.359008E-1,-2.6449966E-1,2.8874068E-2,7.333824E-1,-3.0006886E-1,-9.1001384E-2,4.5755172E-1,-4.361632E-1,-4.7262484E-1,1.5380403E-1,8.6289823E-1,-5.2333865E-2,2.5280583E-1,-4.2445563E-2,-1.7758466E-1,5.89674E-2,-1.8373637E-1,-4.2057526E-3,6.415439E-2,-3.2878888E-1,1.2872519E-1,3.573799E-1],"categories":[],"categories_nodes":[],"categories_segments":[],"categories_sizes":[],"default_left":[0,0,0,0,0,0,0,0,0,0,0,0,0,0,0,0,0,0,0,0,0,0,0,0,0],"id":5,"left_children":[1,3,5,7,9,11,13,-1,-1,15,17,19,21,23,-1,-1,-1,-1,-1,-1,-1,-1,-1,-1,-1],"loss_changes":[8.67369E0,2.235684E0,5.221916E0,9.5547676E-2,1.8572493E0,4.9593725E0,1.5853934E0,0E0,0E0,8.2447404E-1,1.2318516E0,1.0046546E0,4.976678E0,1.034153E0,0E0,0E0,0E0,0E0,0E0,0E0,0E0,0E0,0E0,0E0,0E0],"parents":[2147483647,0,0,1,1,2,2,3,3,4,4,5,5,6,6,9,9,10,10,11,11,12,12,13,13],"right_children":[2,4,6,8,10,12,14,-1,-1,16,18,20,22,24,-1,-1,-1,-1,-1,-1,-1,-1,-1,-1,-1],"split_conditions":[-6.2264204E-1,-6.161107E-1,1.2447506E0,7.497655E-1,-4.4593516E-1,-7.011984E-1,1.1707321E0,-3.0006886E-1,-9.1001384E-2,-9.982078E-1,8.6399287E-1,-2.5095212E-1,1.0162959E0,-5.310229E-1,-5.2333865E-2,2.5280583E-1,-4.2445563E-2,-1.7758466E-1,5.89674E-2,-1.8373637E-1,-4.2057526E-3,6.415439E-2,-3.2878888E-1,1.2872519E-1,3.573799E-1],"split_indices":[1,3,2,2,3,3,3,0,0,1,2,0,2,3,0,0,0,0,0,0,0,0,0,0,0],"split_type":[0,0,0,0,0,0,0,0,0,0,0,0,0,0,0,0,0,0,0,0,0,0,0,0,0],"sum_hessian":[1.0937849E2,2.11781E1,8.8200386E1,8.804295E0,1.2373807E1,7.69969E1,1.1203483E1,7.4640064E0,1.3402877E0,2.0568564E0,1.0316951E1,1.4800604E1,6.21963E1,9.848004E0,1.3554789E0,1.0043819E0,1.0524746E0,8.330335E0,1.9866163E0,1.1085227E1,3.715377E0,6.013601E1,2.0602903E0,5.236571E0,4.6114335E0],"tree_param":{"num_deleted":"0","num_feature":"4","num_nodes":"25","size_leaf_vector":"1"}},{"base_weights":[-1.570158E-2,-2.5000706E-1,2.5636724E-1,-7.749981E-1,-1.0715293E-1,-2.5893816E-1,3.0908695E-1,8.001416E-2,-2.7163893E-1,1.614088E-1,-4.8708904E-1,1.8602061E-1,6.541649E-1,-1.4524108E-1,1.279322E-1,-1.9206506E-1,2.4307442E-1,7.651171E-2,-2.2276737E-1,2.3958078E-1,3.3634517E-2],"categories":[],"categories_nodes":[],"categories_segments":[],"categories_sizes":[],"default_left":[0,0,0,0,0,0,0,0,0,0,0,0,0,0,0,0,0,0,0,0,0],"id":6,"left_children":[1,3,5,7,9,-1,11,-1,-1,13,15,17,19,-1,-1,-1,-1,-1,-1,-1,-1],"loss_changes":[6.8557425E0,4.247975E0,3.2054286E0,1.8985133E0,4.829109E0,0E0,1.9289894E0,0E0,0E0,5.0016704E0,4.3984194E0,2.5601301E0,8.732028E-1,0E0,0E0,0E0,0E0,0E0,0E0,0E0,0E0],"parents":[2147483647,0,0,1,1,2,2,3,3,4,4,6,6,9,9,10,10,11,11,12,12],"right_children":[2,4,6,8,10,-1,12,-1,-1,14,16,18,20,-1,-1,-1,-1,-1,-1,-1,-1],"split_conditions":[2.2238089E-1,-6.3365424E-1,-1.1159474E0,-1.7251598E0,4.0708357E-1,-2.5893816E-1,1.4429696E0,8.001416E-2,-2.7163893E-1,-6.161107E-1,1.7016599E0,1.3490782E0,2.194101E0,-1.4524108E-1,1.279322E-1,-1.9206506E-1,2.4307442E-1,7.651171E-2,-2.2276737E-1,2.3958078E-1,3.3634517E-2],"split_indices":[1,2,2,2,2,0,1,0,0,3,2,1,1,0,0,0,0,0,0,0,0],"split_type":[0,0,0,0,0,0,0,0,0,0,0,0,0,0,0,0,0,0,0,0,0],"sum_hessian":[1.0554032E2,5.6749115E1,4.8791206E1,1.1192266E1,4.5556847E1,1.5030105E0,4.7288197E1,1.1294792E0,1.0062787E1,2.7027414E1,1.8529434E1,3.5991497E1,1.12967005E1,7.625952E0,1.9401463E1,1.7026295E1,1.5031394E0,3.4176598E1,1.8148978E0,8.546145E0,2.750555E0],"tree_param":{"num_deleted":"0","num_feature":"4","num_nodes":"21","size_leaf_vector":"1"}},{"base_weights":[-1.7621303E-2,-3.2095847E-1,1.244212E-1,-7.148247E-1,-9.21708E-2,-5.277191E-2,3.479056E-1,-8.5866773E-1,-2.4233085E-1,1.4424217E-1,-8.305618E-1,-1.0763805E-1,2.2647494E-1,2.3415962E-1,7.2407776E-1,-3.0319965E-1,-1.235242E-1,1.9132425E-1,-2.5604364E-1,-2.0404299E-1,1.10293455E-1,-1.4778162E-2,-3.3303398E-1,4.145119E-2,-1.12349026E-1,1.8876973E-1,2.501658E-2,3.1141677E-1,2.5562784E-2],"categories":[],"categories_nodes":[],"categories_segments":[],"categories_sizes":[],"default_left":[0,0,0,0,0,0,0,0,0,0,0,0,0,0,0,0,0,0,0,0,0,0,0,0,0,0,0,0,0],"id":7,"left_children":[1,3,5,7,9,11,13,15,17,19,21,23,-1,25,27,-1,-1,-1,-1,-1,-1,-1,-1,-1,-1,-1,-1,-1,-1],"loss_changes":[4.439872E0,2.8940425E0,2.8010738E0,6.021533E-1,3.9473085E0,1.8566369E0,1.1657717E0,1.7798042E-1,2.7900956E0,3.4657333E0,1.1390629E0,2.5699685E0,0E0,1.4628842E0,1.2690792E0,0E0,0E0,0E0,0E0,0E0,0E0,0E0,0E0,0E0,0E0,0E0,0E0,0E0,0E0],"parents":[2147483647,0,0,1,1,2,2,3,3,4,4,5,5,6,6,7,7,8,8,9,9,10,10,11,11,13,13,14,14],"right_children":[2,4,6,8,10,12,14,16,18,20,22,24,-1,26,28,-1,-1,-1,-1,-1,-1,-1,-1,-1,-1,-1,-1,-1,-1],"split_conditions":[-2.5289652E-1,-4.4593516E-1,2.8497517E-1,-2.5095212E-1,1.9365219E0,1.7016599E0,1.2338802E0,-6.971139E-1,-7.862862E-1,-4.661563E-1,3.429808E-1,4.0708357E-1,2.2647494E-1,6.918381E-1,2.1247795E0,-3.0319965E-1,-1.235242E-1,1.9132425E-1,-2.5604364E-1,-2.0404299E-1,1.10293455E-1,-1.4778162E-2,-3.3303398E-1,4.145119E-2,-1.12349026E-1,1.8876973E-1,2.501658E-2,3.1141677E-1,2.5562784E-2],"split_indices":[2,3,1,0,3,2,0,2,3,1,0,2,0,1,0,0,0,0,0,0,0,0,0,0,0,0,0,0,0],"split_type":[0,0,0,0,0,0,0,0,0,0,0,0,0,0,0,0,0,0,0,0,0,0,0,0,0,0,0,0,0],"sum_hessian":[1.01118065E2,3.1847315E1,6.9270744E1,1.0921374E1,2.092594E1,3.9062946E1,3.0207802E1,7.7459393E0,3.1754353E0,1.6460411E1,4.465528E0,3.7389797E1,1.6731501E0,2.4440136E1,5.767666E0,4.838848E0,2.9070911E0,1.2835485E0,1.8918868E0,3.0736747E0,1.3386737E1,1.486688E0,2.97884E0,1.9713522E1,1.7676273E1,5.874213E0,1.8565922E1,3.4481862E0,2.3194797E0],"tree_param":{"num_deleted":"0","num_feature":"4","num_nodes":"29","size_leaf_vector":"1"}},{"base_weights":[-1.782963E-2,-1.2465547E-1,2.9382515E-1,-4.1327202E-1,3.468056E-2,9.6665576E-2,1.0720067E0,-8.0847937E-1,-4.9826432E-2,5.918666E-1,-5.4148346E-2,-1.4457475E-1,5.855013E-1,3.7675044E-1,6.414606E-2,-2.82309E-1,-6.560515E-2,3.1397417E-2,-2.5474745E-1,2.6505101E-2,3.2557258E-1,2.9193526E-2,-1.1685578E-1,5.1789932E-2,-2.1568306E-1,2.4443394E-1,-3.6335636E-2],"categories":[],"categories_nodes":[],"categories_segments":[],"categories_sizes":[],"default_left":[0,0,0,0,0,0,0,0,0,0,0,0,0,0,0,0,0,0,0,0,0,0,0,0,0,0,0],"id":8,"left_children":[1,3,5,7,9,11,13,15,17,19,21,23,25,-1,-1,-1,-1,-1,-1,-1,-1,-1,-1,-1,-1,-1,-1],"loss_changes":[3.325625E0,3.4299731E0,3.811205E0,3.7655873E0,2.4462507E0,2.6150384E0,5.2955055E-1,7.814369E-1,1.9249128E0,1.5911205E0,2.2214217E0,2.887833E0,1.279465E0,0E0,0E0,0E0,0E0,0E0,0E0,0E0,0E0,0E0,0E0,0E0,0E0,0E0,0E0],"parents":[2147483647,0,0,1,1,2,2,3,3,4,4,5,5,6,6,7,7,8,8,9,9,10,10,11,11,12,12],"right_children":[2,4,6,8,10,12,14,16,18,20,22,24,26,-1,-1,-1,-1,-1,-1,-1,-1,-1,-1,-1,-1,-1,-1],"split_conditions":[9.369137E-1,-1.2597726E-1,9.020686E-1,-9.059057E-2,5.1709678E-2,6.292438E-1,9.7351235E-1,1.4967911E-1,2.3619606E0,-1.906719E-1,4.6014335E-2,1.4055315E-1,1.7663465E0,3.7675044E-1,6.414606E-2,-2.82309E-1,-6.560515E-2,3.1397417E-2,-2.5474745E-1,2.6505101E-2,3.2557258E-1,2.9193526E-2,-1.1685578E-1,5.1789932E-2,-2.1568306E-1,2.4443394E-1,-3.6335636E-2],"split_indices":[0,2,2,1,2,1,1,3,3,3,0,2,3,0,0,0,0,0,0,0,0,0,0,0,0,0,0],"split_type":[0,0,0,0,0,0,0,0,0,0,0,0,0,0,0,0,0,0,0,0,0,0,0,0,0,0,0],"sum_hessian":[9.779012E1,7.3274025E1,2.4516098E1,2.5496572E1,4.777745E1,2.0457275E1,4.0588226E0,1.1627956E1,1.3868617E1,5.7908583E0,4.198659E1,1.4169084E1,6.2881927E0,2.9611666E0,1.097656E0,9.007984E0,2.619973E0,1.2350701E1,1.5179156E0,3.4495146E0,2.3413434E0,2.9412958E1,1.2573633E1,9.578554E0,4.59053E0,4.63213E0,1.6560625E0],"tree_param":{"num_deleted":"0","num_feature":"4","num_nodes":"27","size_leaf_vector":"1"}},{"base_weights":[-1.2858991E-2,-7.31735E-2,4.4103774E-1,-4.7577426E-1,-1.2758598E-2,6.339081E-2,6.76969E-1,-6.829729E-1,1.7589457E-1,1.5490363E-2,-2.857653E-1,1.7107502E-1,-2.4166413E-1,8.2300013E-1,3.910284E-2,-8.002445E-2,-2.4776341E-1,1.731491E-1,-7.560431E-2,-9.624537E-3,2.5897342E-1,-2.691714E-1,1.0271188E-1,2.7448538E-1,7.983087E-2],"categories":[],"categories_nodes":[],"categories_segments":[],"categories_sizes":[],"default_left":[0,0,0,0,0,0,0,0,0,0,0,0,0,0,0,0,0,0,0,0,0,0,0,0,0],"id":9,"left_children":[1,3,5,7,9,11,13,15,17,19,-1,-1,21,23,-1,-1,-1,-1,-1,-1,-1,-1,-1,-1,-1],"loss_changes":[2.655918E0,2.0723894E0,9.71328E-1,1.6219258E0,2.0146222E0,9.851883E-1,4.4375134E-1,2.9384518E-1,7.4272275E-1,3.016737E0,0E0,0E0,1.8860474E0,2.5850296E-2,0E0,0E0,0E0,0E0,0E0,0E0,0E0,0E0,0E0,0E0,0E0],"parents":[2147483647,0,0,1,1,2,2,3,3,4,4,5,5,6,6,7,7,8,8,9,9,12,12,13,13],"right_children":[2,4,6,8,10,12,14,16,18,20,-1,-1,22,24,-1,-1,-1,-1,-1,-1,-1,-1,-1,-1,-1],"split_conditions":[1.4116724E0,-7.098058E-1,2.9285625E-1,1.3409077E0,1.3490782E0,1.6933467E0,9.154689E-1,-7.862862E-1,1.9365219E0,1.7016599E0,-2.857653E-1,1.7107502E-1,1.4967911E-1,2.162804E0,3.910284E-2,-8.002445E-2,-2.4776341E-1,1.731491E-1,-7.560431E-2,-9.624537E-3,2.5897342E-1,-2.691714E-1,1.0271188E-1,2.7448538E-1,7.983087E-2],"split_indices":[1,2,2,3,1,1,3,3,3,2,0,0,3,1,0,0,0,0,0,0,0,0,0,0,0],"split_type":[0,0,0,0,0,0,0,0,0,0,0,0,0,0,0,0,0,0,0,0,0,0,0,0,0],"sum_hessian":[9.483548E1,8.445213E1,1.0383345E1,1.0122354E1,7.432978E1,4.480403E0,5.902941E0,7.6439247E0,2.4784288E0,7.311554E1,1.2142428E0,1.3567616E0,3.1236413E0,4.259434E0,1.6435071E0,2.6863332E0,4.9575915E0,1.0990248E0,1.3794041E0,7.014166E1,2.9738774E0,1.2190287E0,1.9046127E0,3.1039815E0,1.1554527E0],"tree_param":{"num_deleted":"0","num_feature":"4","num_nodes":"25","size_leaf_vector":"1"}},{"base_weights":[-7.3480504E-3,-9.635785E-2,2.5390863E-1,-3.0754864E-1,3.8008362E-2,9.575986E-2,9.064296E-1,-7.406518E-1,-8.609372E-2,-2.139109E-1,7.872735E-2,2.3168598E-1,-5.6899864E-2,3.223539E-1,6.950066E-2,-2.5574592E-1,-2.0593593E-2,8.622645E-2,-8.5687876E-2,6.598477E-3,1.1791129E-1,-8.459832E-2,1.2046693E-1],"categories":[],"categories_nodes":[],"categories_segments":[],"categories_sizes":[],"default_left":[0,0,0,0,0,0,0,0,0,0,0,0,0,0,0,0,0,0,0,0,0,0,0],"id":10,"left_children":[1,3,5,7,9,11,13,15,17,-1,19,-1,21,-1,-1,-1,-1,-1,-1,-1,-1,-1,-1],"loss_changes":[2.2057536E0,2.01763E0,2.401431E0,2.5831168E0,1.4045612E0,2.1638484E0,2.711625E-1,6.332841E-1,1.5273162E0,0E0,7.532172E-1,0E0,1.9375856E0,0E0,0E0,0E0,0E0,0E0,0E0,0E0,0E0,0E0,0E0],"parents":[2147483647,0,0,1,1,2,2,3,3,4,4,5,5,6,6,7,7,8,8,10,10,12,12],"right_children":[2,4,6,8,10,12,14,16,18,-1,20,-1,22,-1,-1,-1,-1,-1,-1,-1,-1,-1,-1],"split_conditions":[9.369137E-1,-9.059057E-2,9.020686E-1,-1.6405304E-1,-1.1159474E0,6.4591356E-2,8.483238E-1,7.452934E-1,2.2939663E-1,-2.139109E-1,1.4259953E0,2.3168598E-1,6.292438E-1,3.223539E-1,6.950066E-2,-2.5574592E-1,-2.0593593E-2,8.622645E-2,-8.5687876E-2,6.598477E-3,1.1791129E-1,-8.459832E-2,1.2046693E-1],"split_indices":[0,1,2,2,2,3,1,3,2,0,3,0,1,0,0,0,0,0,0,0,0,0,0],"split_type":[0,0,0,0,0,0,0,0,0,0,0,0,0,0,0,0,0,0,0,0,0,0,0],"sum_hessian":[9.280104E1,6.96892E1,2.3111841E1,2.6596746E1,4.3092457E1,1.9526129E1,3.585713E0,8.205205E0,1.839154E1,1.3670292E0,4.1725426E1,2.8476424E0,1.6678486E1,2.3963456E0,1.1893672E0,6.8042774E0,1.4009281E0,6.250477E0,1.2141064E1,3.6251987E1,5.4734397E0,1.1444385E1,5.234101E0],"tree_param":{"num_deleted":"0","num_feature":"4","num_nodes":"23","size_leaf_vector":"1"}},{"base_weights":[-3.8162202E-3,-6.806301E-2,2.8164685E-1,-2.3582342E-1,-3.5297688E-2,-1.7875247E-1,3.7697098E-1,-6.2776305E-2,1.869813E-1,5.1282614E-1,-1.1784753E-1,-9.035218E-3,-2.0633852E-1,2.1680598E-1,3.008733E-2],"categories":[],"categories_nodes":[],"categories_segments":[],"categories_sizes":[],"default_left":[0,0,0,0,0,0,0,0,0,0,0,0,0,0,0],"id":11,"left_children":[1,3,5,-1,7,-1,9,11,-1,13,-1,-1,-1,-1,-1],"loss_changes":[1.691661E0,1.7424684E0,1.6422566E0,0E0,1.3603249E0,0E0,1.8642771E0,1.4284153E0,0E0,1.1351137E0,0E0,0E0,0E0,0E0,0E0],"parents":[2147483647,0,0,1,1,2,2,4,4,6,6,7,7,9,9],"right_children":[2,4,6,-1,8,-1,10,12,-1,14,-1,-1,-1,-1,-1],"split_conditions":[1.2338802E0,-1.1540232E0,-9.6691066E-1,-2.3582342E-1,2.0697258E0,-1.7875247E-1,2.0216098E0,1.6001245E0,1.869813E-1,3.816997E-1,-1.1784753E-1,-9.035218E-3,-2.0633852E-1,2.1680598E-1,3.008733E-2],"split_indices":[0,2,1,0,2,0,3,2,0,2,0,0,0,0,0],"split_type":[0,0,0,0,0,0,0,0,0,0,0,0,0,0,0],"sum_hessian":[9.01932E1,7.4245056E1,1.5948147E1,2.2368073E0,7.200825E1,1.0482246E0,1.4899922E1,6.999251E1,2.0157428E0,1.2948551E1,1.9513711E0,6.7512955E1,2.4795477E0,8.084216E0,4.864335E0],"tree_param":{"num_deleted":"0","num_feature":"4","num_nodes":"15","size_leaf_vector":"1"}},{"base_weights":[-6.366939E-3,2.0464148E-2,-6.063088E-1,-2.599701E-2,3.9080027E-1,-2.614428E-1,5.635536E-3,-1.882564E-1,9.408449E-2,4.8934922E-1,-6.0854446E-2,-2.1767731E-1,-2.9078761E-2,9.7593255E-3,2.1302454E-1,2.539722E-1,6.622932E-2],"categories":[],"categories_nodes":[],"categories_segments":[],"categories_sizes":[],"default_left":[0,0,0,0,0,0,0,0,0,0,0,0,0,0,0,0,0],"id":12,"left_children":[1,3,5,7,9,-1,-1,11,13,15,-1,-1,-1,-1,-1,-1,-1],"loss_changes":[1.4626803E0,1.5106449E0,6.610688E-1,1.545723E0,6.716243E-1,0E0,0E0,1.5827924E0,1.711046E0,6.4625096E-1,0E0,0E0,0E0,0E0,0E0,0E0,0E0],"parents":[2147483647,0,0,1,1,2,2,3,3,4,4,7,7,8,8,9,9],"right_children":[2,4,6,8,10,-1,-1,12,14,16,-1,-1,-1,-1,-1,-1,-1],"split_conditions":[2.5321362E0,1.4116724E0,-2.6558843E-1,-2.5095212E-1,2.1066973E0,-2.614428E-1,5.635536E-3,-5.828866E-1,1.1178313E0,1.6933467E0,-6.0854446E-2,-2.1767731E-1,-2.9078761E-2,9.7593255E-3,2.1302454E-1,2.539722E-1,6.622932E-2],"split_indices":[3,1,2,0,3,0,0,2,2,1,0,0,0,0,0,0,0],"split_type":[0,0,0,0,0,0,0,0,0,0,0,0,0,0,0,0,0],"sum_hessian":[8.909533E1,8.620585E1,2.889478E0,7.742248E1,8.783369E0,1.7520851E0,1.1373928E0,3.2686844E1,4.4735638E1,7.6835494E0,1.09982E0,3.7395847E0,2.8947258E1,4.1628708E1,3.1069298E0,2.3740377E0,5.3095117E0],"tree_param":{"num_deleted":"0","num_feature":"4","num_nodes":"17","size_leaf_vector":"1"}},{"base_weights":[-4.955796E-3,-4.0750393E-1,3.1119902E-2,6.82426E-2,-2.2441442E-1,5.594812E-2,-5.225411E-1,-1.16215676E-1,1.82767E-1,-2.745707E-4,2.9969212E-1,-2.3262346E-1,4.73785E-3,-1.8852784E-1,6.4449785E-3,-2.8942406E-2,1.3766809E-1],"categories":[],"categories_nodes":[],"categories_segments":[],"categories_sizes":[],"default_left":[0,0,0,0,0,0,0,0,0,0,0,0,0,0,0,0,0],"id":13,"left_children":[1,3,5,7,-1,9,11,-1,-1,13,15,-1,-1,-1,-1,-1,-1],"loss_changes":[1.2965567E0,1.2405884E0,1.1573415E0,1.2168905E0,0E0,1.0888138E0,5.048805E-1,0E0,0E0,9.094551E-1,9.8348784E-1,0E0,0E0,0E0,0E0,0E0,0E0],"parents":[2147483647,0,0,1,1,2,2,3,3,5,5,6,6,9,9,10,10],"right_children":[2,4,6,8,-1,10,12,-1,-1,14,16,-1,-1,-1,-1,-1,-1],"split_conditions":[-9.6691066E-1,-1.248585E0,2.5321362E0,2.674724E-1,-2.2441442E-1,1.2338802E0,-2.6558843E-1,-1.16215676E-1,1.82767E-1,-1.1540232E0,-5.1942694E-1,-2.3262346E-1,4.73785E-3,-1.8852784E-1,6.4449785E-3,-2.8942406E-2,1.3766809E-1],"split_indices":[1,1,3,2,0,0,2,0,0,2,2,0,0,0,0,0,0],"split_type":[0,0,0,0,0,0,0,0,0,0,0,0,0,0,0,0,0],"sum_hessian":[8.740774E1,6.342261E0,8.1065475E1,2.9794796E0,3.3627815E0,7.844659E1,2.618888E0,1.7714432E0,1.2080363E0,6.4555016E1,1.3891571E1,1.482245E0,1.1366429E0,1.2277234E0,6.332729E1,4.0950937E0,9.796477E0],"tree_param":{"num_deleted":"0","num_feature":"4","num_nodes":"17","size_leaf_vector":"1"}},{"base_weights":[-9.7168805E-3,-4.641216E-2,2.8853732E-1,-2.2468423E-2,-2.5909317E-1,-4.116008E-2,5.208866E-1,-5.7651076E-2,2.2913346E-1,1.0927906E-1,-3.4802958E-1,2.4306601E-1,1.562243E-1,-9.773963E-3,-2.6337513E-1,-2.1358849E-1,3.5867475E-2,1.2338446E-1,-7.463849E-2],"categories":[],"categories_nodes":[],"categories_segments":[],"categories_sizes":[],"default_left":[0,0,0,0,0,0,0,0,0,0,0,0,0,0,0,0,0,0,0],"id":14,"left_children":[1,3,5,7,-1,9,11,13,-1,-1,15,-1,17,-1,-1,-1,-1,-1,-1],"loss_changes":[9.66666E-1,1.5150801E0,7.6304007E-1,2.1799526E0,0E0,7.399787E-1,4.803146E-1,1.5104228E0,0E0,0E0,6.495383E-1,0E0,4.931849E-1,0E0,0E0,0E0,0E0,0E0,0E0],"parents":[2147483647,0,0,1,1,2,2,3,3,5,5,6,6,7,7,10,10,12,12],"right_children":[2,4,6,8,-1,10,12,14,-1,-1,16,-1,18,-1,-1,-1,-1,-1,-1],"split_conditions":[1.4116724E0,1.3490782E0,2.9285625E-1,1.7016599E0,-2.5909317E-1,1.755941E0,-1.906719E-1,1.5874325E0,2.2913346E-1,1.0927906E-1,1.4967911E-1,2.4306601E-1,8.0053324E-1,-9.773963E-3,-2.6337513E-1,-2.1358849E-1,3.5867475E-2,1.2338446E-1,-7.463849E-2],"split_indices":[1,1,2,2,0,1,3,2,0,0,3,0,2,0,0,0,0,0,0],"split_type":[0,0,0,0,0,0,0,0,0,0,0,0,0,0,0,0,0,0,0],"sum_hessian":[8.610059E1,7.7419754E1,8.6808405E0,7.621428E1,1.2054772E0,3.9288127E0,4.752028E0,7.383693E1,2.37735E0,1.6120315E0,2.3167813E0,1.968404E0,2.783624E0,7.265594E1,1.1809895E0,1.0089054E0,1.3078759E0,1.6985289E0,1.0850949E0],"tree_param":{"num_deleted":"0","num_feature":"4","num_nodes":"19","size_leaf_vector":"1"}},{"base_weights":[-6.846468E-3,-2.3182355E-1,3.636146E-2,-2.3887321E-1,5.5167295E-2,-1.0306271E-2,3.819119E-1,-2.9726213E-1,5.4440516E-1,4.5710355E-2,-8.739421E-1,6.940624E-1,-4.0828776E-2,-1.7208126E-1,1.6921727E-2,3.2250807E-1,-8.540456E-2,-6.977807E-2,3.1103244E-2,-3.4529176E-2,-3.3509523E-1,6.856276E-2,3.0263913E-1,-1.6349897E-1,7.616785E-2],"categories":[],"categories_nodes":[],"categories_segments":[],"categories_sizes":[],"default_left":[0,0,0,0,0,0,0,0,0,0,0,0,0,0,0,0,0,0,0,0,0,0,0,0,0],"id":15,"left_children":[1,3,5,-1,7,9,11,13,15,17,19,21,23,-1,-1,-1,-1,-1,-1,-1,-1,-1,-1,-1,-1],"loss_changes":[8.468951E-1,2.3169296E0,1.1847267E0,0E0,1.9270084E0,3.2079282E0,1.1814717E0,6.771618E-1,2.347292E0,1.0315166E0,6.1624E-1,5.1409197E-1,8.302355E-1,0E0,0E0,0E0,0E0,0E0,0E0,0E0,0E0,0E0,0E0,0E0,0E0],"parents":[2147483647,0,0,1,1,2,2,4,4,5,5,6,6,7,7,8,8,9,9,10,10,11,11,12,12],"right_children":[2,4,6,-1,8,10,12,14,16,18,20,22,24,-1,-1,-1,-1,-1,-1,-1,-1,-1,-1,-1,-1],"split_conditions":[-5.913449E-1,-5.479186E-1,1.2447506E0,-2.3887321E-1,2.674724E-1,1.0162959E0,1.5874325E0,-9.0431637E-1,-8.417221E-1,-7.011984E-1,4.7275805E-1,1.3843617E0,1.7143518E0,-1.7208126E-1,1.6921727E-2,3.2250807E-1,-8.540456E-2,-6.977807E-2,3.1103244E-2,-3.4529176E-2,-3.3509523E-1,6.856276E-2,3.0263913E-1,-1.6349897E-1,7.616785E-2],"split_indices":[1,0,2,0,2,2,2,1,1,3,1,2,2,0,0,0,0,0,0,0,0,0,0,0,0],"split_type":[0,0,0,0,0,0,0,0,0,0,0,0,0,0,0,0,0,0,0,0,0,0,0,0,0],"sum_hessian":[8.525485E1,1.303231E1,7.222254E1,3.7947586E0,9.237551E0,6.448395E1,7.738597E0,5.597622E0,3.639929E0,6.1445576E1,3.0383737E0,4.0823703E0,3.6562266E0,2.7932305E0,2.8043916E0,2.038582E0,1.601347E0,1.0072817E1,5.1372757E1,1.0945265E0,1.9438473E0,2.3430057E0,1.7393647E0,1.0355551E0,2.6206713E0],"tree_param":{"num_deleted":"0","num_feature":"4","num_nodes":"25","size_leaf_vector":"1"}},{"base_weights":[-9.600411E-3,1.1149952E-2,-4.9641266E-1,-2.5529616E-2,2.6518205E-1,-2.1508694E-1,-6.6064303E-3,-4.3010533E-1,1.6160078E-2,4.2294395E-1,-9.264942E-2,-2.2213924E-1,-3.0206114E-2,2.678408E-1,-3.5361156E-3,-1.2882008E-2,2.1684143E-1],"categories":[],"categories_nodes":[],"categories_segments":[],"categories_sizes":[],"default_left":[0,0,0,0,0,0,0,0,0,0,0,0,0,0,0,0,0],"id":16,"left_children":[1,3,5,7,9,-1,-1,11,13,15,-1,-1,-1,-1,-1,-1,-1],"loss_changes":[8.6406916E-1,7.7543086E-1,3.5003787E-1,1.2381766E0,1.0811286E0,0E0,0E0,6.2634563E-1,1.6554818E0,1.2401975E0,0E0,0E0,0E0,0E0,0E0,0E0,0E0],"parents":[2147483647,0,0,1,1,2,2,3,3,4,4,7,7,8,8,9,9],"right_children":[2,4,6,8,10,-1,-1,12,14,16,-1,-1,-1,-1,-1,-1,-1],"split_conditions":[2.5321362E0,1.4259953E0,-2.6558843E-1,-7.098058E-1,7.116898E-1,-2.1508694E-1,-6.6064303E-3,-2.5095212E-1,-6.4634615E-1,-5.1942694E-1,-9.264942E-2,-2.2213924E-1,-3.0206114E-2,2.678408E-1,-3.5361156E-3,-1.2882008E-2,2.1684143E-1],"split_indices":[3,3,2,2,2,0,0,0,2,2,0,0,0,0,0,0,0],"split_type":[0,0,0,0,0,0,0,0,0,0,0,0,0,0,0,0,0],"sum_hessian":[8.399051E1,8.149393E1,2.496581E0,7.199771E1,9.496212E0,1.3552216E0,1.1413594E0,5.85559E0,6.614213E1,7.655386E0,1.8408258E0,2.3725336E0,3.483056E0,1.0873739E0,6.505475E1,3.333318E0,4.3220677E0],"tree_param":{"num_deleted":"0","num_feature":"4","num_nodes":"17","size_leaf_vector":"1"}},{"base_weights":[-8.366409E-3,-4.4424713E-2,2.3434047E-1,-1.5335955E-2,-3.211262E-1,-6.82048E-2,6.0760367E-1,-4.2544752E-1,1.707207E-2,-2.3516466E-1,1.1696672E-1,2.264507E-1,2.3686215E-3,-1.6928891E-3,-2.2342716E-1,1.7708243E-1,-2.3993077E-3,2.7496314E-2,-2.066173E-1],"categories":[],"categories_nodes":[],"categories_segments":[],"categories_sizes":[],"default_left":[0,0,0,0,0,0,0,0,0,0,0,0,0,0,0,0,0,0,0],"id":17,"left_children":[1,3,5,7,-1,9,11,13,15,17,-1,-1,-1,-1,-1,-1,-1,-1,-1],"loss_changes":[7.470874E-1,2.1959512E0,1.2890327E0,9.788219E-1,0E0,6.271385E-1,4.3964386E-1,7.1858734E-1,9.920508E-1,9.1614366E-1,0E0,0E0,0E0,0E0,0E0,0E0,0E0,0E0,0E0],"parents":[2147483647,0,0,1,1,2,2,3,3,5,5,6,6,7,7,8,8,9,9],"right_children":[2,4,6,8,-1,10,12,14,16,18,-1,-1,-1,-1,-1,-1,-1,-1,-1],"split_conditions":[1.1305232E0,1.0924475E0,-5.479186E-1,-9.6691066E-1,-3.211262E-1,2.0697258E0,1.0856444E0,-1.248585E0,-8.417221E-1,1.5874325E0,1.1696672E-1,2.264507E-1,2.3686215E-3,-1.6928891E-3,-2.2342716E-1,1.7708243E-1,-2.3993077E-3,2.7496314E-2,-2.066173E-1],"split_indices":[2,2,0,1,0,2,3,1,1,2,0,0,0,0,0,0,0,0,0],"split_type":[0,0,0,0,0,0,0,0,0,0,0,0,0,0,0,0,0,0,0],"sum_hessian":[8.317627E1,7.31287E1,1.0047571E1,7.20995E1,1.0291982E0,6.000882E0,4.0466895E0,4.3920383E0,6.770746E1,4.7546253E0,1.2462565E0,3.0413485E0,1.0053407E0,2.3370852E0,2.054953E0,1.892457E0,6.5815E1,3.227166E0,1.5274595E0],"tree_param":{"num_deleted":"0","num_feature":"4","num_nodes":"19","size_leaf_vector":"1"}},{"base_weights":[-8.875344E-3,-3.218502E-2,3.3003277E-1,-3.592793E-6,-4.3646756E-1,1.7251241E-1,-2.803757E-2,-2.3812642E-2,4.8778984E-1,8.723554E-2,-8.784779E-1,-6.1203055E-2,4.9609777E-2,-9.55763E-2,1.7430343E-3,2.9965034E-2,1.9149695E-1,-5.2122347E-2,-3.377181E-1],"categories":[],"categories_nodes":[],"categories_segments":[],"categories_sizes":[],"default_left":[0,0,0,0,0,0,0,0,0,0,0,0,0,0,0,0,0,0,0],"id":18,"left_children":[1,3,5,7,9,-1,11,13,15,-1,17,-1,-1,-1,-1,-1,-1,-1,-1],"loss_changes":[6.716478E-1,1.0304501E0,4.9632496E-1,8.752536E-1,2.132652E0,0E0,1.418695E-1,6.2929446E-1,1.4103979E-1,0E0,4.8063827E-1,0E0,0E0,0E0,0E0,0E0,0E0,0E0,0E0],"parents":[2147483647,0,0,1,1,2,2,3,3,4,4,6,6,7,7,8,8,10,10],"right_children":[2,4,6,8,10,-1,12,14,16,-1,18,-1,-1,-1,-1,-1,-1,-1,-1],"split_conditions":[1.8811296E0,2.0216098E0,2.194101E0,1.5961709E0,3.429808E-1,1.7251241E-1,3.5631585E-1,-7.098058E-1,9.369137E-1,8.723554E-2,2.191785E0,-6.1203055E-2,4.9609777E-2,-9.55763E-2,1.7430343E-3,2.9965034E-2,1.9149695E-1,-5.2122347E-2,-3.377181E-1],"split_indices":[1,3,1,3,0,0,2,2,0,0,3,0,0,0,0,0,0,0,0],"split_type":[0,0,0,0,0,0,0,0,0,0,0,0,0,0,0,0,0,0,0],"sum_hessian":[8.267583E1,7.820221E1,4.4736176E0,7.336247E1,4.8397417E0,2.2963808E0,2.177237E0,7.085523E1,2.5072396E0,1.9588758E0,2.880866E0,1.1112754E0,1.0659616E0,5.579454E0,6.527578E1,1.1660355E0,1.3412039E0,1.1904397E0,1.6904263E0],"tree_param":{"num_deleted":"0","num_feature":"4","num_nodes":"19","size_leaf_vector":"1"}},{"base_weights":[-6.8084514E-3,-1.9326726E-1,2.7830727E-2,-2.0755038E-1,2.722919E-2,2.3580357E-1,-3.9716154E-2,-1.8301587E-1,4.9295187E-1,-2.0844288E-2,9.780522E-1,-7.091331E-1,1.2551503E-2,-1.9812097E-1,1.4201669E-2,2.5208756E-1,-2.4932971E-2,6.796996E-2,-1.4427853E-1,8.28638E-2,4.350781E-1,-2.9373825E-1,-7.718037E-2,4.9003474E-2,-4.285047E-2],"categories":[],"categories_nodes":[],"categories_segments":[],"categories_sizes":[],"default_left":[0,0,0,0,0,0,0,0,0,0,0,0,0,0,0,0,0,0,0,0,0,0,0,0,0],"id":19,"left_children":[1,3,5,-1,7,9,11,13,15,17,19,21,23,-1,-1,-1,-1,-1,-1,-1,-1,-1,-1,-1,-1],"loss_changes":[5.40773E-1,1.4603572E0,1.0036939E0,0E0,1.0746611E0,3.3535035E0,1.9082437E0,8.731979E-1,7.4970263E-1,1.700371E0,1.0962172E0,2.2987211E-1,1.226182E0,0E0,0E0,0E0,0E0,0E0,0E0,0E0,0E0,0E0,0E0,0E0,0E0],"parents":[2147483647,0,0,1,1,2,2,4,4,5,5,6,6,7,7,8,8,9,9,10,10,11,11,12,12],"right_children":[2,4,6,-1,8,10,12,14,16,18,20,22,24,-1,-1,-1,-1,-1,-1,-1,-1,-1,-1,-1,-1],"split_conditions":[-5.913449E-1,-5.479186E-1,-6.161107E-1,-2.0755038E-1,7.497655E-1,-7.011984E-1,-5.310229E-1,-6.161107E-1,9.5283633E-1,6.292438E-1,4.5785126E-1,2.8016433E-1,1.4055315E-1,-1.9812097E-1,1.4201669E-2,2.5208756E-1,-2.4932971E-2,6.796996E-2,-1.4427853E-1,8.28638E-2,4.350781E-1,-2.9373825E-1,-7.718037E-2,4.9003474E-2,-4.285047E-2],"split_indices":[1,0,3,0,2,3,3,3,2,1,2,2,2,0,0,0,0,0,0,0,0,0,0,0,0],"split_type":[0,0,0,0,0,0,0,0,0,0,0,0,0,0,0,0,0,0,0,0,0,0,0,0,0],"sum_hessian":[8.189401E1,1.2112788E1,6.978122E1,3.058823E0,9.053966E0,1.6496992E1,5.3284225E1,6.656152E0,2.3978138E0,1.2980599E1,3.5163941E0,2.9489007E0,5.0335327E1,1.5587993E0,5.0973525E0,1.2097212E0,1.1880925E0,8.771349E0,4.20925E0,2.0517824E0,1.4646116E0,1.1155125E0,1.8333882E0,2.5519209E1,2.4816116E1],"tree_param":{"num_deleted":"0","num_feature":"4","num_nodes":"25","size_leaf_vector":"1"}},{"base_weights":[-7.1228594E-3,-4.0475443E-2,2.2336242E-1,-8.852546E-3,-2.1907619E-1,1.1047643E-2,6.136549E-1,1.035713E-1,-1.025067E-1,1.3482746E-1,-1.1470685E-1,2.5555968E-1,4.7834013E-3,-2.8185586E-2,9.2530616E-2,2.3310296E-2,-9.458812E-2,1.1497121E-1,-4.3424793E-2],"categories":[],"categories_nodes":[],"categories_segments":[],"categories_sizes":[],"default_left":[0,0,0,0,0,0,0,0,0,0,0,0,0,0,0,0,0,0,0],"id":20,"left_children":[1,3,5,7,-1,9,11,13,15,17,-1,-1,-1,-1,-1,-1,-1,-1,-1],"loss_changes":[6.445336E-1,1.5872734E0,8.718989E-1,7.568445E-1,0E0,4.3556917E-1,5.1574016E-1,1.3524692E0,1.5263954E0,5.234241E-1,0E0,0E0,0E0,0E0,0E0,0E0,0E0,0E0,0E0],"parents":[2147483647,0,0,1,1,2,2,3,3,5,5,6,6,7,7,8,8,9,9],"right_children":[2,4,6,8,-1,10,12,14,16,18,-1,-1,-1,-1,-1,-1,-1,-1,-1],"split_conditions":[1.1305232E0,1.0162959E0,4.6014335E-2,4.6014335E-2,-2.1907619E-1,-1.0558415E-1,1.5366648E0,1.151693E-1,1.4055315E-1,6.6054094E-1,-1.1470685E-1,2.5555968E-1,4.7834013E-3,-2.8185586E-2,9.2530616E-2,2.3310296E-2,-9.458812E-2,1.1497121E-1,-4.3424793E-2],"split_indices":[2,2,0,0,0,3,2,2,2,1,0,0,0,0,0,0,0,0,0],"split_type":[0,0,0,0,0,0,0,0,0,0,0,0,0,0,0,0,0,0,0],"sum_hessian":[8.166812E1,7.206437E1,9.60375E0,6.987384E1,2.1905324E0,6.886097E0,2.7176538E0,3.1706722E1,3.8167118E1,5.737987E0,1.1481097E0,1.6391674E0,1.0784862E0,1.6418211E1,1.528851E1,2.1009325E1,1.7157791E1,2.8420174E0,2.8959699E0],"tree_param":{"num_deleted":"0","num_feature":"4","num_nodes":"19","size_leaf_vector":"1"}},{"base_weights":[-5.065613E-3,-3.533813E-2,2.5467658E-1,-1.4305768E-2,-2.1574396E-1,3.7646374E-1,-6.188971E-2,-4.204275E-2,2.0426773E-1,2.0032674E-1,9.935501E-2,-2.0558828E-2,8.358087E-2,-7.381349E-2,1.9693406E-1],"categories":[],"categories_nodes":[],"categories_segments":[],"categories_sizes":[],"default_left":[0,0,0,0,0,0,0,0,0,0,0,0,0,0,0],"id":21,"left_children":[1,3,5,7,-1,9,-1,11,-1,-1,13,-1,-1,-1,-1],"loss_changes":[6.577884E-1,1.0651554E0,5.680312E-1,1.4471674E0,0E0,5.19938E-1,0E0,6.2789994E-1,0E0,0E0,1.1037974E0,0E0,0E0,0E0,0E0],"parents":[2147483647,0,0,1,1,2,2,3,3,5,5,7,7,10,10],"right_children":[2,4,6,8,-1,10,-1,12,-1,-1,14,-1,-1,-1,-1],"split_conditions":[1.4116724E0,1.3490782E0,2.1066973E0,1.7016599E0,-2.1574396E-1,1.8498324E0,-6.188971E-2,1.0674038E0,2.0426773E-1,2.0032674E-1,9.369137E-1,-2.0558828E-2,8.358087E-2,-7.381349E-2,1.9693406E-1],"split_indices":[1,1,3,2,0,1,0,1,0,0,0,0,0,0,0],"split_type":[0,0,0,0,0,0,0,0,0,0,0,0,0,0,0],"sum_hessian":[8.151106E1,7.377648E1,7.734576E0,7.256546E1,1.211025E0,6.2632055E0,1.4713709E0,7.068481E1,1.8806549E0,2.3661857E0,3.8970196E0,6.601774E1,4.6670666E0,2.750213E0,1.1468066E0],"tree_param":{"num_deleted":"0","num_feature":"4","num_nodes":"15","size_leaf_vector":"1"}},{"base_weights":[1.1295995E-3,-2.0093685E-2,3.1447512E-1,6.1806827E-3,-3.5056403E-1,1.6162981E-1,-8.309976E-3,-1.4231493E-2,4.2341536E-1,7.367576E-2,-7.330686E-1,-5.8013264E-2,5.3744752E-2,2.2664888E-2,-2.727814E-2,5.339067E-3,1.771901E-1,-4.070443E-2,-2.9081574E-1],"categories":[],"categories_nodes":[],"categories_segments":[],"categories_sizes":[],"default_left":[0,0,0,0,0,0,0,0,0,0,0,0,0,0,0,0,0,0,0],"id":22,"left_children":[1,3,5,7,9,-1,11,13,15,-1,17,-1,-1,-1,-1,-1,-1,-1,-1],"loss_changes":[5.490192E-1,6.739594E-1,3.8360512E-1,6.2479573E-1,1.4833653E0,0E0,1.4329283E-1,4.9048024E-1,2.2153467E-1,0E0,3.954184E-1,0E0,0E0,0E0,0E0,0E0,0E0,0E0,0E0],"parents":[2147483647,0,0,1,1,2,2,3,3,4,4,6,6,7,7,8,8,10,10],"right_children":[2,4,6,8,10,-1,12,14,16,-1,18,-1,-1,-1,-1,-1,-1,-1,-1],"split_conditions":[1.8811296E0,2.0216098E0,2.194101E0,1.5961709E0,3.429808E-1,1.6162981E-1,3.5631585E-1,1.4055315E-1,1.9132085E-1,7.367576E-2,2.191785E0,-5.8013264E-2,5.3744752E-2,2.2664888E-2,-2.727814E-2,5.339067E-3,1.771901E-1,-4.070443E-2,-2.9081574E-1],"split_indices":[1,3,1,3,0,0,2,2,2,0,3,0,0,0,0,0,0,0,0],"split_type":[0,0,0,0,0,0,0,0,0,0,0,0,0,0,0,0,0,0,0],"sum_hessian":[8.060635E1,7.636962E1,4.2367363E0,7.1654E1,4.715624E0,2.1049623E0,2.131774E0,6.923284E1,2.4211547E0,1.9829946E0,2.7326293E0,1.0568427E0,1.0749314E0,3.190237E1,3.733047E1,1.0297463E0,1.3914084E0,1.2207755E0,1.5118538E0],"tree_param":{"num_deleted":"0","num_feature":"4","num_nodes":"19","size_leaf_vector":"1"}},{"base_weights":[1.600538E-3,-1.3522813E-1,5.4425508E-2,-4.1684203E-2,-2.5835225E-1,3.077785E-1,-8.131258E-3,-4.3884763E-1,6.9614924E-2,-1.5392238E-1,5.216325E-1,-4.08197E-2,4.9826258E-1,-2.5368023E-1,6.5041095E-2,1.0462883E-1,-5.7572957E-2,3.598479E-1,7.606722E-2,4.577408E-2,-3.3037424E-2,3.9280422E-2,1.8497628E-1],"categories":[],"categories_nodes":[],"categories_segments":[],"categories_sizes":[],"default_left":[0,0,0,0,0,0,0,0,0,0,0,0,0,0,0,0,0,0,0,0,0,0,0],"id":23,"left_children":[1,3,5,7,-1,9,11,13,15,-1,17,19,21,-1,-1,-1,-1,-1,-1,-1,-1,-1,-1],"loss_changes":[5.9454834E-1,1.5201849E0,9.4272166E-1,9.7429574E-1,0E0,2.3343167E0,8.2400924E-1,1.4661648E0,1.3473903E0,0E0,1.4831758E0,6.404851E-1,5.0515592E-2,0E0,0E0,0E0,0E0,0E0,0E0,0E0,0E0,0E0,0E0],"parents":[2147483647,0,0,1,1,2,2,3,3,5,5,6,6,7,7,8,8,10,10,11,11,12,12],"right_children":[2,4,6,8,-1,10,12,14,16,-1,18,20,22,-1,-1,-1,-1,-1,-1,-1,-1,-1,-1],"split_conditions":[-2.5289652E-1,-2.909723E-1,5.1709678E-2,-5.479186E-1,-2.5835225E-1,-7.011984E-1,1.975021E0,-2.0496398E-2,1.4967911E-1,-1.5392238E-1,-4.4593516E-1,-3.409677E-1,1.4967911E-1,-2.5368023E-1,6.5041095E-2,1.0462883E-1,-5.7572957E-2,3.598479E-1,7.606722E-2,4.577408E-2,-3.3037424E-2,3.9280422E-2,1.8497628E-1],"split_indices":[2,2,2,0,0,3,1,3,3,0,3,1,3,0,0,0,0,0,0,0,0,0,0],"split_type":[0,0,0,0,0,0,0,0,0,0,0,0,0,0,0,0,0,0,0,0,0,0,0],"sum_hessian":[8.023838E1,2.1914618E1,5.832376E1,2.0349804E1,1.5648135E0,1.0773089E1,4.7550674E1,3.8102448E0,1.653956E1,1.9374058E0,8.835683E0,4.5530975E1,2.019698E0,2.1726592E0,1.6375858E0,7.838878E0,8.700682E0,1.5193518E0,7.3163314E0,1.1694679E1,3.3836296E1,1.0053282E0,1.0143697E0],"tree_param":{"num_deleted":"0","num_feature":"4","num_nodes":"23","size_leaf_vector":"1"}},{"base_weights":[1.5660764E-3,-1.9261263E-1,3.6745913E-2,-1.9167893E-1,-1.0495895E-2,2.0550591E-1,-1.8605454E-2,-1.8598963E-1,3.748359E-1,2.36096E-2,7.129888E-1,-4.9440777E-1,4.6290677E-2,2.7563388E-2,-1.3660274E-1,2.0245637E-1,-3.7575755E-2,6.1567724E-2,-1.00507095E-1,3.040002E-2,3.553883E-1,-1.9972709E-1,-5.4256033E-2,7.177253E-2,-1.522904E-2],"categories":[],"categories_nodes":[],"categories_segments":[],"categories_sizes":[],"default_left":[0,0,0,0,0,0,0,0,0,0,0,0,0,0,0,0,0,0,0,0,0,0,0,0,0],"id":24,"left_children":[1,3,5,-1,7,9,11,13,15,17,19,21,23,-1,-1,-1,-1,-1,-1,-1,-1,-1,-1,-1,-1],"loss_changes":[5.6041646E-1,1.0161918E0,6.522581E-1,0E0,7.4286133E-1,1.573455E0,1.6652596E0,6.0375214E-1,6.0163355E-1,9.621556E-1,1.1814103E0,2.2718799E-1,9.057828E-1,0E0,0E0,0E0,0E0,0E0,0E0,0E0,0E0,0E0,0E0,0E0,0E0],"parents":[2147483647,0,0,1,1,2,2,4,4,5,5,6,6,7,7,8,8,9,9,10,10,11,11,12,12],"right_children":[2,4,6,-1,8,10,12,14,16,18,20,22,24,-1,-1,-1,-1,-1,-1,-1,-1,-1,-1,-1,-1],"split_conditions":[-5.913449E-1,-5.479186E-1,-6.161107E-1,-1.9167893E-1,7.497655E-1,-7.011984E-1,-4.4593516E-1,-2.0496398E-2,9.5283633E-1,6.292438E-1,4.5785126E-1,1.9108374E-1,4.6014335E-2,2.7563388E-2,-1.3660274E-1,2.0245637E-1,-3.7575755E-2,6.1567724E-2,-1.00507095E-1,3.040002E-2,3.553883E-1,-1.9972709E-1,-5.4256033E-2,7.177253E-2,-1.522904E-2],"split_indices":[1,0,3,0,2,3,3,3,2,1,2,1,0,0,0,0,0,0,0,0,0,0,0,0,0],"split_type":[0,0,0,0,0,0,0,0,0,0,0,0,0,0,0,0,0,0,0,0,0,0,0,0,0],"sum_hessian":[8.000198E1,1.1584587E1,6.84174E1,2.6302438E0,8.954343E0,1.6227835E1,5.2189568E1,6.507791E0,2.4465523E0,1.2716427E1,3.5114067E0,5.4695725E0,4.6719994E1,3.5275853E0,2.9802058E0,1.3107327E0,1.1358196E0,8.725491E0,3.9909365E0,2.0576942E0,1.4537126E0,2.8104675E0,2.6591048E0,1.5145181E1,3.1574814E1],"tree_param":{"num_deleted":"0","num_feature":"4","num_nodes":"25","size_leaf_vector":"1"}},{"base_weights":[9.698905E-5,-2.9948564E-2,2.144206E-1,-6.485727E-3,-1.8976098E-1,3.1597826E-1,-9.812087E-2,-6.958024E-2,1.481968E-1,9.526305E-2,6.016794E-1,-3.5694867E-2,7.9437956E-2,-7.17954E-2,1.1260545E-1,-8.278793E-2,7.763406E-2,5.0815284E-2,2.14973E-1],"categories":[],"categories_nodes":[],"categories_segments":[],"categories_sizes":[],"default_left":[0,0,0,0,0,0,0,0,0,0,0,0,0,0,0,0,0,0,0],"id":25,"left_children":[1,3,5,7,-1,9,-1,11,13,15,17,-1,-1,-1,-1,-1,-1,-1,-1],"loss_changes":[5.2411497E-1,1.0051928E0,6.5366143E-1,6.907683E-1,0E0,5.0612813E-1,0E0,8.60795E-1,1.8960563E0,4.4952488E-1,6.2708974E-2,0E0,0E0,0E0,0E0,0E0,0E0,0E0,0E0],"parents":[2147483647,0,0,1,1,2,2,3,3,5,5,7,7,8,8,9,9,10,10],"right_children":[2,4,6,8,-1,10,-1,12,14,16,18,-1,-1,-1,-1,-1,-1,-1,-1],"split_conditions":[1.1305232E0,1.0289879E0,1.1707321E0,7.452934E-1,-1.8976098E-1,-5.479186E-1,-9.812087E-2,1.1612953E0,6.589516E-2,-2.7996274E-2,1.3716698E0,-3.5694867E-2,7.9437956E-2,-7.17954E-2,1.1260545E-1,-8.278793E-2,7.763406E-2,5.0815284E-2,2.14973E-1],"split_indices":[2,2,3,3,0,0,0,1,1,1,2,0,0,0,0,0,0,0,0],"split_type":[0,0,0,0,0,0,0,0,0,0,0,0,0,0,0,0,0,0,0],"sum_hessian":[7.939377E1,7.038668E1,9.007089E0,6.872164E1,1.6650364E0,7.935276E0,1.071813E0,4.920234E1,1.9519304E1,5.22906E0,2.7062156E0,4.342987E1,5.7724686E0,7.193684E0,1.2325621E1,1.3887092E0,3.840351E0,1.0877677E0,1.6184479E0],"tree_param":{"num_deleted":"0","num_feature":"4","num_nodes":"19","size_leaf_vector":"1"}},{"base_weights":[1.0068861E-3,-1.16331115E-1,4.6746626E-2,-4.299006E-3,-5.792191E-1,2.3588473E-1,-2.531876E-2,-4.845707E-1,1.12436906E-1,-2.1922627E-1,-1.5090926E-2,-4.1676775E-1,4.0533286E-1,-3.2367948E-1,3.1672787E-2,-2.3021616E-1,2.5479238E-2,-1.1489456E-1,6.976741E-2,-3.3667274E-2,-1.5043196E-1,-9.23402E-3,1.951035E-1,1.4502072E-1,-7.780357E-3],"categories":[],"categories_nodes":[],"categories_segments":[],"categories_sizes":[],"default_left":[0,0,0,0,0,0,0,0,0,0,0,0,0,0,0,0,0,0,0,0,0,0,0,0,0],"id":26,"left_children":[1,3,5,7,9,11,13,15,17,-1,-1,19,21,-1,23,-1,-1,-1,-1,-1,-1,-1,-1,-1,-1],"loss_changes":[4.2926222E-1,1.1609803E0,7.901627E-1,1.1237051E0,3.130479E-1,1.9350746E0,2.5899389E0,6.961296E-1,1.0503771E0,0E0,0E0,4.13208E-2,1.4289117E0,0E0,1.0885868E0,0E0,0E0,0E0,0E0,0E0,0E0,0E0,0E0,0E0,0E0],"parents":[2147483647,0,0,1,1,2,2,3,3,4,4,5,5,6,6,7,7,8,8,11,11,12,12,14,14],"right_children":[2,4,6,8,10,12,14,16,18,-1,-1,20,22,-1,24,-1,-1,-1,-1,-1,-1,-1,-1,-1,-1],"split_conditions":[-2.5289652E-1,-3.4173998E-1,1.4055315E-1,-5.479186E-1,5.751179E-1,-7.011984E-1,1.6593699E-1,-2.0496398E-2,-4.3485916E-1,-2.1922627E-1,-1.5090926E-2,-2.7996274E-2,-2.7837345E-1,-3.2367948E-1,-8.7137395E-1,-2.3021616E-1,2.5479238E-2,-1.1489456E-1,6.976741E-2,-3.3667274E-2,-1.5043196E-1,-9.23402E-3,1.951035E-1,1.4502072E-1,-7.780357E-3],"split_indices":[2,2,2,0,3,3,2,3,1,0,0,1,1,0,3,0,0,0,0,0,0,0,0,0,0],"split_type":[0,0,0,0,0,0,0,0,0,0,0,0,0,0,0,0,0,0,0,0,0,0,0,0,0],"sum_hessian":[7.796839E1,2.143556E1,5.6532833E1,1.807112E1,3.3644395E0,1.4970096E1,4.156274E1,2.9174063E0,1.5153713E1,2.3185616E0,1.0458779E0,2.7847388E0,1.2185357E1,1.2126594E0,4.035008E1,1.7171781E0,1.2002283E0,2.5301692E0,1.2623544E1,1.1116874E0,1.6730514E0,4.697804E0,7.487553E0,3.7277184E0,3.662236E1],"tree_param":{"num_deleted":"0","num_feature":"4","num_nodes":"25","size_leaf_vector":"1"}},{"base_weights":[-8.30787E-3,1.2723694E-2,-2.5555432E-1,-8.819026E-3,4.245805E-1,1.7345147E-1,-5.4612005E-1,-4.1555244E-2,2.1457389E-1,2.4446351E-2,1.6803971E-1,-9.288737E-2,1.7887777E-1,-2.9060425E-2,-2.1400945E-1,6.9690784E-3,-8.0594406E-2,1.2430973E-1,-2.5234861E-2],"categories":[],"categories_nodes":[],"categories_segments":[],"categories_sizes":[],"default_left":[0,0,0,0,0,0,0,0,0,0,0,0,0,0,0,0,0,0,0],"id":27,"left_children":[1,3,5,7,9,11,13,15,17,-1,-1,-1,-1,-1,-1,-1,-1,-1,-1],"loss_changes":[4.0868616E-1,6.4974123E-1,8.6256397E-1,5.2206784E-1,1.2361336E-1,8.476633E-1,2.2493577E-1,9.189732E-1,5.7973623E-1,0E0,0E0,0E0,0E0,0E0,0E0,0E0,0E0,0E0,0E0],"parents":[2147483647,0,0,1,1,2,2,3,3,4,4,5,5,6,6,7,7,8,8],"right_children":[2,4,6,8,10,12,14,16,18,-1,-1,-1,-1,-1,-1,-1,-1,-1,-1],"split_conditions":[2.0216098E0,1.5961709E0,3.429808E-1,1.1305232E0,9.369137E-1,-5.479186E-1,2.191785E0,5.974624E-1,6.918381E-1,2.4446351E-2,1.6803971E-1,-9.288737E-2,1.7887777E-1,-2.9060425E-2,-2.1400945E-1,6.9690784E-3,-8.0594406E-2,1.2430973E-1,-2.5234861E-2],"split_indices":[3,3,0,2,0,0,3,2,1,0,0,0,0,0,0,0,0,0,0],"split_type":[0,0,0,0,0,0,0,0,0,0,0,0,0,0,0,0,0,0,0],"sum_hessian":[7.696849E1,7.1808754E1,5.1597404E0,6.916934E1,2.6394076E0,2.2462783E0,2.913462E0,6.1038662E1,8.130684E0,1.200925E0,1.4384825E0,1.1733593E0,1.072919E0,1.2187803E0,1.6946816E0,4.8188927E1,1.2849734E1,4.639845E0,3.4908388E0],"tree_param":{"num_deleted":"0","num_feature":"4","num_nodes":"19","size_leaf_vector":"1"}},{"base_weights":[-5.187874E-3,-1.1005699E-1,4.7925953E-2,-2.4370763E-2,-2.817783E-1,3.8865012E-1,6.1456405E-4,-9.526693E-2,1.5640166E-1,-4.2608622E-1,5.287268E-2,2.8155288E-3,7.393986E-1,-2.5316639E-2,1.2561312E-1,-2.9945374E-3,-2.1373789E-1,-1.9795991E-1,1.2505785E-1,1.6853082E-1,-2.1669061E-1,2.653651E-1,7.1989104E-2,4.912124E-3,-1.1423627E-1],"categories":[],"categories_nodes":[],"categories_segments":[],"categories_sizes":[],"default_left":[0,0,0,0,0,0,0,0,0,0,0,0,0,0,0,0,0,0,0,0,0,0,0,0,0],"id":28,"left_children":[1,3,5,7,9,11,13,15,-1,17,-1,19,21,23,-1,-1,-1,-1,-1,-1,-1,-1,-1,-1,-1],"loss_changes":[4.3766913E-1,3.816199E-1,8.416659E-1,7.734597E-1,6.4974296E-1,8.5946214E-1,5.186513E-1,9.0891516E-1,0E0,1.6355572E0,0E0,2.0413039E0,2.9209733E-2,6.741156E-1,0E0,0E0,0E0,0E0,0E0,0E0,0E0,0E0,0E0,0E0,0E0],"parents":[2147483647,0,0,1,1,2,2,3,3,4,4,5,5,6,6,7,7,9,9,11,11,12,12,13,13],"right_children":[2,4,6,8,10,12,14,16,-1,18,-1,20,22,24,-1,-1,-1,-1,-1,-1,-1,-1,-1,-1,-1],"split_conditions":[-1.2597726E-1,-3.4173998E-1,5.1709678E-2,-3.9250767E-1,9.369137E-1,-1.906719E-1,1.975021E0,-4.432754E-1,1.5640166E-1,5.751179E-1,5.287268E-2,-5.310229E-1,4.900301E-1,1.3490782E0,1.2561312E-1,-2.9945374E-3,-2.1373789E-1,-1.9795991E-1,1.2505785E-1,1.6853082E-1,-2.1669061E-1,2.653651E-1,7.1989104E-2,4.912124E-3,-1.1423627E-1],"split_indices":[2,2,2,2,0,3,1,2,0,3,0,3,3,1,0,0,0,0,0,0,0,0,0,0,0],"split_type":[0,0,0,0,0,0,0,0,0,0,0,0,0,0,0,0,0,0,0,0,0,0,0,0,0],"sum_hessian":[7.662918E1,2.5402275E1,5.122691E1,1.7708122E1,7.694153E0,5.366203E0,4.5860706E1,1.6402596E1,1.3055266E0,5.9037795E0,1.790373E0,3.035301E0,2.3309016E0,4.406702E1,1.7936838E0,1.5304022E1,1.098573E0,4.791977E0,1.1118029E0,1.8412515E0,1.1940496E0,1.208555E0,1.1223466E0,4.0295067E1,3.7719536E0],"tree_param":{"num_deleted":"0","num_feature":"4","num_nodes":"25","size_leaf_vector":"1"}},{"base_weights":[-8.8566076E-4,-1.2527552E-2,1.2107184E-1,4.3182354E-3,-3.9366195E-1,-1.5980802E-2,1.7841414E-1,-1.4827782E-1,-3.390795E-2,-5.5935635E-4,-1.303698E-1],"categories":[],"categories_nodes":[],"categories_segments":[],"categories_sizes":[],"default_left":[0,0,0,0,0,0,0,0,0,0,0],"id":29,"left_children":[1,3,-1,5,7,9,-1,-1,-1,-1,-1],"loss_changes":[3.6909238E-1,4.904222E-1,0E0,8.9498913E-1,3.540224E-2,4.270154E-1,0E0,0E0,0E0,0E0,0E0],"parents":[2147483647,0,0,1,1,3,3,4,4,5,5],"right_children":[2,4,-1,6,8,10,-1,-1,-1,-1,-1],"split_conditions":[2.0697258E0,1.5874325E0,1.2107184E-1,1.3843617E0,1.7143518E0,1.3209021E0,1.7841414E-1,-1.4827782E-1,-3.390795E-2,-5.5935635E-4,-1.303698E-1],"split_indices":[2,2,0,2,2,2,0,0,0,0,0],"split_type":[0,0,0,0,0,0,0,0,0,0,0],"sum_hessian":[7.631212E1,7.511893E1,1.1931895E0,7.28861E1,2.2328284E0,7.1404015E1,1.4820879E0,1.0832927E0,1.1495357E0,7.004624E1,1.3577708E0],"tree_param":{"num_deleted":"0","num_feature":"4","num_nodes":"11","size_leaf_vector":"1"}},{"base_weights":[-6.57759E-4,1.1880197E-2,-1.01352654E-1,-2.1753192E-1,2.6794717E-2,1.4578953E-1,-1.928556E-1,-9.308444E-3,1.8403347E-1,-5.251977E-2,1.1822013E-1,1.4644227E-2,-4.3958623E-2,-4.8843224E-2,1.00787856E-1],"categories":[],"categories_nodes":[],"categories_segments":[],"categories_sizes":[],"default_left":[0,0,0,0,0,0,0,0,0,0,0,0,0,0,0],"id":30,"left_children":[1,3,-1,5,7,9,-1,11,13,-1,-1,-1,-1,-1,-1],"loss_changes":[3.299615E-1,2.634793E-1,0E0,8.2098275E-1,4.081474E-1,3.361159E-1,0E0,4.7913343E-1,7.6171947E-1,0E0,0E0,0E0,0E0,0E0,0E0],"parents":[2147483647,0,0,1,1,3,3,4,4,5,5,7,7,8,8],"right_children":[2,4,-1,6,8,10,-1,12,14,-1,-1,-1,-1,-1,-1],"split_conditions":[2.5321362E0,-1.0295049E0,-1.01352654E-1,-1.248585E0,1.2338802E0,2.674724E-1,-1.928556E-1,3.1985462E-1,-5.1942694E-1,-5.251977E-2,1.1822013E-1,1.4644227E-2,-4.3958623E-2,-4.8843224E-2,1.00787856E-1],"split_indices":[3,1,0,1,0,2,0,3,2,0,0,0,0,0,0],"split_type":[0,0,0,0,0,0,0,0,0,0,0,0,0,0,0],"sum_hessian":[7.609992E1,7.430183E1,1.7980926E0,3.7063444E0,7.059548E1,2.353304E0,1.3530406E0,5.8178158E1,1.2417327E1,1.1552382E0,1.1980658E0,4.1320328E1,1.6857828E1,3.76051E0,8.656817E0],"tree_param":{"num_deleted":"0","num_feature":"4","num_nodes":"15","size_leaf_vector":"1"}},{"base_weights":[-3.3242523E-3,-2.3218732E-2,1.7723116E-1,-3.028502E-3,-2.0227918E-1,1.3078885E-1,-3.5900787E-2,-2.3948768E-2,1.716346E-1,1.64861E-1,-3.8357463E-1,-1.1968471E-3,-1.1675704E-1,-2.3682608E-1,1.8545758E-2],"categories":[],"categories_nodes":[],"categories_segments":[],"categories_sizes":[],"default_left":[0,0,0,0,0,0,0,0,0,0,0,0,0,0,0],"id":31,"left_children":[1,3,5,7,-1,-1,9,11,-1,-1,13,-1,-1,-1,-1],"loss_changes":[2.7942687E-1,9.170637E-1,4.4151443E-1,8.4179336E-1,0E0,0E0,1.2607447E0,4.8955336E-1,0E0,0E0,7.4027705E-1,0E0,0E0,0E0,0E0],"parents":[2147483647,0,0,1,1,2,2,3,3,6,6,7,7,10,10],"right_children":[2,4,6,8,-1,-1,10,12,-1,-1,14,-1,-1,-1,-1],"split_conditions":[1.4116724E0,1.3490782E0,1.8185353E0,1.7016599E0,-2.0227918E-1,1.3078885E-1,-2.5095212E-1,1.3589779E0,1.716346E-1,1.64861E-1,1.4967911E-1,-1.1968471E-3,-1.1675704E-1,-2.3682608E-1,1.8545758E-2],"split_indices":[1,1,1,2,0,0,0,2,0,0,3,0,0,0,0],"split_type":[0,0,0,0,0,0,0,0,0,0,0,0,0,0,0],"sum_hessian":[7.564463E1,6.892188E1,6.7227473E0,6.7823204E1,1.0986832E0,2.5643032E0,4.158444E0,6.636751E1,1.4556897E0,1.333088E0,2.825356E0,6.3887203E1,2.4803092E0,1.0741628E0,1.7511933E0],"tree_param":{"num_deleted":"0","num_feature":"4","num_nodes":"15","size_leaf_vector":"1"}},{"base_weights":[-2.641871E-3,-9.114748E-2,3.4224223E-2,-2.5161147E-2,-4.429759E-1,2.0281388E-1,-2.2966016E-2,4.7892794E-2,-3.8325983E-1,-1.7684653E-1,-2.073738E-2,-3.743713E-1,3.6998034E-1,-2.890453E-1,2.76041E-2,-1.5107757E-1,4.894245E-2,1.6476026E-2,-1.9528139E-1,-2.4146503E-2,-1.3872512E-1,-5.090858E-2,1.5307152E-1,1.4257513E-1,-7.1883374E-3],"categories":[],"categories_nodes":[],"categories_segments":[],"categories_sizes":[],"default_left":[0,0,0,0,0,0,0,0,0,0,0,0,0,0,0,0,0,0,0,0,0,0,0,0,0],"id":32,"left_children":[1,3,5,7,9,11,13,15,17,-1,-1,19,21,-1,23,-1,-1,-1,-1,-1,-1,-1,-1,-1,-1],"loss_changes":[2.520683E-1,5.1605624E-1,5.30989E-1,5.463396E-1,1.5239602E-1,1.482482E0,2.0080311E0,1.2040619E0,4.4987816E-1,0E0,0E0,5.6585073E-2,9.422226E-1,0E0,9.4639593E-1,0E0,0E0,0E0,0E0,0E0,0E0,0E0,0E0,0E0,0E0],"parents":[2147483647,0,0,1,1,2,2,3,3,4,4,5,5,6,6,7,7,8,8,11,11,12,12,14,14],"right_children":[2,4,6,8,10,12,14,16,18,-1,-1,20,22,-1,24,-1,-1,-1,-1,-1,-1,-1,-1,-1,-1],"split_conditions":[-2.4020459E-1,-2.909723E-1,1.4055315E-1,1.9365219E0,-2.5289652E-1,-7.011984E-1,1.6593699E-1,-4.661563E-1,3.429808E-1,-1.7684653E-1,-2.073738E-2,-2.7996274E-2,-5.479186E-1,-2.890453E-1,2.2939663E-1,-1.5107757E-1,4.894245E-2,1.6476026E-2,-1.9528139E-1,-2.4146503E-2,-1.3872512E-1,-5.090858E-2,1.5307152E-1,1.4257513E-1,-7.1883374E-3],"split_indices":[2,2,2,3,2,3,2,1,0,0,0,1,0,0,2,0,0,0,0,0,0,0,0,0,0],"split_type":[0,0,0,0,0,0,0,0,0,0,0,0,0,0,0,0,0,0,0,0,0,0,0,0,0],"sum_hessian":[7.529783E1,2.1708689E1,5.3589138E1,1.918248E1,2.5262086E0,1.2929193E1,4.0659943E1,1.6651707E1,2.530774E0,1.4005381E0,1.1256707E0,2.6252677E0,1.03039255E1,1.1535437E0,3.95064E1,2.2958865E0,1.435582E1,1.2611471E0,1.269627E0,1.0464722E0,1.5787957E0,2.08222E0,8.221705E0,3.2320392E0,3.627436E1],"tree_param":{"num_deleted":"0","num_feature":"4","num_nodes":"25","size_leaf_vector":"1"}},{"base_weights":[-1.1781557E-2,-2.0491833E-2,9.515121E-2,-6.247588E-3,-1.061938E-1,-2.4298208E-2,1.6251525E-1,4.708195E-2,-1.5376488E-2],"categories":[],"categories_nodes":[],"categories_segments":[],"categories_sizes":[],"default_left":[0,0,0,0,0,0,0,0,0],"id":33,"left_children":[1,3,-1,5,-1,7,-1,-1,-1],"loss_changes":[2.2343656E-1,3.5262957E-1,0E0,7.318217E-1,0E0,3.5637203E-1,0E0,0E0,0E0],"parents":[2147483647,0,0,1,1,3,3,5,5],"right_children":[2,4,-1,6,-1,8,-1,-1,-1],"split_conditions":[2.0697258E0,1.5874325E0,9.515121E-2,1.3843617E0,-1.061938E-1,-8.4488505E-1,1.6251525E-1,4.708195E-2,-1.5376488E-2],"split_indices":[2,2,0,2,0,0,0,0,0],"split_type":[0,0,0,0,0,0,0,0,0],"sum_hessian":[7.4712776E1,7.369902E1,1.0137593E0,7.165707E1,2.0419528E0,7.029706E1,1.3600111E0,8.477623E0,6.181943E1],"tree_param":{"num_deleted":"0","num_feature":"4","num_nodes":"9","size_leaf_vector":"1"}},{"base_weights":[-5.7690465E-3,-2.06119E-1,6.96831E-3,1.0245263E-1,-1.7807932E-1,3.5137945E-1,-1.0973041E-2,9.889907E-2,-6.434995E-2,-3.5304595E-2,1.8346997E-1,-3.1678233E-1,1.362887E-2,-5.7158615E-3,-1.8717058E-1,9.2012316E-2,-9.479724E-3],"categories":[],"categories_nodes":[],"categories_segments":[],"categories_sizes":[],"default_left":[0,0,0,0,0,0,0,0,0,0,0,0,0,0,0,0,0],"id":34,"left_children":[1,3,5,7,-1,9,11,-1,-1,-1,-1,13,15,-1,-1,-1,-1],"loss_changes":[1.9420385E-1,6.045978E-1,4.4869626E-1,3.144551E-1,0E0,5.106884E-1,5.264118E-1,0E0,0E0,0E0,0E0,4.643532E-1,8.7376726E-1,0E0,0E0,0E0,0E0],"parents":[2147483647,0,0,1,1,2,2,3,3,5,5,6,6,11,11,12,12],"right_children":[2,4,6,8,-1,10,12,-1,-1,-1,-1,14,16,-1,-1,-1,-1],"split_conditions":[-1.0295049E0,-1.248585E0,-8.417221E-1,6.3994724E-1,-1.7807932E-1,2.0401277E-1,-5.913449E-1,9.889907E-2,-6.434995E-2,-3.5304595E-2,1.8346997E-1,-2.0496398E-2,-3.409677E-1,-5.7158615E-3,-1.8717058E-1,9.2012316E-2,-9.479724E-3],"split_indices":[1,1,1,0,0,2,1,0,0,0,0,3,1,0,0,0,0],"split_type":[0,0,0,0,0,0,0,0,0,0,0,0,0,0,0,0,0],"sum_hessian":[7.453799E1,3.5480068E0,7.0989975E1,2.384602E0,1.1634047E0,2.5947607E0,6.839522E1,1.3655722E0,1.01903E0,1.1211929E0,1.4735676E0,4.2083097E0,6.4186905E1,2.6760843E0,1.5322256E0,7.8081865E0,5.637872E1],"tree_param":{"num_deleted":"0","num_feature":"4","num_nodes":"17","size_leaf_vector":"1"}},{"base_weights":[-6.0721566E-3,-2.3244523E-2,1.5224008E-1,-5.579048E-3,-1.7707144E-1,-7.5227454E-2,3.3701998E-1,-2.301995E-2,1.5219586E-1,-1.2831351E-1,8.434629E-2,1.8981205E-1,1.7154252E-2,-1.5013904E-3,-1.07786514E-1,4.1825645E-2,-3.533429E-2],"categories":[],"categories_nodes":[],"categories_segments":[],"categories_sizes":[],"default_left":[0,0,0,0,0,0,0,0,0,0,0,0,0,0,0,0,0],"id":35,"left_children":[1,3,5,7,-1,9,11,13,-1,-1,-1,-1,15,-1,-1,-1,-1],"loss_changes":[2.0904398E-1,6.884539E-1,3.4183693E-1,6.198373E-1,0E0,6.46913E-1,3.993565E-1,4.023077E-1,0E0,0E0,0E0,0E0,6.775001E-2,0E0,0E0,0E0,0E0],"parents":[2147483647,0,0,1,1,2,2,3,3,5,5,6,6,7,7,12,12],"right_children":[2,4,6,8,-1,10,12,14,-1,-1,-1,-1,16,-1,-1,-1,-1],"split_conditions":[1.4116724E0,1.3490782E0,2.9285625E-1,1.7016599E0,-1.7707144E-1,4.6014335E-2,-1.906719E-1,1.3589779E0,1.5219586E-1,-1.2831351E-1,8.434629E-2,1.8981205E-1,7.751494E-1,-1.5013904E-3,-1.07786514E-1,4.1825645E-2,-3.533429E-2],"split_indices":[1,1,2,2,0,0,3,2,0,0,0,0,2,0,0,0,0],"split_type":[0,0,0,0,0,0,0,0,0,0,0,0,0,0,0,0,0],"sum_hessian":[7.4592415E1,6.806272E1,6.529693E0,6.6985535E1,1.077188E0,3.1925209E0,3.3371725E0,6.570634E1,1.2791988E0,1.5044116E0,1.6881093E0,1.2259E0,2.1112723E0,6.332845E1,2.3778894E0,1.0902085E0,1.0210638E0],"tree_param":{"num_deleted":"0","num_feature":"4","num_nodes":"17","size_leaf_vector":"1"}},{"base_weights":[-3.6447588E-3,6.391869E-3,-8.3051816E-2,-2.8025113E-2,1.0491074E-1,-4.49614E-3,-1.9423401E-1,-1.712045E-1,1.9276072E-1,-1.1303898E-2,7.729043E-2,1.9348197E-1,-1.0532396E-3],"categories":[],"categories_nodes":[],"categories_segments":[],"categories_sizes":[],"default_left":[0,0,0,0,0,0,0,0,0,0,0,0,0],"id":36,"left_children":[1,3,-1,5,7,9,-1,-1,11,-1,-1,-1,-1],"loss_changes":[2.0804691E-1,2.5229952E-1,0E0,8.029192E-1,1.2525489E0,4.8181102E-1,0E0,0E0,1.5805044E0,0E0,0E0,0E0,0E0],"parents":[2147483647,0,0,1,1,3,3,4,4,5,5,8,8],"right_children":[2,4,-1,6,8,10,-1,-1,12,-1,-1,-1,-1],"split_conditions":[2.5321362E0,7.452934E-1,-8.3051816E-2,2.1247795E0,-8.4488505E-1,1.2238896E0,-1.9423401E-1,-1.712045E-1,1.0005566E0,-1.1303898E-2,7.729043E-2,1.9348197E-1,-1.0532396E-3],"split_indices":[3,3,0,0,0,1,0,0,3,0,0,0,0],"split_type":[0,0,0,0,0,0,0,0,0,0,0,0,0],"sum_hessian":[7.423011E1,7.254168E1,1.6884339E0,5.429098E1,1.8250696E1,5.3274582E1,1.0163974E0,1.4676831E0,1.6783012E1,4.8048332E1,5.226249E0,4.3879347E0,1.2395079E1],"tree_param":{"num_deleted":"0","num_feature":"4","num_nodes":"13","size_leaf_vector":"1"}},{"base_weights":[-4.9994304E-3,-1.8621077E-1,7.7652056E-3,8.809708E-2,-1.4296716E-1,1.09214164E-1,-8.299043E-3,-6.39667E-2,1.0515005E-1,-2.8196812E-1,1.3359291E-2,-1.8455005E-1,-2.4363669E-3,1.1289184E-1,-2.4163532E-3],"categories":[],"categories_nodes":[],"categories_segments":[],"categories_sizes":[],"default_left":[0,0,0,0,0,0,0,0,0,0,0,0,0,0,0],"id":37,"left_children":[1,3,5,7,-1,-1,9,-1,-1,11,13,-1,-1,-1,-1],"loss_changes":[1.7433015E-1,4.3689245E-1,4.0814102E-1,3.430572E-1,0E0,0E0,4.110077E-1,0E0,0E0,4.588935E-1,5.0528514E-1,0E0,0E0,0E0,0E0],"parents":[2147483647,0,0,1,1,2,2,3,3,6,6,9,9,10,10],"right_children":[2,4,6,8,-1,-1,10,-1,-1,12,14,-1,-1,-1,-1],"split_conditions":[-9.6691066E-1,-1.248585E0,-8.417221E-1,2.674724E-1,-1.4296716E-1,1.09214164E-1,-5.913449E-1,-6.39667E-2,1.0515005E-1,-4.4593516E-1,-4.9745345E-1,-1.8455005E-1,-2.4363669E-3,1.1289184E-1,-2.4163532E-3],"split_indices":[1,1,1,2,0,0,1,0,0,3,1,0,0,0,0],"split_type":[0,0,0,0,0,0,0,0,0,0,0,0,0,0,0],"sum_hessian":[7.374144E1,3.9584107E0,6.978303E1,2.393606E0,1.5648048E0,2.0761027E0,6.7706924E1,1.2014251E0,1.1921808E0,4.083974E0,6.3622955E1,1.2800747E0,2.803899E0,2.6212807E0,6.1001675E1],"tree_param":{"num_deleted":"0","num_feature":"4","num_nodes":"15","size_leaf_vector":"1"}},{"base_weights":[-4.99852E-3,-1.0579652E-1,1.7028233E-2,-1.6946852E-1,2.852349E-2,5.0953317E-1,-9.62152E-3,3.8368624E-1,-2.6511535E-1,3.682932E-2,1.9596565E-1,-2.8074786E-1,2.175072E-2,-8.593093E-2,1.808574E-1,4.715029E-2,-1.719176E-1,-1.4735647E-1,5.9287813E-2,-1.8321463E-3,9.475848E-2],"categories":[],"categories_nodes":[],"categories_segments":[],"categories_sizes":[],"default_left":[0,0,0,0,0,0,0,0,0,0,0,0,0,0,0,0,0,0,0,0,0],"id":38,"left_children":[1,3,5,-1,7,9,11,13,15,-1,-1,17,19,-1,-1,-1,-1,-1,-1,-1,-1],"loss_changes":[1.6739388E-1,8.494627E-1,8.1956327E-1,0E0,1.2913495E0,9.790349E-2,5.1530045E-1,9.909429E-1,9.789762E-1,0E0,0E0,7.293169E-1,4.4914913E-1,0E0,0E0,0E0,0E0,0E0,0E0,0E0,0E0],"parents":[2147483647,0,0,1,1,2,2,4,4,5,5,6,6,7,7,8,8,11,11,12,12],"right_children":[2,4,6,-1,8,10,12,14,16,-1,-1,18,20,-1,-1,-1,-1,-1,-1,-1,-1],"split_conditions":[-5.1942694E-1,-5.479186E-1,-4.432754E-1,-1.6946852E-1,1.4967911E-1,-1.0558415E-1,-2.5289652E-1,-4.3485916E-1,-7.732654E-1,3.682932E-2,1.9596565E-1,5.751179E-1,1.5961709E0,-8.593093E-2,1.808574E-1,4.715029E-2,-1.719176E-1,-1.4735647E-1,5.9287813E-2,-1.8321463E-3,9.475848E-2],"split_indices":[2,0,2,0,3,3,2,1,2,0,0,3,3,0,0,0,0,0,0,0,0],"split_type":[0,0,0,0,0,0,0,0,0,0,0,0,0,0,0,0,0,0,0,0,0],"sum_hessian":[7.358266E1,1.2513905E1,6.1068752E1,2.1069326E0,1.0406972E1,2.2047064E0,5.8864044E1,4.5712647E0,5.835707E0,1.0995001E0,1.1052064E0,5.280426E0,5.358362E1,1.0509764E0,3.5202885E0,2.667451E0,3.1682565E0,3.6485941E0,1.6318319E0,4.984188E1,3.741736E0],"tree_param":{"num_deleted":"0","num_feature":"4","num_nodes":"21","size_leaf_vector":"1"}},{"base_weights":[-3.6745905E-3,5.5868537E-3,-7.781439E-2,4.3173943E-2,-8.464464E-2,-3.3099153E-3,6.17638E-1,-3.520955E-1,1.490273E-1,1.0466391E-2,-1.4723624E-1,5.5546623E-2,2.2034484E-1,2.7308078E-2,-2.2235177E-1,-6.59493E-4,1.5604088E-1],"categories":[],"categories_nodes":[],"categories_segments":[],"categories_sizes":[],"default_left":[0,0,0,0,0,0,0,0,0,0,0,0,0,0,0,0,0],"id":39,"left_children":[1,3,-1,5,7,9,11,13,15,-1,-1,-1,-1,-1,-1,-1,-1],"loss_changes":[1.773661E-1,2.501009E-1,0E0,1.3895208E0,1.4090109E0,9.307246E-1,6.0831547E-2,1.8637711E0,6.9071716E-1,0E0,0E0,0E0,0E0,0E0,0E0,0E0,0E0],"parents":[2147483647,0,0,1,1,3,3,4,4,5,5,6,6,7,7,8,8],"right_children":[2,4,-1,6,8,10,12,14,16,-1,-1,-1,-1,-1,-1,-1,-1],"split_conditions":[2.5321362E0,5.974624E-1,-7.781439E-2,4.8323512E-1,2.2238089E-1,4.0708357E-1,-1.2188771E-1,-5.287506E-1,9.369137E-1,1.0466391E-2,-1.4723624E-1,5.5546623E-2,2.2034484E-1,2.7308078E-2,-2.2235177E-1,-6.59493E-4,1.5604088E-1],"split_indices":[3,2,0,2,1,2,1,1,0,0,0,0,0,0,0,0,0],"split_type":[0,0,0,0,0,0,0,0,0,0,0,0,0,0,0,0,0],"sum_hessian":[7.328256E1,7.166508E1,1.617487E0,5.0958977E1,2.0706097E1,4.8064026E1,2.8949542E0,9.41887E0,1.1287228E1,4.543245E1,2.6315753E0,1.1655354E0,1.7294188E0,4.7617383E0,4.657131E0,8.7256365E0,2.5615904E0],"tree_param":{"num_deleted":"0","num_feature":"4","num_nodes":"17","size_leaf_vector":"1"}}]},"name":"gbtree"},"learner_model_param":{"base_score":"3.5179153E-1","boost_from_average":"1","num_class":"0","num_feature":"4","num_target":"1"},"objective":{"name":"binary:logistic","reg_loss_param":{"scale_pos_weight":"1"}}},"version":[3,0,0]}